FANN_FLO_2.1
num_layers=6
learning_rate=0.010000
connection_rate=1.000000
network_type=0
learning_momentum=0.900000
training_algorithm=0
train_error_function=1
train_stop_function=0
cascade_output_change_fraction=0.010000
quickprop_decay=-0.000100
quickprop_mu=1.750000
rprop_increase_factor=1.200000
rprop_decrease_factor=0.500000
rprop_delta_min=0.000000
rprop_delta_max=50.000000
rprop_delta_zero=0.100000
cascade_output_stagnation_epochs=12
cascade_candidate_change_fraction=0.010000
cascade_candidate_stagnation_epochs=12
cascade_max_out_epochs=150
cascade_min_out_epochs=50
cascade_max_cand_epochs=150
cascade_min_cand_epochs=50
cascade_num_candidate_groups=2
bit_fail_limit=3.49999994039535522461e-01
cascade_candidate_limit=1.00000000000000000000e+03
cascade_weight_multiplier=4.00000005960464477539e-01
cascade_activation_functions_count=10
cascade_activation_functions=3 5 7 8 10 11 14 15 16 17 
cascade_activation_steepnesses_count=4
cascade_activation_steepnesses=2.50000000000000000000e-01 5.00000000000000000000e-01 7.50000000000000000000e-01 1.00000000000000000000e+00 
layer_sizes=36 42 61 64 119 2 
scale_included=0
neurons (num_inputs, activation_function, activation_steepness)=(0, 0, 0.00000000000000000000e+00) (0, 0, 0.00000000000000000000e+00) (0, 0, 0.00000000000000000000e+00) (0, 0, 0.00000000000000000000e+00) (0, 0, 0.00000000000000000000e+00) (0, 0, 0.00000000000000000000e+00) (0, 0, 0.00000000000000000000e+00) (0, 0, 0.00000000000000000000e+00) (0, 0, 0.00000000000000000000e+00) (0, 0, 0.00000000000000000000e+00) (0, 0, 0.00000000000000000000e+00) (0, 0, 0.00000000000000000000e+00) (0, 0, 0.00000000000000000000e+00) (0, 0, 0.00000000000000000000e+00) (0, 0, 0.00000000000000000000e+00) (0, 0, 0.00000000000000000000e+00) (0, 0, 0.00000000000000000000e+00) (0, 0, 0.00000000000000000000e+00) (0, 0, 0.00000000000000000000e+00) (0, 0, 0.00000000000000000000e+00) (0, 0, 0.00000000000000000000e+00) (0, 0, 0.00000000000000000000e+00) (0, 0, 0.00000000000000000000e+00) (0, 0, 0.00000000000000000000e+00) (0, 0, 0.00000000000000000000e+00) (0, 0, 0.00000000000000000000e+00) (0, 0, 0.00000000000000000000e+00) (0, 0, 0.00000000000000000000e+00) (0, 0, 0.00000000000000000000e+00) (0, 0, 0.00000000000000000000e+00) (0, 0, 0.00000000000000000000e+00) (0, 0, 0.00000000000000000000e+00) (0, 0, 0.00000000000000000000e+00) (0, 0, 0.00000000000000000000e+00) (0, 0, 0.00000000000000000000e+00) (0, 0, 0.00000000000000000000e+00) (36, 5, 5.00000000000000000000e-01) (36, 5, 5.00000000000000000000e-01) (36, 5, 5.00000000000000000000e-01) (36, 5, 5.00000000000000000000e-01) (36, 5, 5.00000000000000000000e-01) (36, 5, 5.00000000000000000000e-01) (36, 5, 5.00000000000000000000e-01) (36, 5, 5.00000000000000000000e-01) (36, 5, 5.00000000000000000000e-01) (36, 5, 5.00000000000000000000e-01) (36, 5, 5.00000000000000000000e-01) (36, 5, 5.00000000000000000000e-01) (36, 5, 5.00000000000000000000e-01) (36, 5, 5.00000000000000000000e-01) (36, 5, 5.00000000000000000000e-01) (36, 5, 5.00000000000000000000e-01) (36, 5, 5.00000000000000000000e-01) (36, 5, 5.00000000000000000000e-01) (36, 5, 5.00000000000000000000e-01) (36, 5, 5.00000000000000000000e-01) (36, 5, 5.00000000000000000000e-01) (36, 5, 5.00000000000000000000e-01) (36, 5, 5.00000000000000000000e-01) (36, 5, 5.00000000000000000000e-01) (36, 5, 5.00000000000000000000e-01) (36, 5, 5.00000000000000000000e-01) (36, 5, 5.00000000000000000000e-01) (36, 5, 5.00000000000000000000e-01) (36, 5, 5.00000000000000000000e-01) (36, 5, 5.00000000000000000000e-01) (36, 5, 5.00000000000000000000e-01) (36, 5, 5.00000000000000000000e-01) (36, 5, 5.00000000000000000000e-01) (36, 5, 5.00000000000000000000e-01) (36, 5, 5.00000000000000000000e-01) (36, 5, 5.00000000000000000000e-01) (36, 5, 5.00000000000000000000e-01) (36, 5, 5.00000000000000000000e-01) (36, 5, 5.00000000000000000000e-01) (36, 5, 5.00000000000000000000e-01) (36, 5, 5.00000000000000000000e-01) (0, 5, 0.00000000000000000000e+00) (42, 5, 5.00000000000000000000e-01) (42, 5, 5.00000000000000000000e-01) (42, 5, 5.00000000000000000000e-01) (42, 5, 5.00000000000000000000e-01) (42, 5, 5.00000000000000000000e-01) (42, 5, 5.00000000000000000000e-01) (42, 5, 5.00000000000000000000e-01) (42, 5, 5.00000000000000000000e-01) (42, 5, 5.00000000000000000000e-01) (42, 5, 5.00000000000000000000e-01) (42, 5, 5.00000000000000000000e-01) (42, 5, 5.00000000000000000000e-01) (42, 5, 5.00000000000000000000e-01) (42, 5, 5.00000000000000000000e-01) (42, 5, 5.00000000000000000000e-01) (42, 5, 5.00000000000000000000e-01) (42, 5, 5.00000000000000000000e-01) (42, 5, 5.00000000000000000000e-01) (42, 5, 5.00000000000000000000e-01) (42, 5, 5.00000000000000000000e-01) (42, 5, 5.00000000000000000000e-01) (42, 5, 5.00000000000000000000e-01) (42, 5, 5.00000000000000000000e-01) (42, 5, 5.00000000000000000000e-01) (42, 5, 5.00000000000000000000e-01) (42, 5, 5.00000000000000000000e-01) (42, 5, 5.00000000000000000000e-01) (42, 5, 5.00000000000000000000e-01) (42, 5, 5.00000000000000000000e-01) (42, 5, 5.00000000000000000000e-01) (42, 5, 5.00000000000000000000e-01) (42, 5, 5.00000000000000000000e-01) (42, 5, 5.00000000000000000000e-01) (42, 5, 5.00000000000000000000e-01) (42, 5, 5.00000000000000000000e-01) (42, 5, 5.00000000000000000000e-01) (42, 5, 5.00000000000000000000e-01) (42, 5, 5.00000000000000000000e-01) (42, 5, 5.00000000000000000000e-01) (42, 5, 5.00000000000000000000e-01) (42, 5, 5.00000000000000000000e-01) (42, 5, 5.00000000000000000000e-01) (42, 5, 5.00000000000000000000e-01) (42, 5, 5.00000000000000000000e-01) (42, 5, 5.00000000000000000000e-01) (42, 5, 5.00000000000000000000e-01) (42, 5, 5.00000000000000000000e-01) (42, 5, 5.00000000000000000000e-01) (42, 5, 5.00000000000000000000e-01) (42, 5, 5.00000000000000000000e-01) (42, 5, 5.00000000000000000000e-01) (42, 5, 5.00000000000000000000e-01) (42, 5, 5.00000000000000000000e-01) (42, 5, 5.00000000000000000000e-01) (42, 5, 5.00000000000000000000e-01) (42, 5, 5.00000000000000000000e-01) (42, 5, 5.00000000000000000000e-01) (42, 5, 5.00000000000000000000e-01) (42, 5, 5.00000000000000000000e-01) (42, 5, 5.00000000000000000000e-01) (0, 5, 0.00000000000000000000e+00) (61, 5, 5.00000000000000000000e-01) (61, 5, 5.00000000000000000000e-01) (61, 5, 5.00000000000000000000e-01) (61, 5, 5.00000000000000000000e-01) (61, 5, 5.00000000000000000000e-01) (61, 5, 5.00000000000000000000e-01) (61, 5, 5.00000000000000000000e-01) (61, 5, 5.00000000000000000000e-01) (61, 5, 5.00000000000000000000e-01) (61, 5, 5.00000000000000000000e-01) (61, 5, 5.00000000000000000000e-01) (61, 5, 5.00000000000000000000e-01) (61, 5, 5.00000000000000000000e-01) (61, 5, 5.00000000000000000000e-01) (61, 5, 5.00000000000000000000e-01) (61, 5, 5.00000000000000000000e-01) (61, 5, 5.00000000000000000000e-01) (61, 5, 5.00000000000000000000e-01) (61, 5, 5.00000000000000000000e-01) (61, 5, 5.00000000000000000000e-01) (61, 5, 5.00000000000000000000e-01) (61, 5, 5.00000000000000000000e-01) (61, 5, 5.00000000000000000000e-01) (61, 5, 5.00000000000000000000e-01) (61, 5, 5.00000000000000000000e-01) (61, 5, 5.00000000000000000000e-01) (61, 5, 5.00000000000000000000e-01) (61, 5, 5.00000000000000000000e-01) (61, 5, 5.00000000000000000000e-01) (61, 5, 5.00000000000000000000e-01) (61, 5, 5.00000000000000000000e-01) (61, 5, 5.00000000000000000000e-01) (61, 5, 5.00000000000000000000e-01) (61, 5, 5.00000000000000000000e-01) (61, 5, 5.00000000000000000000e-01) (61, 5, 5.00000000000000000000e-01) (61, 5, 5.00000000000000000000e-01) (61, 5, 5.00000000000000000000e-01) (61, 5, 5.00000000000000000000e-01) (61, 5, 5.00000000000000000000e-01) (61, 5, 5.00000000000000000000e-01) (61, 5, 5.00000000000000000000e-01) (61, 5, 5.00000000000000000000e-01) (61, 5, 5.00000000000000000000e-01) (61, 5, 5.00000000000000000000e-01) (61, 5, 5.00000000000000000000e-01) (61, 5, 5.00000000000000000000e-01) (61, 5, 5.00000000000000000000e-01) (61, 5, 5.00000000000000000000e-01) (61, 5, 5.00000000000000000000e-01) (61, 5, 5.00000000000000000000e-01) (61, 5, 5.00000000000000000000e-01) (61, 5, 5.00000000000000000000e-01) (61, 5, 5.00000000000000000000e-01) (61, 5, 5.00000000000000000000e-01) (61, 5, 5.00000000000000000000e-01) (61, 5, 5.00000000000000000000e-01) (61, 5, 5.00000000000000000000e-01) (61, 5, 5.00000000000000000000e-01) (61, 5, 5.00000000000000000000e-01) (61, 5, 5.00000000000000000000e-01) (61, 5, 5.00000000000000000000e-01) (61, 5, 5.00000000000000000000e-01) (0, 5, 0.00000000000000000000e+00) (64, 5, 5.00000000000000000000e-01) (64, 5, 5.00000000000000000000e-01) (64, 5, 5.00000000000000000000e-01) (64, 5, 5.00000000000000000000e-01) (64, 5, 5.00000000000000000000e-01) (64, 5, 5.00000000000000000000e-01) (64, 5, 5.00000000000000000000e-01) (64, 5, 5.00000000000000000000e-01) (64, 5, 5.00000000000000000000e-01) (64, 5, 5.00000000000000000000e-01) (64, 5, 5.00000000000000000000e-01) (64, 5, 5.00000000000000000000e-01) (64, 5, 5.00000000000000000000e-01) (64, 5, 5.00000000000000000000e-01) (64, 5, 5.00000000000000000000e-01) (64, 5, 5.00000000000000000000e-01) (64, 5, 5.00000000000000000000e-01) (64, 5, 5.00000000000000000000e-01) (64, 5, 5.00000000000000000000e-01) (64, 5, 5.00000000000000000000e-01) (64, 5, 5.00000000000000000000e-01) (64, 5, 5.00000000000000000000e-01) (64, 5, 5.00000000000000000000e-01) (64, 5, 5.00000000000000000000e-01) (64, 5, 5.00000000000000000000e-01) (64, 5, 5.00000000000000000000e-01) (64, 5, 5.00000000000000000000e-01) (64, 5, 5.00000000000000000000e-01) (64, 5, 5.00000000000000000000e-01) (64, 5, 5.00000000000000000000e-01) (64, 5, 5.00000000000000000000e-01) (64, 5, 5.00000000000000000000e-01) (64, 5, 5.00000000000000000000e-01) (64, 5, 5.00000000000000000000e-01) (64, 5, 5.00000000000000000000e-01) (64, 5, 5.00000000000000000000e-01) (64, 5, 5.00000000000000000000e-01) (64, 5, 5.00000000000000000000e-01) (64, 5, 5.00000000000000000000e-01) (64, 5, 5.00000000000000000000e-01) (64, 5, 5.00000000000000000000e-01) (64, 5, 5.00000000000000000000e-01) (64, 5, 5.00000000000000000000e-01) (64, 5, 5.00000000000000000000e-01) (64, 5, 5.00000000000000000000e-01) (64, 5, 5.00000000000000000000e-01) (64, 5, 5.00000000000000000000e-01) (64, 5, 5.00000000000000000000e-01) (64, 5, 5.00000000000000000000e-01) (64, 5, 5.00000000000000000000e-01) (64, 5, 5.00000000000000000000e-01) (64, 5, 5.00000000000000000000e-01) (64, 5, 5.00000000000000000000e-01) (64, 5, 5.00000000000000000000e-01) (64, 5, 5.00000000000000000000e-01) (64, 5, 5.00000000000000000000e-01) (64, 5, 5.00000000000000000000e-01) (64, 5, 5.00000000000000000000e-01) (64, 5, 5.00000000000000000000e-01) (64, 5, 5.00000000000000000000e-01) (64, 5, 5.00000000000000000000e-01) (64, 5, 5.00000000000000000000e-01) (64, 5, 5.00000000000000000000e-01) (64, 5, 5.00000000000000000000e-01) (64, 5, 5.00000000000000000000e-01) (64, 5, 5.00000000000000000000e-01) (64, 5, 5.00000000000000000000e-01) (64, 5, 5.00000000000000000000e-01) (64, 5, 5.00000000000000000000e-01) (64, 5, 5.00000000000000000000e-01) (64, 5, 5.00000000000000000000e-01) (64, 5, 5.00000000000000000000e-01) (64, 5, 5.00000000000000000000e-01) (64, 5, 5.00000000000000000000e-01) (64, 5, 5.00000000000000000000e-01) (64, 5, 5.00000000000000000000e-01) (64, 5, 5.00000000000000000000e-01) (64, 5, 5.00000000000000000000e-01) (64, 5, 5.00000000000000000000e-01) (64, 5, 5.00000000000000000000e-01) (64, 5, 5.00000000000000000000e-01) (64, 5, 5.00000000000000000000e-01) (64, 5, 5.00000000000000000000e-01) (64, 5, 5.00000000000000000000e-01) (64, 5, 5.00000000000000000000e-01) (64, 5, 5.00000000000000000000e-01) (64, 5, 5.00000000000000000000e-01) (64, 5, 5.00000000000000000000e-01) (64, 5, 5.00000000000000000000e-01) (64, 5, 5.00000000000000000000e-01) (64, 5, 5.00000000000000000000e-01) (64, 5, 5.00000000000000000000e-01) (64, 5, 5.00000000000000000000e-01) (64, 5, 5.00000000000000000000e-01) (64, 5, 5.00000000000000000000e-01) (64, 5, 5.00000000000000000000e-01) (64, 5, 5.00000000000000000000e-01) (64, 5, 5.00000000000000000000e-01) (64, 5, 5.00000000000000000000e-01) (64, 5, 5.00000000000000000000e-01) (64, 5, 5.00000000000000000000e-01) (64, 5, 5.00000000000000000000e-01) (64, 5, 5.00000000000000000000e-01) (64, 5, 5.00000000000000000000e-01) (64, 5, 5.00000000000000000000e-01) (64, 5, 5.00000000000000000000e-01) (64, 5, 5.00000000000000000000e-01) (64, 5, 5.00000000000000000000e-01) (64, 5, 5.00000000000000000000e-01) (64, 5, 5.00000000000000000000e-01) (64, 5, 5.00000000000000000000e-01) (64, 5, 5.00000000000000000000e-01) (64, 5, 5.00000000000000000000e-01) (64, 5, 5.00000000000000000000e-01) (64, 5, 5.00000000000000000000e-01) (64, 5, 5.00000000000000000000e-01) (64, 5, 5.00000000000000000000e-01) (64, 5, 5.00000000000000000000e-01) (0, 5, 0.00000000000000000000e+00) (119, 5, 5.00000000000000000000e-01) (0, 5, 0.00000000000000000000e+00) 
connections (connected_to_neuron, weight)=(0, 1.05994720458984375000e+01) (1, 7.96159315109252929688e+00) (2, 7.22373485565185546875e+00) (3, -1.14512932300567626953e+00) (4, -1.58291654586791992188e+01) (5, -1.18443832397460937500e+01) (6, -5.71991109848022460938e+00) (7, -2.86399912834167480469e+00) (8, -1.04395523071289062500e+01) (9, 9.39270019531250000000e+01) (10, 1.17608165740966796875e+01) (11, 6.10682487487792968750e+01) (12, 2.52251195907592773438e+00) (13, -2.01153335571289062500e+01) (14, 2.18268737792968750000e+01) (15, 9.32788181304931640625e+00) (16, 9.32291984558105468750e+00) (17, 5.23678302764892578125e+00) (18, 8.06619453430175781250e+00) (19, 4.32483530044555664062e+00) (20, 1.26076650619506835938e+01) (21, 2.01662516593933105469e+00) (22, 4.94684934616088867188e+00) (23, 4.70927810668945312500e+00) (24, 1.86026167869567871094e+00) (25, 3.09733986854553222656e+00) (26, 1.14670467376708984375e+00) (27, 3.49855494499206542969e+00) (28, 3.11399769783020019531e+00) (29, 9.32246029376983642578e-01) (30, 2.94662523269653320312e+00) (31, 2.11581277847290039062e+00) (32, 1.98245191574096679688e+00) (33, 1.51347622275352478027e-01) (34, 2.23675683140754699707e-01) (35, 3.45151824951171875000e+01) (0, -2.93235607147216796875e+01) (1, 5.21396255493164062500e+00) (2, 2.39474344253540039062e+00) (3, -2.06301593780517578125e+01) (4, -2.96387996673583984375e+01) (5, -4.40717430114746093750e+01) (6, -1.65273170471191406250e+01) (7, 6.56232833862304687500e+00) (8, -1.32942476272583007812e+01) (9, 2.92967647314071655273e-01) (10, -1.47284517288208007812e+01) (11, 1.40338432788848876953e+00) (12, -2.26692943572998046875e+01) (13, -2.14037895202636718750e+01) (14, -1.00567388534545898438e+00) (15, -2.00074043273925781250e+01) (16, -1.47823715209960937500e+01) (17, -2.65683460235595703125e+00) (18, -4.24455881118774414062e+00) (19, -5.25421953201293945312e+00) (20, -7.56788921356201171875e+00) (21, -6.07065773010253906250e+00) (22, 1.08186137676239013672e+00) (23, -2.07250642776489257812e+00) (24, -2.28006315231323242188e+00) (25, 3.72641608119010925293e-02) (26, -4.33802556991577148438e+00) (27, 5.25068879127502441406e-01) (28, -1.37075555324554443359e+00) (29, 2.30410158634185791016e-01) (30, -3.31878900527954101562e-01) (31, -1.26275554299354553223e-01) (32, -2.60399524122476577759e-02) (33, -4.53408926725387573242e-01) (34, -6.83818638324737548828e-01) (35, 2.53397483825683593750e+01) (0, -5.90153455734252929688e-01) (1, 1.08882408142089843750e+01) (2, 1.52608547210693359375e+01) (3, -1.22428207397460937500e+01) (4, -1.26916849613189697266e+00) (5, -1.63157672882080078125e+01) (6, 2.88697471618652343750e+01) (7, 2.80539455413818359375e+01) (8, 1.33861036300659179688e+01) (9, 9.07571983337402343750e+00) (10, 2.89297175407409667969e+00) (11, 2.18632144927978515625e+01) (12, 1.20795555114746093750e+01) (13, 8.67072963714599609375e+00) (14, 6.50795030593872070312e+00) (15, 1.68386154174804687500e+01) (16, 1.18625860214233398438e+01) (17, 3.20803475379943847656e+00) (18, 1.63043618202209472656e+00) (19, -2.27213948965072631836e-02) (20, 3.34949111938476562500e+00) (21, 2.93060612678527832031e+00) (22, 2.30555915832519531250e+00) (23, 1.42200982570648193359e+00) (24, 6.61986112594604492188e-01) (25, -1.52236950397491455078e+00) (26, 2.00397324562072753906e+00) (27, -8.01088750362396240234e-01) (28, -8.82599532604217529297e-01) (29, -7.55151733756065368652e-02) (30, 2.27231189608573913574e-01) (31, -7.18351662158966064453e-01) (32, -1.97191834449768066406e-01) (33, -7.25693106651306152344e-01) (34, -3.19968879222869873047e-01) (35, -2.22418861389160156250e+01) (0, 6.80792951583862304688e+00) (1, -1.02380857467651367188e+01) (2, 4.68932294845581054688e+00) (3, 3.85258674621582031250e+00) (4, -2.97857791185379028320e-01) (5, -1.25552825927734375000e+01) (6, -6.78921175003051757812e+00) (7, -1.58431882858276367188e+01) (8, -1.31429576873779296875e+01) (9, -2.10167732238769531250e+01) (10, 5.01118278503417968750e+01) (11, -2.26705684661865234375e+01) (12, 4.03414726257324218750e+00) (13, -6.55586767196655273438e+00) (14, 7.71758127212524414062e+00) (15, -5.70278644561767578125e+00) (16, -9.45165538787841796875e+00) (17, 3.94531464576721191406e+00) (18, 5.45260238647460937500e+00) (19, 3.43497300148010253906e+00) (20, 6.65244865417480468750e+00) (21, 3.83572387695312500000e+00) (22, -2.78280115127563476562e+00) (23, 4.45756882429122924805e-01) (24, 3.68715023994445800781e+00) (25, 1.25293946266174316406e+00) (26, 3.46036744117736816406e+00) (27, 1.21041882038116455078e+00) (28, -1.84311494231224060059e-01) (29, -5.16458809375762939453e-01) (30, 8.11494886875152587891e-01) (31, 9.57049965858459472656e-01) (32, 7.46205687522888183594e-01) (33, -1.75104528665542602539e-01) (34, 5.32533466815948486328e-01) (35, 1.63149967193603515625e+01) (0, -3.72437210083007812500e+01) (1, 1.80600605010986328125e+01) (2, 2.27329101562500000000e+01) (3, -5.96548805236816406250e+01) (4, -1.43385066986083984375e+01) (5, -4.74650335311889648438e+00) (6, 3.39115309715270996094e+00) (7, -6.87518119812011718750e-02) (8, -2.09297332763671875000e+01) (9, 7.02228403091430664062e+00) (10, -4.54534568786621093750e+01) (11, 5.37873601913452148438e+00) (12, -6.38257837295532226562e+00) (13, 1.73491630554199218750e+01) (14, -3.17907381057739257812e+00) (15, -1.42840805053710937500e+01) (16, -7.43241739273071289062e+00) (17, -6.84468746185302734375e+00) (18, -4.41457891464233398438e+00) (19, -2.17908191680908203125e+00) (20, -3.84421205520629882812e+00) (21, -5.35833120346069335938e+00) (22, 1.78691017627716064453e+00) (23, -2.18651986122131347656e+00) (24, -2.74719333648681640625e+00) (25, -6.34809613227844238281e-01) (26, -1.13695394992828369141e+00) (27, -1.84047412872314453125e+00) (28, -1.96730339527130126953e+00) (29, -4.69327777624130249023e-01) (30, -5.63241422176361083984e-01) (31, -2.27840408682823181152e-01) (32, -7.48266398906707763672e-01) (33, -3.94349068403244018555e-01) (34, 4.66600686311721801758e-01) (35, -2.53492431640625000000e+01) (0, 9.85896110534667968750e+00) (1, 1.92239704132080078125e+01) (2, 1.47506771087646484375e+01) (3, -1.92969551086425781250e+01) (4, 1.66513061523437500000e+01) (5, 3.67832946777343750000e+01) (6, -1.58839464187622070312e+01) (7, 1.71472492218017578125e+01) (8, 2.11873950958251953125e+01) (9, 2.02871155738830566406e+00) (10, -1.41563907265663146973e-01) (11, -3.95663452148437500000e+01) (12, 2.11348781585693359375e+01) (13, 3.28068084716796875000e+01) (14, -3.85416030883789062500e+00) (15, 8.34507465362548828125e+00) (16, 1.44174039363861083984e+00) (17, -1.32603044509887695312e+01) (18, -2.13796877861022949219e+00) (19, -5.33405208587646484375e+00) (20, 2.08670997619628906250e+00) (21, -3.29972195625305175781e+00) (22, -1.89411365985870361328e+00) (23, -9.88827943801879882812e-01) (24, 2.73292875289916992188e+00) (25, -2.51178765296936035156e+00) (26, -1.75445318222045898438e-01) (27, -3.41286802291870117188e+00) (28, -1.94749101996421813965e-01) (29, -1.99652016162872314453e+00) (30, -1.12844181060791015625e+00) (31, -1.41907656192779541016e+00) (32, -1.00550436973571777344e+00) (33, -7.12503671646118164062e-01) (34, -1.07420623302459716797e+00) (35, 1.69628639221191406250e+01) (0, 1.44076147079467773438e+01) (1, -1.94065151214599609375e+01) (2, 1.66734924316406250000e+01) (3, 2.97513980865478515625e+01) (4, 3.36747016906738281250e+01) (5, 3.28309860229492187500e+01) (6, 1.09737806320190429688e+01) (7, 1.65871143341064453125e+01) (8, -3.75203400850296020508e-01) (9, 1.63631973266601562500e+01) (10, -2.46109008789062500000e+01) (11, -1.52272224426269531250e+01) (12, -4.09244203567504882812e+00) (13, 1.82563171386718750000e+01) (14, -1.65726814270019531250e+01) (15, -1.49734840393066406250e+01) (16, -1.11705007553100585938e+01) (17, -1.50236482620239257812e+01) (18, -5.04921197891235351562e+00) (19, 2.39290189743041992188e+00) (20, -1.73366749286651611328e+00) (21, -7.55948591232299804688e+00) (22, -5.96296453475952148438e+00) (23, -3.08810973167419433594e+00) (24, -5.04449605941772460938e+00) (25, -3.08005142211914062500e+00) (26, -2.49630808830261230469e+00) (27, -2.77844238281250000000e+00) (28, -2.70264601707458496094e+00) (29, -4.94056320190429687500e+00) (30, -1.98147726058959960938e+00) (31, -4.13283920288085937500e+00) (32, -2.26444029808044433594e+00) (33, -1.17602109909057617188e+00) (34, -1.07253253459930419922e+00) (35, -4.73810005187988281250e+01) (0, 1.18742399215698242188e+01) (1, -2.20997288823127746582e-01) (2, 6.02882575988769531250e+00) (3, -5.95606088638305664062e+00) (4, 1.31424808502197265625e+01) (5, 7.04059720039367675781e-01) (6, 1.58984575271606445312e+01) (7, 1.50903120040893554688e+01) (8, 7.97320098876953125000e+01) (9, -1.37311935424804687500e+01) (10, -4.67758512496948242188e+00) (11, 2.45313110351562500000e+01) (12, 1.78615913391113281250e+01) (13, 5.49618721008300781250e+00) (14, 2.19330539703369140625e+01) (15, -1.62992229461669921875e+01) (16, -4.40548658370971679688e+00) (17, 1.77597732543945312500e+01) (18, 8.21945762634277343750e+00) (19, 1.02165699005126953125e+01) (20, 1.26494913101196289062e+01) (21, 6.46988058090209960938e+00) (22, 6.41993951797485351562e+00) (23, 5.01138257980346679688e+00) (24, 8.66730093955993652344e-01) (25, 6.64152860641479492188e+00) (26, -2.69588045775890350342e-02) (27, 4.51040792465209960938e+00) (28, 1.78428041934967041016e+00) (29, 3.19548606872558593750e+00) (30, 3.45398283004760742188e+00) (31, 1.84251201152801513672e+00) (32, 1.81605017185211181641e+00) (33, 1.12242650985717773438e+00) (34, 5.08616864681243896484e-01) (35, -2.33890495300292968750e+01) (0, 7.51719589233398437500e+01) (1, -1.83842601776123046875e+01) (2, 4.86216163635253906250e+00) (3, -5.00137805938720703125e-01) (4, -1.31095275878906250000e+01) (5, -9.28090953826904296875e+00) (6, -2.52410340309143066406e+00) (7, -2.45812058448791503906e-01) (8, -1.11442041397094726562e+00) (9, 1.77662334442138671875e+01) (10, -2.22317619323730468750e+01) (11, 1.53070859909057617188e+01) (12, 1.31711235046386718750e+01) (13, -1.50766029357910156250e+01) (14, 2.63317241668701171875e+01) (15, -2.01835422515869140625e+01) (16, 1.31466503143310546875e+01) (17, 1.04819650650024414062e+01) (18, 4.00070333480834960938e+00) (19, 6.71244668960571289062e+00) (20, 5.65428590774536132812e+00) (21, 7.98807811737060546875e+00) (22, 6.45290422439575195312e+00) (23, 3.10726642608642578125e+00) (24, 4.29322576522827148438e+00) (25, -9.76861774921417236328e-01) (26, 3.47712564468383789062e+00) (27, 3.88486790657043457031e+00) (28, 2.41655230522155761719e+00) (29, 3.06555867195129394531e+00) (30, 1.72433757781982421875e+00) (31, 2.76191377639770507812e+00) (32, 1.55505716800689697266e+00) (33, 6.77848100662231445312e-01) (34, 5.50792157649993896484e-01) (35, -1.68166484832763671875e+01) (0, 1.14674577713012695312e+01) (1, 3.49872088432312011719e+00) (2, 2.89692726135253906250e+01) (3, 2.10044517517089843750e+01) (4, -2.54861583709716796875e+01) (5, 5.17600593566894531250e+01) (6, 4.02486076354980468750e+01) (7, 2.36977081298828125000e+01) (8, 3.15413074493408203125e+01) (9, 4.49635505676269531250e+00) (10, 2.75322647094726562500e+01) (11, -4.85000419616699218750e+01) (12, 1.68539981842041015625e+01) (13, 2.95191993713378906250e+01) (14, -1.67989196777343750000e+01) (15, 9.48097896575927734375e+00) (16, 4.05662727355957031250e+00) (17, -7.76570415496826171875e+00) (18, -8.36590957641601562500e+00) (19, -4.54627782106399536133e-01) (20, -3.60191985964775085449e-02) (21, -2.33007550239562988281e+00) (22, -1.18820464611053466797e+00) (23, -7.68753230571746826172e-01) (24, -6.44600677490234375000e+00) (25, 1.70931434631347656250e+00) (26, -2.36477470397949218750e+00) (27, -9.66051161289215087891e-01) (28, -3.65827107429504394531e+00) (29, -1.80930960178375244141e+00) (30, -1.84486651420593261719e+00) (31, 5.52239298820495605469e-01) (32, -1.55063295364379882812e+00) (33, -1.28025674819946289062e+00) (34, -1.61526814103126525879e-01) (35, 3.69266204833984375000e+01) (0, 6.80278921127319335938e+00) (1, 5.75649118423461914062e+00) (2, 2.06764316558837890625e+00) (3, 2.43995399475097656250e+01) (4, 5.96766281127929687500e+01) (5, 8.79762077331542968750e+00) (6, 2.79003257751464843750e+01) (7, -4.87576866149902343750e+00) (8, 2.52634453773498535156e+00) (9, -1.52361812591552734375e+01) (10, 4.42734260559082031250e+01) (11, 2.97468891143798828125e+01) (12, -1.84123764038085937500e+01) (13, -2.16148548126220703125e+01) (14, 1.07539701461791992188e+01) (15, -5.13981866836547851562e+00) (16, -3.46959233283996582031e+00) (17, -2.83310127258300781250e+00) (18, 1.91368305683135986328e+00) (19, 1.32075190544128417969e+00) (20, -3.55459737777709960938e+00) (21, -4.65814590454101562500e+00) (22, 2.23019027709960937500e+00) (23, 8.45919027924537658691e-02) (24, 1.26549810171127319336e-01) (25, -1.00074432790279388428e-01) (26, -2.78215789794921875000e+00) (27, 9.58340883255004882812e-01) (28, 2.22835540771484375000e+00) (29, -7.74264633655548095703e-01) (30, -5.05062580108642578125e-01) (31, -2.84170460700988769531e+00) (32, -1.39078354835510253906e+00) (33, 5.67981898784637451172e-01) (34, 3.46568673849105834961e-01) (35, 7.92854595184326171875e+00) (0, -2.97101058959960937500e+01) (1, -7.86353302001953125000e+00) (2, -8.18157863616943359375e+00) (3, -9.46925640106201171875e+00) (4, -2.66007766723632812500e+01) (5, 2.77332458496093750000e+01) (6, -1.51500844955444335938e+01) (7, 4.82118721008300781250e+01) (8, -1.50780706405639648438e+01) (9, -8.25078010559082031250e-01) (10, 1.24187946319580078125e+01) (11, 2.65339183807373046875e+01) (12, 1.84491653442382812500e+01) (13, 7.29342603683471679688e+00) (14, 6.00959825515747070312e+00) (15, -8.00460278987884521484e-01) (16, 9.14746189117431640625e+00) (17, -2.68841075897216796875e+00) (18, 1.51568651199340820312e+00) (19, 2.91792750358581542969e+00) (20, -3.94484329223632812500e+00) (21, -8.97174954414367675781e-01) (22, -1.51467144489288330078e-01) (23, 2.26837873458862304688e+00) (24, -2.83496165275573730469e+00) (25, 2.63775920867919921875e+00) (26, 7.70510017871856689453e-01) (27, -1.32302737236022949219e+00) (28, 1.20283818244934082031e+00) (29, -1.14353108406066894531e+00) (30, 2.21067175269126892090e-01) (31, 1.19675087928771972656e+00) (32, 1.30270254611968994141e+00) (33, 5.82794286310672760010e-02) (34, -5.43458342552185058594e-01) (35, -5.94428920745849609375e+00) (0, -5.55335378646850585938e+00) (1, -2.64716625213623046875e+01) (2, 2.24222812652587890625e+01) (3, 6.35897064208984375000e+00) (4, -1.83060379028320312500e+01) (5, 1.12748327255249023438e+01) (6, 1.02982006072998046875e+01) (7, 1.94400978088378906250e+01) (8, 4.18592033386230468750e+01) (9, 2.15477962493896484375e+01) (10, -6.20225238800048828125e+00) (11, -1.75929069519042968750e+01) (12, -4.32660579681396484375e+00) (13, 1.28786497116088867188e+01) (14, 1.87951068878173828125e+01) (15, 9.71214580535888671875e+00) (16, 1.72213578224182128906e+00) (17, 4.63030385971069335938e+00) (18, -3.53851580619812011719e+00) (19, 6.43622040748596191406e-01) (20, 7.05656528472900390625e+00) (21, 9.52042877674102783203e-01) (22, -4.26840353012084960938e+00) (23, -1.28098940849304199219e+00) (24, -5.94617128372192382812e+00) (25, 8.95118296146392822266e-01) (26, 1.60146737098693847656e+00) (27, -3.68340182304382324219e+00) (28, -1.46495902538299560547e+00) (29, -9.18699383735656738281e-01) (30, -7.69999861717224121094e-01) (31, -2.02282595634460449219e+00) (32, -1.70458972454071044922e+00) (33, -9.28350508213043212891e-01) (34, -1.17166852951049804688e+00) (35, 4.01330804824829101562e+00) (0, -2.91661128997802734375e+01) (1, 1.58229093551635742188e+01) (2, 5.39786872863769531250e+01) (3, 2.66695766448974609375e+01) (4, -1.29732608795166015625e+01) (5, 2.69965815544128417969e+00) (6, -1.44270372390747070312e+01) (7, 2.07051811218261718750e+01) (8, -5.49859714508056640625e+00) (9, 2.19080376625061035156e+00) (10, 2.73633956909179687500e+01) (11, 1.13960695266723632812e+00) (12, -6.83353233337402343750e+00) (13, 6.39068698883056640625e+00) (14, -4.83971738815307617188e+00) (15, -9.26080513000488281250e+00) (16, 2.93549090623855590820e-01) (17, -8.08304691314697265625e+00) (18, 7.35295152664184570312e+00) (19, 2.01057150959968566895e-01) (20, 1.76168322563171386719e+00) (21, 6.54781877994537353516e-01) (22, 3.96220564842224121094e+00) (23, -1.63656961917877197266e+00) (24, 3.17295622825622558594e+00) (25, 4.56597232818603515625e+00) (26, 1.62091672420501708984e+00) (27, 3.32337212562561035156e+00) (28, 3.89394497871398925781e+00) (29, 2.48298954963684082031e+00) (30, 1.26421797275543212891e+00) (31, 6.66589796543121337891e-01) (32, 1.98991906642913818359e+00) (33, 1.15569174289703369141e+00) (34, 8.69365453720092773438e-01) (35, -2.56924591064453125000e+01) (0, 7.84174013137817382812e+00) (1, 3.79067230224609375000e+01) (2, 8.99150085449218750000e+00) (3, -1.84998149871826171875e+01) (4, 1.04549732208251953125e+01) (5, 2.02206535339355468750e+01) (6, 2.61453304290771484375e+01) (7, 7.28243827819824218750e-01) (8, 3.88811969757080078125e+00) (9, 3.54651756286621093750e+01) (10, -2.37038636207580566406e+00) (11, 7.72233676910400390625e+00) (12, 1.74283466339111328125e+01) (13, 2.56277942657470703125e+01) (14, 8.64575099945068359375e+00) (15, 2.47854366302490234375e+01) (16, 2.66122817993164062500e+01) (17, 4.80063438415527343750e+00) (18, 6.60611295700073242188e+00) (19, 3.75058746337890625000e+00) (20, 4.54683637619018554688e+00) (21, 1.58603715896606445312e+00) (22, 7.13661384582519531250e+00) (23, 5.81997442245483398438e+00) (24, 4.41886663436889648438e+00) (25, 7.47665405273437500000e-01) (26, 2.03140711784362792969e+00) (27, 3.31973314285278320312e-01) (28, 1.71620607376098632812e+00) (29, 5.25561928749084472656e-01) (30, -7.43381202220916748047e-01) (31, 3.35382938385009765625e-01) (32, -2.52624869346618652344e-01) (33, -1.63915678858757019043e-01) (34, -9.34777036309242248535e-02) (35, -9.16703701019287109375e+00) (0, 1.54932880401611328125e+01) (1, 1.64811878204345703125e+01) (2, 1.67739925384521484375e+01) (3, 2.17808074951171875000e+01) (4, -5.15218544006347656250e+00) (5, 3.82425537109375000000e+01) (6, -4.15701904296875000000e+01) (7, -6.99203824996948242188e+00) (8, 3.99579167366027832031e+00) (9, -1.62629067897796630859e-01) (10, 1.67811031341552734375e+01) (11, 4.30852584838867187500e+01) (12, -2.03358917236328125000e+01) (13, -2.13427658081054687500e+01) (14, 1.16541423797607421875e+01) (15, 2.30827045440673828125e+00) (16, 2.78457045555114746094e+00) (17, 3.18964648246765136719e+00) (18, 2.17438387870788574219e+00) (19, 7.04899263381958007812e+00) (20, 2.35710310935974121094e+00) (21, -1.79552245140075683594e+00) (22, 2.89345312118530273438e+00) (23, -1.95164692401885986328e+00) (24, 1.98854720592498779297e+00) (25, -1.21659763157367706299e-01) (26, -8.76619517803192138672e-01) (27, 4.16293811798095703125e+00) (28, 1.18501639366149902344e+00) (29, 5.89628636837005615234e-01) (30, 1.20287251472473144531e+00) (31, 4.97831225395202636719e-01) (32, 2.81024670600891113281e+00) (33, -6.93289861083030700684e-02) (34, 5.03256857395172119141e-01) (35, -4.89817695617675781250e+01) (0, -1.91642951965332031250e+01) (1, -2.17360439300537109375e+01) (2, -1.88930835723876953125e+01) (3, -1.27499122619628906250e+01) (4, -1.52446544170379638672e+00) (5, -5.84096956253051757812e+00) (6, 3.20387115478515625000e+01) (7, 1.07891130447387695312e+01) (8, 4.57504577636718750000e+01) (9, -1.72650470733642578125e+01) (10, -4.88073205947875976562e+00) (11, 1.99602527618408203125e+01) (12, 7.26645898818969726562e+00) (13, 1.94080276489257812500e+01) (14, -3.87081108093261718750e+01) (15, 5.07445487976074218750e+01) (16, -1.06107521057128906250e+01) (17, -5.48069763183593750000e+00) (18, -1.25270032882690429688e+00) (19, -1.88447785377502441406e+00) (20, -6.67198038101196289062e+00) (21, 7.92777299880981445312e-01) (22, -3.47642064094543457031e+00) (23, -1.98941075801849365234e+00) (24, 4.27720516920089721680e-01) (25, -1.16324096918106079102e-01) (26, -3.98643207550048828125e+00) (27, -3.73755633831024169922e-01) (28, -2.42241382598876953125e+00) (29, -3.16021966934204101562e+00) (30, -1.40734207630157470703e+00) (31, -2.75758576393127441406e+00) (32, 4.50923383235931396484e-01) (33, -9.04454588890075683594e-01) (34, -1.85765886306762695312e+00) (35, 1.40447301864624023438e+01) (0, -6.04865360260009765625e+00) (1, 3.41002392768859863281e+00) (2, 7.44818649291992187500e+01) (3, -4.63330554962158203125e+00) (4, -1.01668386459350585938e+01) (5, -3.66041254997253417969e+00) (6, -1.75721430778503417969e+00) (7, -2.24909000396728515625e+01) (8, -1.41731758117675781250e+01) (9, -7.53941965103149414062e+00) (10, -1.72790336608886718750e+01) (11, 4.55684661865234375000e+00) (12, -2.27257347106933593750e+01) (13, -5.68445396423339843750e+00) (14, 6.27320718765258789062e+00) (15, 8.67420387268066406250e+00) (16, -3.20539045333862304688e+00) (17, 6.87831544876098632812e+00) (18, 3.62229776382446289062e+00) (19, -1.74685442447662353516e+00) (20, 6.03257703781127929688e+00) (21, -1.45329856872558593750e+00) (22, 5.09657335281372070312e+00) (23, 1.38783156871795654297e+00) (24, 4.28785037994384765625e+00) (25, -2.41544976830482482910e-01) (26, 2.35764646530151367188e+00) (27, 2.98005604743957519531e+00) (28, -1.02402389049530029297e+00) (29, 2.46367955207824707031e+00) (30, 2.39543962478637695312e+00) (31, 2.21470451354980468750e+00) (32, 2.53510499000549316406e+00) (33, 1.96357202529907226562e+00) (34, 1.49742805957794189453e+00) (35, -1.78593425750732421875e+01) (0, -1.47508802413940429688e+01) (1, 7.49160337448120117188e+00) (2, 1.68062534332275390625e+01) (3, -6.58523941040039062500e+01) (4, 3.38418197631835937500e+01) (5, -1.03317775726318359375e+01) (6, -1.10175971984863281250e+01) (7, 1.97985382080078125000e+01) (8, 3.45190382003784179688e+00) (9, -4.18228578567504882812e+00) (10, -1.35316438674926757812e+01) (11, 8.96562671661376953125e+00) (12, -8.68521118164062500000e+00) (13, 2.01081352233886718750e+01) (14, -2.46384215354919433594e+00) (15, -6.65371060371398925781e-01) (16, -9.85955810546875000000e+00) (17, 1.72852599620819091797e+00) (18, 1.50273144245147705078e-02) (19, -5.02655076980590820312e+00) (20, -4.64893388748168945312e+00) (21, -4.82990312576293945312e+00) (22, -4.36043262481689453125e+00) (23, 2.76540517807006835938e-01) (24, -4.38781404495239257812e+00) (25, -4.49049520492553710938e+00) (26, -4.48456907272338867188e+00) (27, -1.21247887611389160156e+00) (28, -5.17152428627014160156e-01) (29, -1.63828003406524658203e+00) (30, -3.67370307445526123047e-01) (31, -2.80097866058349609375e+00) (32, -1.02699899673461914062e+00) (33, -4.72181767225265502930e-01) (34, -9.09226298332214355469e-01) (35, -1.12384061813354492188e+01) (0, 1.33733367919921875000e+01) (1, -2.06769218444824218750e+01) (2, 2.49181079864501953125e+01) (3, 3.77396469116210937500e+01) (4, 9.51014995574951171875e+00) (5, -4.05409008264541625977e-01) (6, -1.36785831451416015625e+01) (7, 1.81938781738281250000e+01) (8, -1.66734943389892578125e+01) (9, -6.02707529067993164062e+00) (10, -3.95481719970703125000e+01) (11, 8.39202213287353515625e+00) (12, -2.07941436767578125000e+01) (13, -9.98950386047363281250e+00) (14, 6.30412435531616210938e+00) (15, -1.65812892913818359375e+01) (16, 8.89908254146575927734e-01) (17, 6.41836881637573242188e+00) (18, 1.24949896335601806641e+00) (19, 3.09579277038574218750e+00) (20, -2.11515474319458007812e+00) (21, 2.84345579147338867188e+00) (22, -1.15415811538696289062e+00) (23, -5.86941540241241455078e-01) (24, 9.87045824527740478516e-01) (25, 1.89409494400024414062e+00) (26, -6.32547378540039062500e-01) (27, -2.32152953743934631348e-01) (28, 7.76872694492340087891e-01) (29, 3.75999182462692260742e-01) (30, 1.57468065619468688965e-01) (31, -4.89932686090469360352e-01) (32, 1.01122152805328369141e+00) (33, -2.92685806751251220703e-01) (34, 2.12149947881698608398e-01) (35, -2.96263332366943359375e+01) (0, -1.16167564392089843750e+01) (1, 1.32309999465942382812e+01) (2, 2.81379604339599609375e+00) (3, -8.58329868316650390625e+00) (4, -1.83619804382324218750e+01) (5, 7.46964740753173828125e+00) (6, -1.20372476577758789062e+01) (7, -1.35230379104614257812e+01) (8, -2.53127002716064453125e+01) (9, 2.55055942535400390625e+01) (10, -1.15884418487548828125e+01) (11, -5.19162130355834960938e+00) (12, -7.51905288696289062500e+01) (13, 2.60339088439941406250e+01) (14, -1.11970291137695312500e+01) (15, 1.05682716369628906250e+01) (16, -1.11094350814819335938e+01) (17, 1.35227060317993164062e+00) (18, -1.65001869201660156250e+00) (19, -9.91328525543212890625e+00) (20, -3.94997143745422363281e+00) (21, -2.79416990280151367188e+00) (22, -1.57263183593750000000e+00) (23, 4.14434552192687988281e-01) (24, 4.23536449670791625977e-01) (25, -8.44886600971221923828e-01) (26, -7.88032102584838867188e+00) (27, -2.96517753601074218750e+00) (28, -3.88169836997985839844e+00) (29, -4.29185867309570312500e+00) (30, -3.29007458686828613281e+00) (31, -2.61627554893493652344e+00) (32, -1.40691828727722167969e+00) (33, -1.21889925003051757812e+00) (34, 4.46438521146774291992e-01) (35, 3.20602874755859375000e+01) (0, 3.92906641960144042969e+00) (1, -1.90367069244384765625e+01) (2, -1.62338371276855468750e+01) (3, 3.47324409484863281250e+01) (4, -3.04881210327148437500e+01) (5, -6.74888134002685546875e+00) (6, -1.31013212203979492188e+01) (7, -4.17539405822753906250e+00) (8, -1.72370071411132812500e+01) (9, -7.32973957061767578125e+00) (10, -2.79554958343505859375e+01) (11, 2.47866268157958984375e+01) (12, 3.20336723327636718750e+01) (13, 6.81347122192382812500e+01) (14, 1.86922874450683593750e+01) (15, 2.68036098480224609375e+01) (16, 2.14405460357666015625e+01) (17, 1.63005447387695312500e+01) (18, 1.67593669891357421875e+00) (19, 8.15577602386474609375e+00) (20, 1.67620730400085449219e+00) (21, 9.63962173461914062500e+00) (22, 9.09551429748535156250e+00) (23, 5.59449768066406250000e+00) (24, 4.29436892271041870117e-01) (25, -1.06889200210571289062e+00) (26, -3.31414508819580078125e+00) (27, 6.41429710388183593750e+00) (28, 3.26941347122192382812e+00) (29, 3.42217016220092773438e+00) (30, -1.36002793908119201660e-01) (31, 3.15726232528686523438e+00) (32, 7.40305602550506591797e-01) (33, 3.27846622467041015625e+00) (34, -1.66874065995216369629e-01) (35, -2.52351880073547363281e+00) (0, -1.22864732742309570312e+01) (1, 1.09880552291870117188e+01) (2, -8.70172595977783203125e+00) (3, -3.63652572631835937500e+01) (4, 3.14889011383056640625e+01) (5, -2.60428314208984375000e+01) (6, -9.06265258789062500000e-01) (7, -2.67924175262451171875e+01) (8, 3.49587392807006835938e+00) (9, -2.95141410827636718750e+01) (10, 4.96190357208251953125e+00) (11, 1.77016277313232421875e+01) (12, 7.13461065292358398438e+00) (13, -8.54176998138427734375e+00) (14, 1.09317960739135742188e+01) (15, 1.08847827911376953125e+01) (16, 6.10442924499511718750e+01) (17, 8.82583522796630859375e+00) (18, 1.48732471466064453125e+01) (19, 1.10728960037231445312e+01) (20, 5.84491968154907226562e+00) (21, 9.67570590972900390625e+00) (22, 3.50272893905639648438e+00) (23, 4.26370334625244140625e+00) (24, 3.35749909281730651855e-02) (25, 6.05512666702270507812e+00) (26, 3.09492611885070800781e+00) (27, 2.25491476058959960938e+00) (28, 1.86082875728607177734e+00) (29, 3.11858057975769042969e+00) (30, 2.38608145713806152344e+00) (31, 3.00352501869201660156e+00) (32, 2.21673965454101562500e+00) (33, 1.95551836490631103516e+00) (34, 1.00814723968505859375e+00) (35, 1.79439525604248046875e+01) (0, -3.10658016204833984375e+01) (1, -7.05888152122497558594e-01) (2, -3.55125389099121093750e+01) (3, 2.13992099761962890625e+01) (4, -3.91535911560058593750e+01) (5, -1.33314762115478515625e+01) (6, -3.63892173767089843750e+00) (7, -1.36285924911499023438e+01) (8, 2.11285209655761718750e+01) (9, 2.49274845123291015625e+01) (10, -3.91299552917480468750e+01) (11, 3.32111587524414062500e+01) (12, 1.83808302879333496094e+00) (13, -1.67666745185852050781e+00) (14, 1.39094972610473632812e+01) (15, 1.89653110504150390625e+00) (16, 4.33066129684448242188e+00) (17, 1.34815750122070312500e+01) (18, 7.48143243789672851562e+00) (19, 1.38686733245849609375e+01) (20, 8.20078182220458984375e+00) (21, 3.85520982742309570312e+00) (22, 2.88130688667297363281e+00) (23, 7.63832044601440429688e+00) (24, 4.03140217065811157227e-01) (25, 2.43305969238281250000e+00) (26, -1.30786049365997314453e+00) (27, 2.74852108955383300781e+00) (28, 1.88540482521057128906e+00) (29, 4.16975069046020507812e+00) (30, 6.74802184104919433594e-01) (31, 2.53528094291687011719e+00) (32, 2.44523549079895019531e+00) (33, 6.65244519710540771484e-01) (34, 1.68837082386016845703e+00) (35, -8.72702026367187500000e+00) (0, 2.32372093200683593750e+01) (1, -1.95703945159912109375e+01) (2, 3.16406364440917968750e+01) (3, -2.52888584136962890625e+00) (4, -1.27664785385131835938e+01) (5, 2.80066051483154296875e+01) (6, 5.04360532760620117188e+00) (7, 2.53637351989746093750e+01) (8, -1.08481445312500000000e+01) (9, -1.33379220962524414062e+01) (10, 2.38148880004882812500e+01) (11, -1.17970581054687500000e+01) (12, 1.94024543762207031250e+01) (13, 2.26893138885498046875e+01) (14, 8.01171958446502685547e-01) (15, 1.23612594604492187500e+01) (16, 5.76463174819946289062e+00) (17, 5.22433221340179443359e-01) (18, 2.11657595634460449219e+00) (19, 1.82097434997558593750e+00) (20, -1.38301920890808105469e+00) (21, -4.51204776763916015625e-01) (22, -2.23081827163696289062e+00) (23, 1.74575304985046386719e+00) (24, -3.64097881317138671875e+00) (25, 6.37421488761901855469e-01) (26, 1.64965879917144775391e+00) (27, -1.87934112548828125000e+00) (28, -6.84303343296051025391e-01) (29, 2.11173698306083679199e-01) (30, 7.39521324634552001953e-01) (31, 7.51327097415924072266e-01) (32, 5.97691953182220458984e-01) (33, 9.72673356533050537109e-01) (34, -3.78568083047866821289e-01) (35, 1.10299940109252929688e+01) (0, 6.53308868408203125000e+00) (1, 3.60866584777832031250e+01) (2, -7.95239067077636718750e+00) (3, 2.26952915191650390625e+01) (4, 9.50181770324707031250e+00) (5, -1.46429891586303710938e+01) (6, 3.94289741516113281250e+01) (7, 7.42443227767944335938e+00) (8, 2.67175197601318359375e+01) (9, -1.18746490478515625000e+01) (10, 7.52574396133422851562e+00) (11, 8.92513275146484375000e+00) (12, -2.77169322967529296875e+00) (13, -1.34724359512329101562e+01) (14, 5.56041479110717773438e+00) (15, 4.94247150421142578125e+00) (16, 1.09925642013549804688e+01) (17, -1.05042910575866699219e+00) (18, 9.92118835449218750000e+00) (19, 7.53820657730102539062e+00) (20, 4.43245124816894531250e+00) (21, 4.84470462799072265625e+00) (22, 3.30580043792724609375e+00) (23, 1.02878594398498535156e+00) (24, 2.57407426834106445312e+00) (25, 1.30591261386871337891e+00) (26, 4.12203741073608398438e+00) (27, 3.41064476966857910156e+00) (28, 3.09148478507995605469e+00) (29, 2.39652848243713378906e+00) (30, 1.76533722877502441406e+00) (31, 1.39824116230010986328e+00) (32, 2.55002886056900024414e-01) (33, 1.44283771514892578125e+00) (34, 7.72801101207733154297e-01) (35, -2.98107013702392578125e+01) (0, 1.75957851409912109375e+01) (1, -1.74819889068603515625e+01) (2, -6.19742393493652343750e+00) (3, -1.50132408142089843750e+01) (4, -6.07417526245117187500e+01) (5, -8.03148078918457031250e+00) (6, 1.97867717742919921875e+01) (7, 2.04110851287841796875e+01) (8, 1.99669914245605468750e+01) (9, -4.07048606872558593750e+00) (10, 1.86216106414794921875e+01) (11, 7.78122472763061523438e+00) (12, -1.40731630325317382812e+01) (13, 1.19789304733276367188e+01) (14, 2.92379713058471679688e+00) (15, 4.87602996826171875000e+00) (16, 1.53889036178588867188e+01) (17, 1.11671514511108398438e+01) (18, 1.09382648468017578125e+01) (19, 3.51194357872009277344e+00) (20, 1.20003519058227539062e+01) (21, 9.09065818786621093750e+00) (22, 4.02281475067138671875e+00) (23, 3.55093526840209960938e+00) (24, 6.65935564041137695312e+00) (25, 4.32069492340087890625e+00) (26, 3.51199126243591308594e+00) (27, 2.80660724639892578125e+00) (28, 2.85044169425964355469e+00) (29, 2.18730235099792480469e+00) (30, 2.55279397964477539062e+00) (31, 1.31571149826049804688e+00) (32, 1.75696265697479248047e+00) (33, 1.22334706783294677734e+00) (34, 1.24467122554779052734e+00) (35, 1.28107042312622070312e+01) (0, 2.87862491607666015625e+00) (1, 2.39632301330566406250e+01) (2, -1.24734392166137695312e+01) (3, 1.93814678192138671875e+01) (4, 3.28148918151855468750e+01) (5, -2.77692818641662597656e+00) (6, 1.22108068466186523438e+01) (7, 6.83592414855957031250e+00) (8, 1.50480670928955078125e+01) (9, -1.11992988586425781250e+01) (10, 9.70993995666503906250e+00) (11, 2.57916984558105468750e+01) (12, 6.89030790328979492188e+00) (13, 2.64820365905761718750e+01) (14, -1.47479379177093505859e+00) (15, 5.49664449691772460938e+00) (16, 2.74824929237365722656e+00) (17, -1.14722049236297607422e+00) (18, -7.84408283233642578125e+00) (19, 6.15103483200073242188e+00) (20, -2.46266651153564453125e+00) (21, 4.39645814895629882812e+00) (22, -3.01856589317321777344e+00) (23, -1.25189590454101562500e+00) (24, 1.46792352199554443359e+00) (25, -1.10251343250274658203e+00) (26, -2.68193745613098144531e+00) (27, 2.78700280189514160156e+00) (28, -1.79892385005950927734e+00) (29, 3.33832591772079467773e-01) (30, -1.01162219047546386719e+00) (31, -8.16596508026123046875e-01) (32, -1.71828195452690124512e-01) (33, -1.27338757738471031189e-02) (34, -9.36057791113853454590e-02) (35, -3.02555294036865234375e+01) (0, -2.06456298828125000000e+01) (1, -7.57431411743164062500e+01) (2, 2.39126491546630859375e+01) (3, 4.87885618209838867188e+00) (4, 2.00157451629638671875e+00) (5, -4.59573478698730468750e+01) (6, 3.08113727569580078125e+01) (7, 5.49523210525512695312e+00) (8, 1.06149244308471679688e+01) (9, -1.21218500137329101562e+01) (10, -1.02190237045288085938e+01) (11, 5.95286064147949218750e+01) (12, 2.86676712036132812500e+01) (13, -2.22483730316162109375e+01) (14, 4.46118583679199218750e+01) (15, 7.14219360351562500000e+01) (16, -1.15645771026611328125e+01) (17, 2.57321701049804687500e+01) (18, 1.43886957168579101562e+01) (19, 2.05476684570312500000e+01) (20, 9.18448066711425781250e+00) (21, 2.60849895477294921875e+01) (22, 1.21058168411254882812e+01) (23, 1.20532703399658203125e+01) (24, 1.11898870468139648438e+01) (25, 3.56758689880371093750e+00) (26, 1.14532117843627929688e+01) (27, 9.44955348968505859375e+00) (28, 5.50409126281738281250e+00) (29, 1.00587816238403320312e+01) (30, 4.50571632385253906250e+00) (31, 4.08590841293334960938e+00) (32, 4.17240858078002929688e+00) (33, 3.31361079216003417969e+00) (34, 2.43461990356445312500e+00) (35, 5.73893594741821289062e+00) (0, -2.12527885437011718750e+01) (1, -4.88323593139648437500e+00) (2, -3.05125694274902343750e+01) (3, -1.89914798736572265625e+01) (4, -1.24314031600952148438e+01) (5, 3.11217460632324218750e+01) (6, 1.22979927062988281250e+01) (7, -5.26397085189819335938e+00) (8, -1.24322767257690429688e+01) (9, -9.88251972198486328125e+00) (10, -2.02015495300292968750e+01) (11, 1.17545042037963867188e+01) (12, -8.09324417114257812500e+01) (13, 4.11679077148437500000e+00) (14, 5.80850601196289062500e-01) (15, -5.47900724411010742188e+00) (16, -8.38317775726318359375e+00) (17, 3.43987703323364257812e+00) (18, -9.39683151245117187500e+00) (19, -5.10489225387573242188e+00) (20, -6.30528354644775390625e+00) (21, -5.17652463912963867188e+00) (22, 5.20681023597717285156e-01) (23, 1.30870804190635681152e-01) (24, 7.67246037721633911133e-02) (25, 1.35661259293556213379e-01) (26, -3.03407144546508789062e+00) (27, -8.78856778144836425781e-02) (28, -5.91987657546997070312e+00) (29, -1.72230720520019531250e+00) (30, -1.63964486122131347656e+00) (31, -1.38419878482818603516e+00) (32, -1.19639456272125244141e+00) (33, -1.30506169795989990234e+00) (34, -2.15928047895431518555e-01) (35, 5.76722145080566406250e+01) (0, 1.30943231582641601562e+01) (1, 5.98142013549804687500e+01) (2, 2.23097209930419921875e+01) (3, -3.18829879760742187500e+01) (4, 3.24359245300292968750e+01) (5, 2.08312988281250000000e+01) (6, -4.56091003417968750000e+01) (7, 1.84779262542724609375e+01) (8, 1.75121736526489257812e+00) (9, -1.27655630111694335938e+01) (10, -1.14385378360748291016e+00) (11, -1.00785057067871093750e+02) (12, -3.93955707550048828125e+00) (13, -7.60443449020385742188e+00) (14, -1.45862960815429687500e+01) (15, -9.38696682453155517578e-01) (16, -3.49050211906433105469e+00) (17, -9.49229049682617187500e+00) (18, -5.95290422439575195312e+00) (19, -1.40641632080078125000e+01) (20, -6.18599843978881835938e+00) (21, -1.45834755897521972656e+00) (22, -3.45651030540466308594e+00) (23, -7.24211549758911132812e+00) (24, -1.28378331661224365234e+00) (25, -3.89312148094177246094e-01) (26, -2.33252501487731933594e+00) (27, -3.01514530181884765625e+00) (28, -2.14329624176025390625e+00) (29, -4.98839282989501953125e+00) (30, -4.45902729034423828125e+00) (31, -4.43304598331451416016e-01) (32, -2.66273808479309082031e+00) (33, -2.23422574996948242188e+00) (34, -3.72199177742004394531e-01) (35, 5.32914047241210937500e+01) (0, 6.15157318115234375000e+00) (1, 4.07348632812500000000e+01) (2, -1.09160652160644531250e+01) (3, -3.85156173706054687500e+01) (4, 9.70874691009521484375e+00) (5, 7.18689727783203125000e+00) (6, 4.55129127502441406250e+01) (7, -8.47615623474121093750e+00) (8, 1.76096992492675781250e+01) (9, 4.16117248535156250000e+01) (10, 2.92651057243347167969e+00) (11, -1.78444027900695800781e+00) (12, -2.16450748443603515625e+01) (13, -1.81379852294921875000e+01) (14, -1.27629127502441406250e+01) (15, -1.07993955612182617188e+01) (16, -2.03136501312255859375e+01) (17, -1.40425806045532226562e+01) (18, -6.65872144699096679688e+00) (19, -7.08206224441528320312e+00) (20, 1.92688596248626708984e+00) (21, -6.71379041671752929688e+00) (22, -6.75578689575195312500e+00) (23, -4.88913595676422119141e-01) (24, -3.19487929344177246094e+00) (25, -1.14568459987640380859e+00) (26, -2.57585525512695312500e+00) (27, -1.99865114688873291016e+00) (28, -3.27364635467529296875e+00) (29, -1.21801865100860595703e+00) (30, -1.58862566947937011719e+00) (31, -1.84859621524810791016e+00) (32, -1.98197841644287109375e+00) (33, -1.41455543041229248047e+00) (34, -4.29566979408264160156e-01) (35, 1.28953180313110351562e+01) (0, 4.95096635818481445312e+00) (1, 2.68983316421508789062e+00) (2, 5.74845838546752929688e+00) (3, 1.75442829132080078125e+01) (4, -2.01206111907958984375e+00) (5, 4.72876071929931640625e+00) (6, 5.12630558013916015625e+00) (7, 2.49765396118164062500e-01) (8, -4.68622303009033203125e+00) (9, 9.96554279327392578125e+00) (10, -9.24576759338378906250e+00) (11, -1.99756603240966796875e+01) (12, 3.62183094024658203125e+00) (13, 8.72809410095214843750e+00) (14, -3.01710629463195800781e+00) (15, -2.70260310173034667969e+00) (16, -6.82377767562866210938e+00) (17, -4.97860908508300781250e+00) (18, -4.71093940734863281250e+00) (19, -1.95203506946563720703e+00) (20, -2.83007097244262695312e+00) (21, -2.58213782310485839844e+00) (22, -4.13512945175170898438e+00) (23, -3.06557035446166992188e+00) (24, 1.54181450605392456055e-01) (25, 9.09614205360412597656e-01) (26, -1.84509122371673583984e+00) (27, -1.02746617794036865234e+00) (28, -7.68967032432556152344e-01) (29, -1.23746776580810546875e+00) (30, -1.11525380611419677734e+00) (31, -1.38199365139007568359e+00) (32, -1.02361309528350830078e+00) (33, -5.59452533721923828125e-01) (34, -3.42761397361755371094e-01) (35, 2.29758052825927734375e+01) (0, 4.22060191631317138672e-01) (1, -7.64409303665161132812e+00) (2, -5.97086620330810546875e+00) (3, 1.78761806488037109375e+01) (4, 8.40249347686767578125e+00) (5, -7.00332832336425781250e+00) (6, -2.15219955444335937500e+01) (7, 3.95792514085769653320e-01) (8, 9.14779186248779296875e+00) (9, 8.01035308837890625000e+00) (10, 8.10225677490234375000e+00) (11, 1.51114130020141601562e+01) (12, 6.08192062377929687500e+00) (13, -3.54293823242187500000e+00) (14, 3.06056809425354003906e+00) (15, -2.42102646827697753906e+00) (16, 7.24839210510253906250e+00) (17, 4.52644634246826171875e+00) (18, -3.34277935326099395752e-02) (19, 5.48510730266571044922e-01) (20, 2.11055350303649902344e+00) (21, 1.29413461685180664062e+00) (22, 4.94079685211181640625e+00) (23, 1.35225021839141845703e+00) (24, 4.04404830932617187500e+00) (25, 1.22751760482788085938e+00) (26, 1.83269810676574707031e+00) (27, 2.73170280456542968750e+00) (28, 2.19549989700317382812e+00) (29, 7.49318897724151611328e-02) (30, 1.84756076335906982422e+00) (31, 7.87544548511505126953e-01) (32, 1.44465482234954833984e+00) (33, 1.14541864395141601562e+00) (34, 8.28685045242309570312e-01) (35, -2.45326137542724609375e+01) (0, 4.27250289916992187500e+01) (1, 2.84864692687988281250e+01) (2, 2.05122756958007812500e+01) (3, 3.39641418457031250000e+01) (4, 1.90797939300537109375e+01) (5, -1.49619541168212890625e+01) (6, 2.01367053985595703125e+01) (7, 1.05080156326293945312e+01) (8, -5.75600194931030273438e+00) (9, 6.28156280517578125000e+00) (10, 1.38245916366577148438e+01) (11, -3.68710136413574218750e+01) (12, 1.52157363891601562500e+01) (13, 3.32829236984252929688e+00) (14, -1.93726119995117187500e+01) (15, -9.03727340698242187500e+00) (16, -1.80806903839111328125e+01) (17, -2.06347846984863281250e+01) (18, -1.32447361946105957031e+00) (19, -6.41689872741699218750e+00) (20, -5.71798706054687500000e+00) (21, -8.75002765655517578125e+00) (22, -7.52183771133422851562e+00) (23, -5.80204153060913085938e+00) (24, -3.73794531822204589844e+00) (25, -6.30566978454589843750e+00) (26, -2.40686845779418945312e+00) (27, -2.95094156265258789062e+00) (28, -3.07307052612304687500e+00) (29, -1.47952091693878173828e+00) (30, -2.97864699363708496094e+00) (31, -2.67236280441284179688e+00) (32, -1.70582723617553710938e+00) (33, -6.90490424633026123047e-01) (34, -8.70582282543182373047e-01) (35, 2.69832534790039062500e+01) (0, -1.76108970642089843750e+01) (1, -1.94625225067138671875e+01) (2, -1.62110691070556640625e+01) (3, -1.60424537658691406250e+01) (4, -7.87244319915771484375e+00) (5, -1.07864551544189453125e+01) (6, -3.89456901550292968750e+01) (7, -1.58550443649291992188e+01) (8, -1.02448863983154296875e+01) (9, 5.21428918838500976562e+00) (10, 3.52748413085937500000e+01) (11, 2.79056777954101562500e+01) (12, 5.42826538085937500000e+01) (13, 9.21875000000000000000e+01) (14, 2.98233375549316406250e+01) (15, 3.41810488700866699219e+00) (16, 4.14201240539550781250e+01) (17, 2.24157524108886718750e+01) (18, 2.61500282287597656250e+01) (19, 2.38269252777099609375e+01) (20, 1.73934173583984375000e+01) (21, 4.33681488037109375000e+00) (22, 1.11652994155883789062e+01) (23, 8.68605804443359375000e+00) (24, 7.93602037429809570312e+00) (25, 5.73246479034423828125e+00) (26, 7.15548515319824218750e+00) (27, 9.61813259124755859375e+00) (28, 5.59228134155273437500e+00) (29, 4.78759050369262695312e+00) (30, 2.76615023612976074219e+00) (31, 6.02840375900268554688e+00) (32, 3.05509090423583984375e+00) (33, 2.33383178710937500000e+00) (34, 1.89377641677856445312e+00) (35, 2.01430912017822265625e+01) (0, 2.90996742248535156250e+00) (1, -1.70973434448242187500e+01) (2, 2.21836242675781250000e+01) (3, -1.29077272415161132812e+01) (4, 2.37698936462402343750e+01) (5, -2.76951289176940917969e+00) (6, 2.36603760719299316406e+00) (7, 5.46942558288574218750e+01) (8, 1.72528724670410156250e+01) (9, 2.36143469810485839844e+00) (10, 9.37945270538330078125e+00) (11, 3.06360073089599609375e+01) (12, -2.56942653656005859375e+00) (13, -1.84922733306884765625e+01) (14, 1.27866420745849609375e+01) (15, 3.08949995040893554688e+00) (16, 7.59079158306121826172e-01) (17, -2.70289921760559082031e+00) (18, 5.94792127609252929688e+00) (19, 3.11230778694152832031e+00) (20, -2.30971693992614746094e+00) (21, -6.16542220115661621094e-01) (22, 1.37391197681427001953e+00) (23, -3.33438324928283691406e+00) (24, -8.08175444602966308594e-01) (25, -2.67359280586242675781e+00) (26, -2.17109274864196777344e+00) (27, 1.81321418285369873047e+00) (28, 2.35840606689453125000e+00) (29, -1.10645830631256103516e+00) (30, 2.69837528467178344727e-01) (31, -2.62769639492034912109e-01) (32, -5.18731236457824707031e-01) (33, -7.25099220871925354004e-02) (34, -4.73291784524917602539e-01) (35, -1.06833543777465820312e+01) (0, -4.10310935974121093750e+01) (1, -6.07695770263671875000e+00) (2, 1.09487457275390625000e+01) (3, 2.24047985076904296875e+01) (4, 2.10934028625488281250e+01) (5, -1.35611963272094726562e+01) (6, -2.71569633483886718750e+01) (7, 7.92631387710571289062e+00) (8, -7.96195268630981445312e+00) (9, 1.10828981399536132812e+01) (10, 2.77084980010986328125e+01) (11, 7.96131753921508789062e+00) (12, 3.32271838188171386719e+00) (13, -9.36769771575927734375e+00) (14, 1.75077247619628906250e+01) (15, 1.67945117950439453125e+01) (16, 1.60886840820312500000e+01) (17, 1.72757959365844726562e+00) (18, 6.29024124145507812500e+00) (19, 2.81887149810791015625e+00) (20, 3.90823411941528320312e+00) (21, 2.59439563751220703125e+00) (22, 2.62719058990478515625e+00) (23, 1.18065369129180908203e+00) (24, 7.53953170776367187500e+00) (25, 2.37330746650695800781e+00) (26, 1.35667037963867187500e+00) (27, 1.50194907188415527344e+00) (28, 2.37081933021545410156e+00) (29, 5.82469046115875244141e-01) (30, 1.91981518268585205078e+00) (31, 1.82436525821685791016e+00) (32, 1.05464863777160644531e+00) (33, 1.55220079421997070312e+00) (34, 3.57436120510101318359e-01) (35, 1.31386938095092773438e+01) (0, -5.40711116790771484375e+00) (1, -1.17800779342651367188e+01) (2, -1.59356412887573242188e+01) (3, -5.15821266174316406250e+00) (4, -9.53497028350830078125e+00) (5, -1.38287997245788574219e+00) (6, -8.80662059783935546875e+00) (7, 1.14949913024902343750e+01) (8, 7.32639551162719726562e+00) (9, -6.65157461166381835938e+00) (10, 4.36836853027343750000e+01) (11, -9.60220336914062500000e+01) (12, 1.40688533782958984375e+01) (13, 3.78686285018920898438e+00) (14, 2.75702362060546875000e+01) (15, 9.95801866054534912109e-01) (16, 2.86773471832275390625e+01) (17, 4.93872356414794921875e+00) (18, 1.67428169250488281250e+01) (19, 1.52529811859130859375e+01) (20, 6.31736421585083007812e+00) (21, 7.15470314025878906250e+00) (22, 9.95087528228759765625e+00) (23, 7.58824586868286132812e+00) (24, 8.57030200958251953125e+00) (25, 3.31206107139587402344e+00) (26, 9.47020626068115234375e+00) (27, 8.18464469909667968750e+00) (28, 3.84299159049987792969e+00) (29, 7.15343856811523437500e+00) (30, 3.61572122573852539062e+00) (31, 4.22124814987182617188e+00) (32, 3.54342079162597656250e+00) (33, 1.45701587200164794922e+00) (34, 1.40279734134674072266e+00) (35, 1.26784639358520507812e+01) (0, -2.39776515960693359375e+00) (1, 5.39705944061279296875e+00) (2, -1.69903774261474609375e+01) (3, 3.28868103027343750000e+01) (4, -2.21523647308349609375e+01) (5, -1.65824031829833984375e+01) (6, 6.93050537109375000000e+01) (7, 4.55096197128295898438e+00) (8, -3.95635515451431274414e-01) (9, -1.20238914489746093750e+01) (10, 1.29465484619140625000e+01) (11, -4.15200386047363281250e+01) (12, -2.58317947387695312500e+00) (13, -7.48646497726440429688e+00) (14, -5.11273860931396484375e+00) (15, 1.25749301910400390625e+00) (16, -1.06727390289306640625e+01) (17, 1.13360333442687988281e+00) (18, -8.47173213958740234375e+00) (19, -6.69615888595581054688e+00) (20, -8.86070355772972106934e-02) (21, -4.37717247009277343750e+00) (22, -2.53556036949157714844e+00) (23, -4.37595319747924804688e+00) (24, 1.77305126190185546875e+00) (25, -2.66107249259948730469e+00) (26, -2.66166639328002929688e+00) (27, -1.35395312309265136719e+00) (28, -3.69408512115478515625e+00) (29, -1.62909495830535888672e+00) (30, -2.44327592849731445312e+00) (31, -1.48760974407196044922e+00) (32, -1.73010826110839843750e+00) (33, -1.14637339115142822266e+00) (34, -1.26952695846557617188e+00) (35, -7.44655561447143554688e+00) (0, -3.03648233413696289062e+00) (1, 1.27038908004760742188e+01) (2, 6.62129831314086914062e+00) (3, 6.63429677486419677734e-01) (4, 1.35437479019165039062e+01) (5, -8.09638404846191406250e+00) (6, -1.82356491088867187500e+01) (7, -7.28407669067382812500e+00) (8, 2.20040011405944824219e+00) (9, 6.56647014617919921875e+00) (10, -3.17448258399963378906e+00) (11, 4.85041046142578125000e+01) (12, -1.62039299011230468750e+01) (13, -4.45428543090820312500e+01) (14, 9.57426452636718750000e+00) (15, -1.64708054065704345703e+00) (16, 3.30381774902343750000e+00) (17, 3.30050969123840332031e+00) (18, 5.88900613784790039062e+00) (19, -4.83812618255615234375e+00) (20, 9.71815049648284912109e-01) (21, 7.63242912292480468750e+00) (22, 4.47752094268798828125e+00) (23, 1.70502960681915283203e+00) (24, 4.73832517862319946289e-01) (25, -9.63821291923522949219e-01) (26, 2.11733388900756835938e+00) (27, 1.63179382681846618652e-01) (28, -1.04291811585426330566e-01) (29, -1.25374486669898033142e-02) (30, 7.49533712863922119141e-01) (31, -1.76245361566543579102e-01) (32, 6.11289620399475097656e-01) (33, -3.57100546360015869141e-01) (34, 1.49921846389770507812e+00) (35, -3.00676708221435546875e+01) (36, 1.22108554840087890625e+01) (37, -2.42191219329833984375e+01) (38, 3.58433771133422851562e+00) (39, 1.13639488220214843750e+01) (40, -6.03800344467163085938e+00) (41, 4.23601818084716796875e+00) (42, 5.27591657638549804688e+00) (43, 3.89380067586898803711e-01) (44, 6.36927986145019531250e+00) (45, 1.35341348648071289062e+01) (46, 4.04120540618896484375e+00) (47, -7.96709001064300537109e-01) (48, -6.47223615646362304688e+00) (49, 1.14168500900268554688e+01) (50, 1.17520856857299804688e+01) (51, -6.80275249481201171875e+00) (52, -8.63696193695068359375e+00) (53, 1.46633177995681762695e-01) (54, -2.56131410598754882812e+00) (55, 5.35613155364990234375e+00) (56, -7.06586217880249023438e+00) (57, 1.61262226104736328125e+00) (58, 1.08005723953247070312e+01) (59, -4.97480964660644531250e+00) (60, -1.03455726057291030884e-02) (61, 2.49793219566345214844e+00) (62, -1.66698360443115234375e+01) (63, 2.98642981797456741333e-02) (64, -1.86515629291534423828e+00) (65, -1.87715590000152587891e-02) (66, 2.23376102447509765625e+01) (67, -8.05787849426269531250e+00) (68, -4.28716182708740234375e+00) (69, 3.91858649253845214844e+00) (70, -1.54651582241058349609e+00) (71, 4.20998764038085937500e+00) (72, 1.12423839569091796875e+01) (73, -6.73345804214477539062e+00) (74, 5.19663906097412109375e+00) (75, -1.10108356475830078125e+01) (76, -8.75120830535888671875e+00) (77, -1.12725639343261718750e+01) (36, -6.51992738246917724609e-01) (37, -7.78767156600952148438e+00) (38, -3.80555129051208496094e+00) (39, 1.02909097671508789062e+01) (40, -1.33577213287353515625e+01) (41, 3.24525892734527587891e-01) (42, -1.01067757606506347656e+00) (43, -2.99293708801269531250e+00) (44, -4.11134672164916992188e+00) (45, 1.11899175643920898438e+01) (46, -5.57835912704467773438e+00) (47, 6.41212797164916992188e+00) (48, 1.95710408687591552734e+00) (49, 1.45987482070922851562e+01) (50, -4.95024156570434570312e+00) (51, 1.18791074752807617188e+01) (52, -3.59279608726501464844e+00) (53, 7.95408344268798828125e+00) (54, 1.13447475433349609375e+01) (55, -1.75975728034973144531e+00) (56, 1.02007608413696289062e+01) (57, 1.33855953216552734375e+01) (58, 1.04225826263427734375e+01) (59, -9.86999320983886718750e+00) (60, 2.48617935180664062500e+00) (61, 6.58535242080688476562e+00) (62, 1.29039468765258789062e+01) (63, 7.41764259338378906250e+00) (64, 5.77090167999267578125e+00) (65, 2.16685867309570312500e+00) (66, 1.16595573425292968750e+01) (67, -8.11808395385742187500e+00) (68, -4.35937929153442382812e+00) (69, 1.64065217971801757812e+00) (70, -3.34930825233459472656e+00) (71, 1.07446365356445312500e+01) (72, -1.32146465778350830078e+00) (73, 7.97989320755004882812e+00) (74, 8.57152271270751953125e+00) (75, -9.08208084106445312500e+00) (76, -6.03164291381835937500e+00) (77, -8.70111465454101562500e+00) (36, 8.69728088378906250000e+00) (37, 2.74159526824951171875e+00) (38, -5.31142854690551757812e+00) (39, 8.60970079898834228516e-01) (40, -5.48627424240112304688e+00) (41, 6.93475365638732910156e-01) (42, 3.01230419427156448364e-02) (43, -8.69663810729980468750e+00) (44, 6.54044008255004882812e+00) (45, -2.06859230995178222656e+00) (46, -1.24342107772827148438e+01) (47, 1.55087966918945312500e+01) (48, -6.82935476303100585938e+00) (49, 7.71132087707519531250e+00) (50, -7.47613382339477539062e+00) (51, 1.62466373443603515625e+01) (52, 4.68542432785034179688e+00) (53, -5.29997777938842773438e+00) (54, -4.58534765243530273438e+00) (55, 9.42444419860839843750e+00) (56, -7.71254444122314453125e+00) (57, -2.27575945854187011719e+00) (58, -3.24917769432067871094e+00) (59, -1.25335693359375000000e+01) (60, 1.34126901626586914062e+01) (61, 3.56432580947875976562e+00) (62, -4.00369167327880859375e+00) (63, 5.24539661407470703125e+00) (64, -2.30702936649322509766e-01) (65, -7.21204090118408203125e+00) (66, -1.23770637512207031250e+01) (67, -9.51876449584960937500e+00) (68, 5.62388837337493896484e-01) (69, 8.73165798187255859375e+00) (70, 5.14371061325073242188e+00) (71, 1.65400104522705078125e+01) (72, 1.21034586429595947266e+00) (73, -5.46054780483245849609e-01) (74, -2.24962258338928222656e+00) (75, -9.09940433502197265625e+00) (76, 7.26822996139526367188e+00) (77, -1.30753307342529296875e+01) (36, -1.31757202148437500000e+01) (37, -5.17623281478881835938e+00) (38, -5.60498046875000000000e+00) (39, -6.27133464813232421875e+00) (40, -1.00632429122924804688e+00) (41, -1.46167945861816406250e+01) (42, 1.08347539901733398438e+01) (43, 8.45219135284423828125e+00) (44, -8.59469223022460937500e+00) (45, -9.51176738739013671875e+00) (46, -1.82476913928985595703e+00) (47, -5.15245532989501953125e+00) (48, 4.51034164428710937500e+00) (49, -5.21987867355346679688e+00) (50, -1.39315023422241210938e+01) (51, 1.86911563873291015625e+01) (52, 5.13631725311279296875e+00) (53, 1.88760578632354736328e-01) (54, -1.50674760341644287109e-01) (55, 1.06635112762451171875e+01) (56, 6.90210151672363281250e+00) (57, -1.05016317367553710938e+01) (58, 1.13454306125640869141e+00) (59, 1.44983291625976562500e+00) (60, -7.48167181015014648438e+00) (61, -3.88761982321739196777e-02) (62, -3.61488032341003417969e+00) (63, -2.34902358055114746094e+00) (64, -2.45804381370544433594e+00) (65, 1.84888877868652343750e+01) (66, -1.23117227554321289062e+01) (67, 9.96219158172607421875e+00) (68, 1.77209913730621337891e+00) (69, 4.03379106521606445312e+00) (70, -1.72872695922851562500e+01) (71, -4.98345565795898437500e+00) (72, -5.42982769012451171875e+00) (73, -2.98988986015319824219e+00) (74, -7.98626613616943359375e+00) (75, 1.36135606765747070312e+01) (76, 5.25649833679199218750e+00) (77, 4.67694234848022460938e+00) (36, -3.09614205360412597656e+00) (37, -4.43297815322875976562e+00) (38, -6.35188043117523193359e-01) (39, -1.19551014900207519531e+00) (40, 3.32949113845825195312e+00) (41, 7.93655776977539062500e+00) (42, 1.33166399002075195312e+01) (43, 7.32483816146850585938e+00) (44, -1.13617944717407226562e+01) (45, 1.37986135482788085938e+01) (46, -3.13526749610900878906e+00) (47, 1.21877593994140625000e+01) (48, -6.92652606964111328125e+00) (49, 1.24748449325561523438e+01) (50, 2.68365120887756347656e+00) (51, 1.15872704982757568359e+00) (52, 5.07432365417480468750e+00) (53, -1.60287685394287109375e+01) (54, 2.56280922889709472656e+00) (55, -3.38075304031372070312e+00) (56, -2.53785061836242675781e+00) (57, 1.01238517761230468750e+01) (58, -1.08542032241821289062e+01) (59, -2.16191816329956054688e+00) (60, 5.46895980834960937500e+00) (61, -1.01091217994689941406e+00) (62, 2.56216621398925781250e+00) (63, 5.48238277435302734375e+00) (64, 2.08462238311767578125e+00) (65, 5.62251925468444824219e-01) (66, 8.17857801914215087891e-01) (67, -9.95226097106933593750e+00) (68, -1.32027616500854492188e+01) (69, 1.69483108520507812500e+01) (70, -6.79392099380493164062e+00) (71, -1.14604492187500000000e+01) (72, 1.15420150756835937500e+01) (73, -5.36326169967651367188e+00) (74, 8.04907608032226562500e+00) (75, -9.69432926177978515625e+00) (76, 2.22128182649612426758e-01) (77, -5.43085718154907226562e+00) (36, 1.91992664337158203125e+01) (37, -2.86929059028625488281e+00) (38, -5.38907384872436523438e+00) (39, -8.54267501831054687500e+00) (40, 9.03682994842529296875e+00) (41, -6.18967580795288085938e+00) (42, -6.46370744705200195312e+00) (43, -5.41801261901855468750e+00) (44, 7.21272134780883789062e+00) (45, -9.22814750671386718750e+00) (46, -1.79749727249145507812e+00) (47, 6.68393421173095703125e+00) (48, -4.61492681503295898438e+00) (49, -2.94538044929504394531e+00) (50, 5.32747650146484375000e+00) (51, 1.24928646087646484375e+01) (52, 1.19638490676879882812e+01) (53, 1.36643898487091064453e+00) (54, 3.36811494827270507812e+00) (55, 1.30583238601684570312e+00) (56, -2.58654022216796875000e+00) (57, 2.10221290588378906250e+01) (58, 1.26694250106811523438e+01) (59, 1.41260128021240234375e+01) (60, 1.90922689437866210938e+00) (61, 9.94590282440185546875e+00) (62, 1.01597385406494140625e+01) (63, -5.34806871414184570312e+00) (64, 1.29484825134277343750e+01) (65, 1.46248750686645507812e+01) (66, -1.15868492126464843750e+01) (67, -4.42359399795532226562e+00) (68, 9.53689479827880859375e+00) (69, 3.69763731956481933594e+00) (70, -1.84503097534179687500e+01) (71, 2.73386936187744140625e+01) (72, 5.05053949356079101562e+00) (73, 4.30136871337890625000e+00) (74, 8.77808094024658203125e+00) (75, -7.75736331939697265625e+00) (76, -1.18588268756866455078e+00) (77, -1.65277023315429687500e+01) (36, 1.42586297988891601562e+01) (37, 8.48159968852996826172e-01) (38, -2.50484013557434082031e+00) (39, -2.77378153800964355469e+00) (40, 4.33102703094482421875e+00) (41, 6.81485652923583984375e+00) (42, 6.60658407211303710938e+00) (43, -3.18493574857711791992e-01) (44, -4.66568350791931152344e-01) (45, -1.51710629463195800781e+00) (46, 5.88790833950042724609e-01) (47, 4.45837783813476562500e+00) (48, 1.18927278518676757812e+01) (49, -3.49740457534790039062e+00) (50, -2.87772297859191894531e+00) (51, -1.76415786743164062500e+01) (52, 1.96151697635650634766e+00) (53, -1.26318483352661132812e+01) (54, 1.16014976501464843750e+01) (55, 5.27966165542602539062e+00) (56, -1.94335925579071044922e+00) (57, 9.54339122772216796875e+00) (58, 2.48010873794555664062e+00) (59, -8.66314649581909179688e-01) (60, 1.26811957359313964844e+00) (61, -1.28641891479492187500e+00) (62, 3.99442911148071289062e+00) (63, -3.25777697563171386719e+00) (64, -1.14101057052612304688e+01) (65, -4.75748300552368164062e+00) (66, 4.03053379058837890625e+00) (67, 2.05141143798828125000e+01) (68, 8.85371017456054687500e+00) (69, -5.18871450424194335938e+00) (70, -1.07576894760131835938e+01) (71, -1.04851570129394531250e+01) (72, 3.22008252143859863281e+00) (73, 8.59059214591979980469e-01) (74, 2.40916919708251953125e+00) (75, -9.68280029296875000000e+00) (76, -8.14473438262939453125e+00) (77, 2.14483604431152343750e+01) (36, -1.20145006179809570312e+01) (37, 1.09312221407890319824e-01) (38, -1.25074501037597656250e+01) (39, -1.47305583953857421875e+00) (40, -8.68604660034179687500e+00) (41, 1.96268713474273681641e+00) (42, 1.41405887603759765625e+01) (43, -6.20064592361450195312e+00) (44, 3.81428956985473632812e+00) (45, 2.17091445922851562500e+01) (46, -7.64376306533813476562e+00) (47, -7.07587862014770507812e+00) (48, 9.18136405944824218750e+00) (49, 6.53128004074096679688e+00) (50, -2.04533634185791015625e+01) (51, 2.63829803466796875000e+00) (52, 2.89791560173034667969e+00) (53, 1.66400313377380371094e+00) (54, -8.13665008544921875000e+00) (55, -4.34981298446655273438e+00) (56, -4.65576076507568359375e+00) (57, -8.01921272277832031250e+00) (58, -2.06392121315002441406e+00) (59, -1.00202436447143554688e+01) (60, 6.91185569763183593750e+00) (61, -6.49400138854980468750e+00) (62, 5.65347623825073242188e+00) (63, -8.95545482635498046875e+00) (64, -1.77883243560791015625e+01) (65, -2.04725575447082519531e+00) (66, 1.30617446899414062500e+01) (67, 3.03917121887207031250e+00) (68, 6.70018053054809570312e+00) (69, -4.29765844345092773438e+00) (70, 1.14211344718933105469e+00) (71, -1.68751163482666015625e+01) (72, -5.53091192245483398438e+00) (73, 2.49110078811645507812e+00) (74, 1.02162688970565795898e-01) (75, 1.16253080368041992188e+01) (76, -4.18810510635375976562e+00) (77, 1.21510152816772460938e+01) (36, 5.45745801925659179688e+00) (37, -1.51109921932220458984e+00) (38, 1.70200121402740478516e+00) (39, 8.70697116851806640625e+00) (40, -1.93749964237213134766e+00) (41, -7.36437225341796875000e+00) (42, -1.29305410385131835938e+01) (43, 7.52784669399261474609e-01) (44, -6.49064350128173828125e+00) (45, 1.69470334053039550781e+00) (46, 5.32043790817260742188e+00) (47, 1.18630063533782958984e+00) (48, -3.21965193748474121094e+00) (49, 4.61745977401733398438e+00) (50, -4.10849046707153320312e+00) (51, -7.17710494995117187500e-01) (52, 8.63245201110839843750e+00) (53, 5.86151981353759765625e+00) (54, -1.81871681213378906250e+01) (55, -5.72587776184082031250e+00) (56, -9.45302867889404296875e+00) (57, -4.76388025283813476562e+00) (58, 3.39971137046813964844e+00) (59, -4.07916545867919921875e+00) (60, -5.41359484195709228516e-02) (61, -2.44459581375122070312e+00) (62, -1.42877407073974609375e+01) (63, -8.14817333221435546875e+00) (64, 4.89684867858886718750e+00) (65, -2.81222486495971679688e+00) (66, 3.42136770486831665039e-01) (67, 1.99614512920379638672e+00) (68, -4.05293405055999755859e-01) (69, -2.39835739135742187500e+00) (70, -1.18468780517578125000e+01) (71, 6.17614269256591796875e+00) (72, 1.93153953552246093750e+00) (73, 5.89576339721679687500e+00) (74, 1.33334884643554687500e+01) (75, 1.51988000869750976562e+01) (76, -4.31501197814941406250e+00) (77, -2.94343996047973632812e+00) (36, 1.29962291717529296875e+01) (37, 2.12877988815307617188e+00) (38, 1.29068231582641601562e+01) (39, 4.84743595123291015625e+00) (40, -6.50579631328582763672e-01) (41, 9.02885723114013671875e+00) (42, 5.91614866256713867188e+00) (43, 4.30230331420898437500e+00) (44, 2.19643664360046386719e+00) (45, -3.13912957906723022461e-01) (46, 1.19985020160675048828e+00) (47, 1.18211736679077148438e+01) (48, -2.81169915199279785156e+00) (49, 1.07134265899658203125e+01) (50, -5.66794443130493164062e+00) (51, -8.34588432312011718750e+00) (52, 7.06685721874237060547e-01) (53, 2.31858682632446289062e+00) (54, -1.18169116973876953125e+00) (55, 1.69004802703857421875e+01) (56, -4.27901601791381835938e+00) (57, 9.85351085662841796875e+00) (58, -2.75553196668624877930e-01) (59, -5.52040386199951171875e+00) (60, -2.39180047065019607544e-02) (61, 1.89281439781188964844e+00) (62, -1.24532651901245117188e+01) (63, 4.37251615524291992188e+00) (64, 2.58102965354919433594e+00) (65, -3.59598960876464843750e+01) (66, -7.29921054840087890625e+00) (67, -8.06561756134033203125e+00) (68, 8.00551986694335937500e+00) (69, 4.02522373199462890625e+00) (70, 3.90338063240051269531e+00) (71, 5.55626228451728820801e-02) (72, 1.40362215042114257812e+00) (73, 1.11339104175567626953e+00) (74, 1.34613704681396484375e+01) (75, 1.24812202453613281250e+01) (76, 8.53296661376953125000e+00) (77, -1.92451496124267578125e+01) (36, 2.34705333709716796875e+01) (37, -3.08886814117431640625e+00) (38, 5.22297954559326171875e+00) (39, 9.18322277069091796875e+00) (40, 9.57414722442626953125e+00) (41, -1.63543281555175781250e+01) (42, -7.06893777847290039062e+00) (43, 2.88451910018920898438e+00) (44, 1.22168169021606445312e+01) (45, -1.22330713272094726562e+01) (46, -1.18567132949829101562e+01) (47, -5.31555175781250000000e+00) (48, 3.29961824417114257812e+00) (49, -5.98536634445190429688e+00) (50, -1.00140914916992187500e+01) (51, 3.74548649787902832031e+00) (52, 4.79155635833740234375e+00) (53, 1.81396007537841796875e+01) (54, 1.68554153442382812500e+01) (55, -1.08169579505920410156e+00) (56, -1.02594394683837890625e+01) (57, 1.19832830429077148438e+01) (58, -8.49401235580444335938e-01) (59, 2.28912663459777832031e+00) (60, -9.08903884887695312500e+00) (61, -4.65350723266601562500e+00) (62, -2.95197033882141113281e+00) (63, -5.68058669567108154297e-01) (64, 5.55206680297851562500e+00) (65, 5.45181226730346679688e+00) (66, -2.16408138275146484375e+01) (67, -5.66854429244995117188e+00) (68, -9.02232933044433593750e+00) (69, 4.32256984710693359375e+00) (70, -1.96780281066894531250e+01) (71, 2.23922176361083984375e+01) (72, 6.74156665802001953125e+00) (73, 3.57229042053222656250e+00) (74, 4.20486221313476562500e+01) (75, -9.02260398864746093750e+00) (76, 6.94785451889038085938e+00) (77, -2.72425346374511718750e+01) (36, 1.20596818923950195312e+01) (37, -9.10425901412963867188e-01) (38, 1.35381612777709960938e+01) (39, 3.48529362678527832031e+00) (40, -6.29478454589843750000e+00) (41, -3.52568244934082031250e+00) (42, -1.88602104187011718750e+01) (43, -9.11941242218017578125e+00) (44, 4.18621122837066650391e-01) (45, -2.70791578292846679688e+00) (46, 3.64109492301940917969e+00) (47, 6.24013566970825195312e+00) (48, 3.05146217346191406250e+00) (49, -4.77686357498168945312e+00) (50, 6.98531344532966613770e-02) (51, 4.44304257631301879883e-01) (52, -6.59449052810668945312e+00) (53, -1.21708793640136718750e+01) (54, 1.52811222076416015625e+01) (55, -1.30980567932128906250e+01) (56, 7.49773216247558593750e+00) (57, 4.42336893081665039062e+00) (58, 9.05319881439208984375e+00) (59, 2.68303543329238891602e-01) (60, -1.00915026664733886719e+00) (61, 3.39460682868957519531e+00) (62, 8.80008697509765625000e+00) (63, -4.82319498062133789062e+00) (64, 9.23419094085693359375e+00) (65, 1.40969896316528320312e+01) (66, 7.34653234481811523438e-01) (67, 3.20880651473999023438e+00) (68, -1.45036792755126953125e+00) (69, 1.91682839393615722656e+00) (70, 1.06309437751770019531e+00) (71, 5.18718004226684570312e+00) (72, -3.95933508872985839844e-01) (73, 5.67689597606658935547e-01) (74, 1.06185846328735351562e+01) (75, -1.24286091327667236328e+00) (76, -3.74329781532287597656e+00) (77, -7.80626821517944335938e+00) (36, 1.29228429794311523438e+01) (37, 1.94422289729118347168e-01) (38, 6.63726472854614257812e+00) (39, -8.25136852264404296875e+00) (40, -2.53277397155761718750e+00) (41, -9.00988578796386718750e+00) (42, 4.43256092071533203125e+00) (43, -4.38602018356323242188e+00) (44, -1.29410285949707031250e+01) (45, 2.23269891738891601562e+00) (46, -1.07138004302978515625e+01) (47, 1.67597484588623046875e+01) (48, 5.59532880783081054688e+00) (49, -5.88415575027465820312e+00) (50, 6.23147070407867431641e-01) (51, -1.15924587249755859375e+01) (52, 2.84771842956542968750e+01) (53, -1.70029315948486328125e+01) (54, -1.22554645538330078125e+01) (55, -1.54157292842864990234e+00) (56, -2.33551158905029296875e+01) (57, -5.33146905899047851562e+00) (58, 1.15373682975769042969e+00) (59, 8.73962783813476562500e+00) (60, 8.71509265899658203125e+00) (61, 5.31238317489624023438e+00) (62, 8.99235343933105468750e+00) (63, 7.40269851684570312500e+00) (64, -3.73443150520324707031e+00) (65, 1.56973638534545898438e+01) (66, -5.34242200851440429688e+00) (67, 3.88843774795532226562e+00) (68, 6.93330860137939453125e+00) (69, -4.41283750534057617188e+00) (70, -4.09745359420776367188e+00) (71, -9.65961456298828125000e+00) (72, 1.04817752838134765625e+01) (73, -3.68789225816726684570e-01) (74, -5.51370954513549804688e+00) (75, 1.40499458312988281250e+01) (76, -6.60946893692016601562e+00) (77, 7.93636178970336914062e+00) (36, -1.04566466808319091797e+00) (37, 7.49745786190032958984e-01) (38, -1.34813654422760009766e+00) (39, 4.81589221954345703125e+00) (40, 5.96742987632751464844e-01) (41, -1.07033329010009765625e+01) (42, -1.36357307434082031250e+01) (43, 3.41298627853393554688e+00) (44, 1.83803093433380126953e+00) (45, -7.96859359741210937500e+00) (46, 8.41706371307373046875e+00) (47, -7.27542972564697265625e+00) (48, -9.22966659069061279297e-01) (49, 1.56007022857666015625e+01) (50, -3.01696091890335083008e-01) (51, -1.83413276672363281250e+01) (52, -9.14527535438537597656e-01) (53, -1.17302930355072021484e+00) (54, 6.71147251129150390625e+00) (55, -1.81715850830078125000e+01) (56, 2.92084836959838867188e+00) (57, 1.29952430725097656250e+01) (58, 4.41096782684326171875e+00) (59, 9.89117050170898437500e+00) (60, -4.50657701492309570312e+00) (61, 1.54435138702392578125e+01) (62, -3.37895464897155761719e+00) (63, 9.02699184417724609375e+00) (64, 1.52766504287719726562e+01) (65, 2.09647941589355468750e+00) (66, 1.88896879553794860840e-01) (67, -7.03842735290527343750e+00) (68, -7.58695268630981445312e+00) (69, 1.39358735084533691406e+00) (70, -1.48363327980041503906e+00) (71, 7.90591526031494140625e+00) (72, 6.97838497161865234375e+00) (73, 3.57607555389404296875e+00) (74, 1.99949054718017578125e+01) (75, -9.16436386108398437500e+00) (76, -6.89978027343750000000e+00) (77, -1.05377302169799804688e+01) (36, 2.45744180679321289062e+00) (37, -1.08839249610900878906e+00) (38, -1.45785722732543945312e+01) (39, 9.85197353363037109375e+00) (40, -2.17206192016601562500e+00) (41, -9.91075325012207031250e+00) (42, -1.35095844268798828125e+01) (43, 1.61834278106689453125e+01) (44, 5.04854536056518554688e+00) (45, -7.46780443191528320312e+00) (46, 5.06093454360961914062e+00) (47, 1.55649576187133789062e+01) (48, -4.98155403137207031250e+00) (49, -1.03703248500823974609e+00) (50, -9.90538883209228515625e+00) (51, -2.27947020530700683594e+00) (52, -5.55186414718627929688e+00) (53, -6.56023263931274414062e+00) (54, -4.25000190734863281250e+00) (55, -8.72015666961669921875e+00) (56, -6.20541334152221679688e-01) (57, 2.56514477729797363281e+00) (58, -3.23024481534957885742e-01) (59, 4.97051143646240234375e+00) (60, -1.40310640335083007812e+01) (61, 2.10892176628112792969e+00) (62, 1.08995509147644042969e+00) (63, -1.68205032348632812500e+01) (64, 1.96553900837898254395e-01) (65, 1.26661844253540039062e+01) (66, -8.51938486099243164062e-01) (67, 1.39848642349243164062e+01) (68, -7.43951976299285888672e-01) (69, -1.84112703800201416016e+00) (70, -1.01581201553344726562e+01) (71, 7.61132478713989257812e+00) (72, 1.72941851615905761719e+00) (73, -8.74793910980224609375e+00) (74, 8.25802803039550781250e+00) (75, -4.74185132980346679688e+00) (76, -3.60885620117187500000e+00) (77, -1.22195110321044921875e+01) (36, -9.50209617614746093750e+00) (37, -1.49858446121215820312e+01) (38, 7.26814508438110351562e+00) (39, -1.18504929542541503906e+00) (40, -9.61821937561035156250e+00) (41, 1.44731817245483398438e+01) (42, -1.06624698638916015625e+00) (43, 8.54799079895019531250e+00) (44, 2.38506150245666503906e+00) (45, 9.72771704196929931641e-01) (46, -3.26928472518920898438e+00) (47, 6.63932704925537109375e+00) (48, -2.14996576309204101562e+00) (49, -8.05359363555908203125e+00) (50, 2.91467356681823730469e+00) (51, 8.71146965026855468750e+00) (52, -6.27914857864379882812e+00) (53, -7.42527866363525390625e+00) (54, 5.16857099533081054688e+00) (55, -1.96394646167755126953e+00) (56, -1.66909770965576171875e+01) (57, 4.94963121414184570312e+00) (58, -7.79116773605346679688e+00) (59, 4.59841549396514892578e-01) (60, 4.54956579208374023438e+00) (61, -6.21378803253173828125e+00) (62, 4.30212831497192382812e+00) (63, 1.41799755096435546875e+01) (64, -6.91133642196655273438e+00) (65, 1.98990896344184875488e-01) (66, -9.01429462432861328125e+00) (67, -3.84799027442932128906e+00) (68, 2.61916637420654296875e+00) (69, 7.07034349441528320312e+00) (70, 7.71477794647216796875e+00) (71, 4.97529220581054687500e+00) (72, 1.53901922702789306641e+00) (73, -6.52977228164672851562e+00) (74, -9.01400089263916015625e+00) (75, -2.63885498046875000000e+00) (76, -1.29026470184326171875e+01) (77, 6.45678043365478515625e-01) (36, 1.90433139801025390625e+01) (37, 1.11089065670967102051e-01) (38, 1.01458549499511718750e+00) (39, -7.81076288223266601562e+00) (40, 1.04009885787963867188e+01) (41, 2.19471240043640136719e+00) (42, 3.27729940414428710938e+00) (43, -2.50927352905273437500e+01) (44, -1.04537220001220703125e+01) (45, -1.18900661468505859375e+01) (46, -1.96100091934204101562e+00) (47, -6.39954233169555664062e+00) (48, -3.57381582260131835938e+00) (49, 7.04229116439819335938e-01) (50, -1.40959215164184570312e+01) (51, -2.00885915756225585938e+00) (52, -2.49626040458679199219e+00) (53, -5.26761817932128906250e+00) (54, -6.26363086700439453125e+00) (55, 9.64683711528778076172e-01) (56, -1.29340867996215820312e+01) (57, -1.15965280532836914062e+01) (58, 2.60833239555358886719e+00) (59, -4.22859859466552734375e+00) (60, 4.91709351539611816406e-01) (61, 1.47026371955871582031e+00) (62, -8.11393260955810546875e-01) (63, -2.39494514465332031250e+00) (64, -1.68772487640380859375e+01) (65, -8.30136585235595703125e+00) (66, 2.14777355194091796875e+01) (67, 1.56022911071777343750e+01) (68, 4.23191881179809570312e+00) (69, -1.00646009445190429688e+01) (70, -1.95026409626007080078e+00) (71, -1.45492000579833984375e+01) (72, 4.49164152145385742188e+00) (73, 6.85606122016906738281e-01) (74, -1.52957830429077148438e+01) (75, 2.38176122307777404785e-01) (76, 4.57794964313507080078e-01) (77, 2.27034416198730468750e+01) (36, -2.46114802360534667969e+00) (37, -4.52574634552001953125e+00) (38, 4.69194984436035156250e+00) (39, -4.48749065399169921875e-01) (40, 5.23040175437927246094e-01) (41, 3.88527321815490722656e+00) (42, 5.89847087860107421875e+00) (43, 3.70952391624450683594e+00) (44, -4.35033750534057617188e+00) (45, -1.08245158195495605469e+00) (46, -6.67298603057861328125e+00) (47, -1.04396686553955078125e+01) (48, -1.34918761253356933594e+00) (49, -5.53310441970825195312e+00) (50, 6.08116483688354492188e+00) (51, 3.22281265258789062500e+00) (52, 2.08357620239257812500e+01) (53, -8.99299240112304687500e+00) (54, 5.15559625625610351562e+00) (55, -5.05981874465942382812e+00) (56, -6.31667566299438476562e+00) (57, 2.15092048645019531250e+01) (58, -1.21265573501586914062e+01) (59, 1.14192132949829101562e+01) (60, -3.36377739906311035156e+00) (61, 7.01531457901000976562e+00) (62, 3.96567177772521972656e+00) (63, 1.45427551269531250000e+01) (64, -8.75176048278808593750e+00) (65, -3.15158915519714355469e+00) (66, -3.07608366012573242188e+00) (67, 8.27153682708740234375e+00) (68, -3.65690851211547851562e+00) (69, 8.29096317291259765625e+00) (70, -4.66672325134277343750e+00) (71, -4.33521032333374023438e+00) (72, -7.14379262924194335938e+00) (73, -1.04566955566406250000e+01) (74, 8.35218811035156250000e+00) (75, 3.42114472389221191406e+00) (76, -8.65707206726074218750e+00) (77, -9.32537364959716796875e+00) (36, -9.89050209522247314453e-01) (37, -4.15996742248535156250e+00) (38, 1.45661211013793945312e+00) (39, 6.64633703231811523438e+00) (40, 1.27401599884033203125e+01) (41, -6.61518478393554687500e+00) (42, -2.23284473419189453125e+01) (43, 5.22091436386108398438e+00) (44, 4.44496726989746093750e+00) (45, -3.29852409362792968750e+01) (46, 2.60026001930236816406e+00) (47, -7.96241807937622070312e+00) (48, -4.48703098297119140625e+00) (49, 2.93587255477905273438e+00) (50, -5.17105245590209960938e+00) (51, 1.01243000030517578125e+01) (52, 1.57935190200805664062e+01) (53, 4.64201974868774414062e+00) (54, 3.14933061599731445312e+00) (55, 7.20708322525024414062e+00) (56, -1.28559064865112304688e+01) (57, -2.18649554252624511719e+00) (58, 1.75138912200927734375e+01) (59, 2.72596597671508789062e+00) (60, -1.13259639739990234375e+01) (61, 4.50623321533203125000e+00) (62, -1.91884255409240722656e+00) (63, 5.74045419692993164062e+00) (64, 1.20551986694335937500e+01) (65, -1.08831577301025390625e+01) (66, -6.39936208724975585938e+00) (67, 2.61939930915832519531e+00) (68, -5.41566228866577148438e+00) (69, 5.63654947280883789062e+00) (70, -8.25912094116210937500e+00) (71, -5.97792768478393554688e+00) (72, -2.02574682235717773438e+00) (73, -8.62303638458251953125e+00) (74, 3.87148690223693847656e+00) (75, -1.42833433151245117188e+01) (76, 6.02643775939941406250e+00) (77, -1.40425643920898437500e+01) (36, 2.20231933593750000000e+01) (37, -1.05317497253417968750e+01) (38, 5.26749992370605468750e+00) (39, 7.03456401824951171875e-01) (40, 1.18632113933563232422e+00) (41, -8.39801025390625000000e+00) (42, -3.20698451995849609375e+00) (43, -3.74140524864196777344e+00) (44, 3.57174515724182128906e+00) (45, -5.51898908615112304688e+00) (46, -1.36481113433837890625e+01) (47, 1.43458425998687744141e-01) (48, -5.56586742401123046875e+00) (49, 2.20601367950439453125e+00) (50, 1.21032209396362304688e+01) (51, 2.66640663146972656250e+00) (52, 3.16144251823425292969e+00) (53, 1.12235574722290039062e+01) (54, -4.46202135086059570312e+00) (55, 4.36087560653686523438e+00) (56, 2.12501382827758789062e+00) (57, 3.14522528648376464844e+00) (58, -3.54903173446655273438e+00) (59, 2.49289264678955078125e+01) (60, -4.60133314132690429688e+00) (61, -1.17892491817474365234e+00) (62, 5.64691019058227539062e+00) (63, -1.35120785236358642578e+00) (64, 3.04463939666748046875e+01) (65, -2.44442701339721679688e+00) (66, -1.04324426651000976562e+01) (67, -7.06618165969848632812e+00) (68, -7.10095357894897460938e+00) (69, 6.26898813247680664062e+00) (70, -1.00345535278320312500e+01) (71, 1.78541793823242187500e+01) (72, -5.05938673019409179688e+00) (73, -8.83314013481140136719e-01) (74, -4.85860300064086914062e+00) (75, 1.68755111694335937500e+01) (76, 9.20061874389648437500e+00) (77, -2.12432613372802734375e+01) (36, 2.47329735755920410156e+00) (37, -1.88044261932373046875e+00) (38, 5.16543912887573242188e+00) (39, 4.78237390518188476562e+00) (40, 1.88341632485389709473e-01) (41, -3.62986087799072265625e+00) (42, 9.09168422222137451172e-01) (43, 2.28015708923339843750e+00) (44, -1.54556787014007568359e+00) (45, 5.32354116439819335938e+00) (46, -3.69852423667907714844e+00) (47, 9.14392757415771484375e+00) (48, 4.28457403182983398438e+00) (49, 1.33593654632568359375e+01) (50, -2.36875700950622558594e+00) (51, 1.57337541580200195312e+01) (52, -7.84582376480102539062e+00) (53, 1.00086822509765625000e+01) (54, -5.78158140182495117188e+00) (55, -1.87714970111846923828e+00) (56, -4.31566208600997924805e-01) (57, 7.61299657821655273438e+00) (58, -4.50107336044311523438e+00) (59, -2.03933537006378173828e-01) (60, 7.72290563583374023438e+00) (61, 2.12134435772895812988e-01) (62, 4.53341197967529296875e+00) (63, -1.57591533660888671875e+00) (64, 3.19265580177307128906e+00) (65, 6.94366025924682617188e+00) (66, -1.21298522949218750000e+01) (67, -1.01779699325561523438e+01) (68, -1.76012058258056640625e+01) (69, 1.61040191650390625000e+01) (70, -1.86814236640930175781e+00) (71, 5.51116323471069335938e+00) (72, 5.52565492689609527588e-02) (73, 1.26369786262512207031e+00) (74, 8.85026454925537109375e+00) (75, 3.02404522895812988281e-01) (76, -5.86499595642089843750e+00) (77, -2.37900962829589843750e+01) (36, 3.57552623748779296875e+00) (37, -9.41191196441650390625e+00) (38, -9.12996387481689453125e+00) (39, -1.27777585983276367188e+01) (40, -4.95026016235351562500e+00) (41, -4.99415731430053710938e+00) (42, 4.50787210464477539062e+00) (43, -8.86705970764160156250e+00) (44, 7.73976230621337890625e+00) (45, 7.78526973724365234375e+00) (46, -7.37022161483764648438e+00) (47, 3.50072836875915527344e+00) (48, -7.33818864822387695312e+00) (49, -1.39682416915893554688e+01) (50, -4.53538131713867187500e+00) (51, 1.33779138326644897461e-01) (52, -3.89147162437438964844e+00) (53, -3.45322608947753906250e+00) (54, 3.21934437751770019531e+00) (55, -4.25956010818481445312e+00) (56, 1.53672981262207031250e+01) (57, 4.71849536895751953125e+00) (58, -3.54800891876220703125e+00) (59, 9.59819507598876953125e+00) (60, 1.74116683006286621094e+00) (61, -5.11754608154296875000e+00) (62, 4.34329366683959960938e+00) (63, -3.33291673660278320312e+00) (64, 1.12429494857788085938e+01) (65, 3.46777486801147460938e+00) (66, -7.80268287658691406250e+00) (67, -6.68178367614746093750e+00) (68, -2.91725277900695800781e+00) (69, 8.42035353183746337891e-01) (70, 3.63106441497802734375e+00) (71, 3.03755998611450195312e+00) (72, -5.64700937271118164062e+00) (73, -8.26845073699951171875e+00) (74, -1.17060308456420898438e+01) (75, -7.43645572662353515625e+00) (76, 2.98518717288970947266e-01) (77, 9.83724308013916015625e+00) (36, -4.43378305435180664062e+00) (37, -2.15214896202087402344e+00) (38, 2.63059663772583007812e+00) (39, -9.73316097259521484375e+00) (40, 1.09232072830200195312e+01) (41, -8.58065605163574218750e-01) (42, 5.44916689395904541016e-01) (43, 3.67576837539672851562e+00) (44, 1.64652419090270996094e+00) (45, -4.99376356601715087891e-01) (46, -6.02090692520141601562e+00) (47, 9.13794803619384765625e+00) (48, -5.03104972839355468750e+00) (49, 7.50694608688354492188e+00) (50, -1.07425069808959960938e+01) (51, 8.23643302917480468750e+00) (52, 8.84530544281005859375e+00) (53, 1.11522073745727539062e+01) (54, -8.48139286041259765625e+00) (55, -1.68829321861267089844e+00) (56, -2.08532409667968750000e+01) (57, -4.75142478942871093750e+00) (58, -4.80168008804321289062e+00) (59, 7.54402065277099609375e+00) (60, -2.39046335220336914062e+00) (61, -1.24989337921142578125e+01) (62, -8.50835800170898437500e+00) (63, -3.38743853569030761719e+00) (64, 8.16336822509765625000e+00) (65, -6.22700452804565429688e+00) (66, 3.05363845825195312500e+00) (67, 8.84313488006591796875e+00) (68, -2.51052665710449218750e+00) (69, -4.23921775817871093750e+00) (70, -5.51421737670898437500e+00) (71, -1.01725559234619140625e+01) (72, 5.96332550048828125000e-01) (73, 3.86826181411743164062e+00) (74, -8.14482021331787109375e+00) (75, 6.07771492004394531250e+00) (76, 6.13996601104736328125e+00) (77, 3.55568623542785644531e+00) (36, 2.62786078453063964844e+00) (37, 8.72392654418945312500e+00) (38, 1.03290643692016601562e+01) (39, -4.76593780517578125000e+00) (40, 2.81063079833984375000e+00) (41, -6.83513164520263671875e+00) (42, -5.82550716400146484375e+00) (43, -1.63409411907196044922e-02) (44, -1.22462615966796875000e+01) (45, -4.84860754013061523438e+00) (46, 1.91235218048095703125e+01) (47, -4.52252244949340820312e+00) (48, 6.90804672241210937500e+00) (49, 3.07055020332336425781e+00) (50, -1.05785102844238281250e+01) (51, -1.05149662494659423828e+00) (52, 1.69903564453125000000e+01) (53, 1.48356580734252929688e+01) (54, 1.89055862426757812500e+01) (55, -2.25354790687561035156e+00) (56, -6.23498058319091796875e+00) (57, 1.90304863452911376953e+00) (58, 9.81691932678222656250e+00) (59, -4.30157470703125000000e+00) (60, 4.96316146850585937500e+00) (61, -5.65881073474884033203e-01) (62, -2.40054082870483398438e+00) (63, 7.37572002410888671875e+00) (64, 1.10297565460205078125e+01) (65, 8.79863262176513671875e-01) (66, -1.76825485229492187500e+01) (67, -2.89009428024291992188e+00) (68, -1.58715200424194335938e+00) (69, -4.38051491975784301758e-01) (70, -8.27757167816162109375e+00) (71, 1.06059331893920898438e+01) (72, 7.71495580673217773438e+00) (73, 7.99974739551544189453e-01) (74, -4.59565782546997070312e+00) (75, -6.94446742534637451172e-01) (76, -1.12700576782226562500e+01) (77, 4.67959117889404296875e+00) (36, -4.72010284662246704102e-01) (37, -2.40511584281921386719e+00) (38, 6.02745115756988525391e-01) (39, -1.20473728179931640625e+01) (40, -5.82454776763916015625e+00) (41, -2.75249719619750976562e-01) (42, 6.90528726577758789062e+00) (43, -6.15157794952392578125e+00) (44, -8.16530704498291015625e+00) (45, 4.44438457489013671875e+00) (46, 8.89838027954101562500e+00) (47, -1.10549068450927734375e+01) (48, -1.09736022949218750000e+01) (49, -1.12093849182128906250e+01) (50, 6.83227252960205078125e+00) (51, 7.03457498550415039062e+00) (52, 3.39738965034484863281e-01) (53, 8.96669626235961914062e-01) (54, 3.91254329681396484375e+00) (55, -4.38898515701293945312e+00) (56, -5.24223136901855468750e+00) (57, -1.48285541534423828125e+01) (58, -1.49954986572265625000e+01) (59, -1.71503963470458984375e+01) (60, 1.71868667602539062500e+01) (61, -1.03903541564941406250e+01) (62, -6.91585397720336914062e+00) (63, 1.26435585021972656250e+01) (64, -2.49199752807617187500e+01) (65, 4.76782846450805664062e+00) (66, -1.29444718360900878906e+00) (67, -7.72140502929687500000e+00) (68, 3.45815205574035644531e+00) (69, -3.96149635314941406250e+00) (70, 1.66861228942871093750e+01) (71, -1.72957878112792968750e+01) (72, 1.48356759548187255859e+00) (73, -5.21414279937744140625e+00) (74, -3.42427864074707031250e+01) (75, 9.67536270618438720703e-01) (76, 1.97779960632324218750e+01) (77, 1.17176513671875000000e+01) (36, 7.21613109111785888672e-01) (37, -2.63113951683044433594e+00) (38, 5.96372413635253906250e+00) (39, 6.09548139572143554688e+00) (40, 2.19366765022277832031e+00) (41, -1.13218898773193359375e+01) (42, -3.77828073501586914062e+00) (43, 5.62553739547729492188e+00) (44, 6.86930465698242187500e+00) (45, -1.50778789520263671875e+01) (46, 4.69385147094726562500e+00) (47, 6.72555065155029296875e+00) (48, -2.61651349067687988281e+00) (49, 1.70462608337402343750e+00) (50, -4.47570562362670898438e+00) (51, 1.55511789321899414062e+01) (52, -5.90061950683593750000e+00) (53, -2.67694462090730667114e-02) (54, 5.85979580879211425781e-01) (55, -2.66697138547897338867e-01) (56, -2.22944965362548828125e+01) (57, 6.92659282684326171875e+00) (58, 2.08664417266845703125e+01) (59, 1.37785196304321289062e+00) (60, 2.21696329116821289062e+00) (61, -8.88736724853515625000e+00) (62, -6.81043720245361328125e+00) (63, -5.46644449234008789062e+00) (64, 3.64058589935302734375e+00) (65, -4.07379722595214843750e+00) (66, -1.25391445159912109375e+01) (67, -1.12747926712036132812e+01) (68, -1.46827659606933593750e+01) (69, 1.44029693603515625000e+01) (70, -2.82850909233093261719e+00) (71, -5.30787372589111328125e+00) (72, -5.15020036697387695312e+00) (73, 3.38126277923583984375e+00) (74, -4.35883140563964843750e+00) (75, -8.30626010894775390625e-01) (76, 5.16424179077148437500e+00) (77, 8.83577525615692138672e-01) (36, -2.42069172859191894531e+00) (37, 8.71637105941772460938e-01) (38, -6.76341009140014648438e+00) (39, -8.13909816741943359375e+00) (40, 1.28699302673339843750e+00) (41, -2.79474496841430664062e-01) (42, -6.03842401504516601562e+00) (43, 1.80841088294982910156e+00) (44, -5.32998943328857421875e+00) (45, 5.71091699600219726562e+00) (46, 1.15397024154663085938e+00) (47, 7.16804027557373046875e+00) (48, 7.00354814529418945312e-01) (49, -6.03784799575805664062e+00) (50, 7.34423017501831054688e+00) (51, 5.30770587921142578125e+00) (52, 5.43374490737915039062e+00) (53, -8.16892433166503906250e+00) (54, -2.65426325798034667969e+00) (55, -1.14972515106201171875e+01) (56, -4.43435001373291015625e+00) (57, 3.74202060699462890625e+00) (58, 3.86286330223083496094e+00) (59, 1.54907619953155517578e+00) (60, 6.52797842025756835938e+00) (61, -1.38996829986572265625e+01) (62, 1.98190855979919433594e+00) (63, -1.25662031173706054688e+01) (64, -1.31294889450073242188e+01) (65, 9.91652202606201171875e+00) (66, 1.62364616394042968750e+01) (67, -7.38295841217041015625e+00) (68, -5.73009550571441650391e-01) (69, -6.86510038375854492188e+00) (70, 3.85743856430053710938e+00) (71, 1.17288379669189453125e+01) (72, 1.12268161773681640625e+01) (73, 8.55149555206298828125e+00) (74, -1.07843894958496093750e+01) (75, -1.01665258407592773438e+00) (76, -1.34378395080566406250e+01) (77, 2.14541625976562500000e+01) (36, -1.85402381420135498047e+00) (37, -6.84639263153076171875e+00) (38, -1.49774098396301269531e+00) (39, -2.88937401771545410156e+00) (40, -1.93793046474456787109e+00) (41, 