FANN_FLO_2.1
num_layers=6
learning_rate=0.010000
connection_rate=1.000000
network_type=0
learning_momentum=0.900000
training_algorithm=0
train_error_function=1
train_stop_function=0
cascade_output_change_fraction=0.010000
quickprop_decay=-0.000100
quickprop_mu=1.750000
rprop_increase_factor=1.200000
rprop_decrease_factor=0.500000
rprop_delta_min=0.000000
rprop_delta_max=50.000000
rprop_delta_zero=0.100000
cascade_output_stagnation_epochs=12
cascade_candidate_change_fraction=0.010000
cascade_candidate_stagnation_epochs=12
cascade_max_out_epochs=150
cascade_min_out_epochs=50
cascade_max_cand_epochs=150
cascade_min_cand_epochs=50
cascade_num_candidate_groups=2
bit_fail_limit=3.49999994039535522461e-01
cascade_candidate_limit=1.00000000000000000000e+03
cascade_weight_multiplier=4.00000005960464477539e-01
cascade_activation_functions_count=10
cascade_activation_functions=3 5 7 8 10 11 14 15 16 17 
cascade_activation_steepnesses_count=4
cascade_activation_steepnesses=2.50000000000000000000e-01 5.00000000000000000000e-01 7.50000000000000000000e-01 1.00000000000000000000e+00 
layer_sizes=31 51 61 61 106 2 
scale_included=0
neurons (num_inputs, activation_function, activation_steepness)=(0, 0, 0.00000000000000000000e+00) (0, 0, 0.00000000000000000000e+00) (0, 0, 0.00000000000000000000e+00) (0, 0, 0.00000000000000000000e+00) (0, 0, 0.00000000000000000000e+00) (0, 0, 0.00000000000000000000e+00) (0, 0, 0.00000000000000000000e+00) (0, 0, 0.00000000000000000000e+00) (0, 0, 0.00000000000000000000e+00) (0, 0, 0.00000000000000000000e+00) (0, 0, 0.00000000000000000000e+00) (0, 0, 0.00000000000000000000e+00) (0, 0, 0.00000000000000000000e+00) (0, 0, 0.00000000000000000000e+00) (0, 0, 0.00000000000000000000e+00) (0, 0, 0.00000000000000000000e+00) (0, 0, 0.00000000000000000000e+00) (0, 0, 0.00000000000000000000e+00) (0, 0, 0.00000000000000000000e+00) (0, 0, 0.00000000000000000000e+00) (0, 0, 0.00000000000000000000e+00) (0, 0, 0.00000000000000000000e+00) (0, 0, 0.00000000000000000000e+00) (0, 0, 0.00000000000000000000e+00) (0, 0, 0.00000000000000000000e+00) (0, 0, 0.00000000000000000000e+00) (0, 0, 0.00000000000000000000e+00) (0, 0, 0.00000000000000000000e+00) (0, 0, 0.00000000000000000000e+00) (0, 0, 0.00000000000000000000e+00) (0, 0, 0.00000000000000000000e+00) (31, 5, 5.00000000000000000000e-01) (31, 5, 5.00000000000000000000e-01) (31, 5, 5.00000000000000000000e-01) (31, 5, 5.00000000000000000000e-01) (31, 5, 5.00000000000000000000e-01) (31, 5, 5.00000000000000000000e-01) (31, 5, 5.00000000000000000000e-01) (31, 5, 5.00000000000000000000e-01) (31, 5, 5.00000000000000000000e-01) (31, 5, 5.00000000000000000000e-01) (31, 5, 5.00000000000000000000e-01) (31, 5, 5.00000000000000000000e-01) (31, 5, 5.00000000000000000000e-01) (31, 5, 5.00000000000000000000e-01) (31, 5, 5.00000000000000000000e-01) (31, 5, 5.00000000000000000000e-01) (31, 5, 5.00000000000000000000e-01) (31, 5, 5.00000000000000000000e-01) (31, 5, 5.00000000000000000000e-01) (31, 5, 5.00000000000000000000e-01) (31, 5, 5.00000000000000000000e-01) (31, 5, 5.00000000000000000000e-01) (31, 5, 5.00000000000000000000e-01) (31, 5, 5.00000000000000000000e-01) (31, 5, 5.00000000000000000000e-01) (31, 5, 5.00000000000000000000e-01) (31, 5, 5.00000000000000000000e-01) (31, 5, 5.00000000000000000000e-01) (31, 5, 5.00000000000000000000e-01) (31, 5, 5.00000000000000000000e-01) (31, 5, 5.00000000000000000000e-01) (31, 5, 5.00000000000000000000e-01) (31, 5, 5.00000000000000000000e-01) (31, 5, 5.00000000000000000000e-01) (31, 5, 5.00000000000000000000e-01) (31, 5, 5.00000000000000000000e-01) (31, 5, 5.00000000000000000000e-01) (31, 5, 5.00000000000000000000e-01) (31, 5, 5.00000000000000000000e-01) (31, 5, 5.00000000000000000000e-01) (31, 5, 5.00000000000000000000e-01) (31, 5, 5.00000000000000000000e-01) (31, 5, 5.00000000000000000000e-01) (31, 5, 5.00000000000000000000e-01) (31, 5, 5.00000000000000000000e-01) (31, 5, 5.00000000000000000000e-01) (31, 5, 5.00000000000000000000e-01) (31, 5, 5.00000000000000000000e-01) (31, 5, 5.00000000000000000000e-01) (31, 5, 5.00000000000000000000e-01) (0, 5, 0.00000000000000000000e+00) (51, 5, 5.00000000000000000000e-01) (51, 5, 5.00000000000000000000e-01) (51, 5, 5.00000000000000000000e-01) (51, 5, 5.00000000000000000000e-01) (51, 5, 5.00000000000000000000e-01) (51, 5, 5.00000000000000000000e-01) (51, 5, 5.00000000000000000000e-01) (51, 5, 5.00000000000000000000e-01) (51, 5, 5.00000000000000000000e-01) (51, 5, 5.00000000000000000000e-01) (51, 5, 5.00000000000000000000e-01) (51, 5, 5.00000000000000000000e-01) (51, 5, 5.00000000000000000000e-01) (51, 5, 5.00000000000000000000e-01) (51, 5, 5.00000000000000000000e-01) (51, 5, 5.00000000000000000000e-01) (51, 5, 5.00000000000000000000e-01) (51, 5, 5.00000000000000000000e-01) (51, 5, 5.00000000000000000000e-01) (51, 5, 5.00000000000000000000e-01) (51, 5, 5.00000000000000000000e-01) (51, 5, 5.00000000000000000000e-01) (51, 5, 5.00000000000000000000e-01) (51, 5, 5.00000000000000000000e-01) (51, 5, 5.00000000000000000000e-01) (51, 5, 5.00000000000000000000e-01) (51, 5, 5.00000000000000000000e-01) (51, 5, 5.00000000000000000000e-01) (51, 5, 5.00000000000000000000e-01) (51, 5, 5.00000000000000000000e-01) (51, 5, 5.00000000000000000000e-01) (51, 5, 5.00000000000000000000e-01) (51, 5, 5.00000000000000000000e-01) (51, 5, 5.00000000000000000000e-01) (51, 5, 5.00000000000000000000e-01) (51, 5, 5.00000000000000000000e-01) (51, 5, 5.00000000000000000000e-01) (51, 5, 5.00000000000000000000e-01) (51, 5, 5.00000000000000000000e-01) (51, 5, 5.00000000000000000000e-01) (51, 5, 5.00000000000000000000e-01) (51, 5, 5.00000000000000000000e-01) (51, 5, 5.00000000000000000000e-01) (51, 5, 5.00000000000000000000e-01) (51, 5, 5.00000000000000000000e-01) (51, 5, 5.00000000000000000000e-01) (51, 5, 5.00000000000000000000e-01) (51, 5, 5.00000000000000000000e-01) (51, 5, 5.00000000000000000000e-01) (51, 5, 5.00000000000000000000e-01) (51, 5, 5.00000000000000000000e-01) (51, 5, 5.00000000000000000000e-01) (51, 5, 5.00000000000000000000e-01) (51, 5, 5.00000000000000000000e-01) (51, 5, 5.00000000000000000000e-01) (51, 5, 5.00000000000000000000e-01) (51, 5, 5.00000000000000000000e-01) (51, 5, 5.00000000000000000000e-01) (51, 5, 5.00000000000000000000e-01) (51, 5, 5.00000000000000000000e-01) (0, 5, 0.00000000000000000000e+00) (61, 5, 5.00000000000000000000e-01) (61, 5, 5.00000000000000000000e-01) (61, 5, 5.00000000000000000000e-01) (61, 5, 5.00000000000000000000e-01) (61, 5, 5.00000000000000000000e-01) (61, 5, 5.00000000000000000000e-01) (61, 5, 5.00000000000000000000e-01) (61, 5, 5.00000000000000000000e-01) (61, 5, 5.00000000000000000000e-01) (61, 5, 5.00000000000000000000e-01) (61, 5, 5.00000000000000000000e-01) (61, 5, 5.00000000000000000000e-01) (61, 5, 5.00000000000000000000e-01) (61, 5, 5.00000000000000000000e-01) (61, 5, 5.00000000000000000000e-01) (61, 5, 5.00000000000000000000e-01) (61, 5, 5.00000000000000000000e-01) (61, 5, 5.00000000000000000000e-01) (61, 5, 5.00000000000000000000e-01) (61, 5, 5.00000000000000000000e-01) (61, 5, 5.00000000000000000000e-01) (61, 5, 5.00000000000000000000e-01) (61, 5, 5.00000000000000000000e-01) (61, 5, 5.00000000000000000000e-01) (61, 5, 5.00000000000000000000e-01) (61, 5, 5.00000000000000000000e-01) (61, 5, 5.00000000000000000000e-01) (61, 5, 5.00000000000000000000e-01) (61, 5, 5.00000000000000000000e-01) (61, 5, 5.00000000000000000000e-01) (61, 5, 5.00000000000000000000e-01) (61, 5, 5.00000000000000000000e-01) (61, 5, 5.00000000000000000000e-01) (61, 5, 5.00000000000000000000e-01) (61, 5, 5.00000000000000000000e-01) (61, 5, 5.00000000000000000000e-01) (61, 5, 5.00000000000000000000e-01) (61, 5, 5.00000000000000000000e-01) (61, 5, 5.00000000000000000000e-01) (61, 5, 5.00000000000000000000e-01) (61, 5, 5.00000000000000000000e-01) (61, 5, 5.00000000000000000000e-01) (61, 5, 5.00000000000000000000e-01) (61, 5, 5.00000000000000000000e-01) (61, 5, 5.00000000000000000000e-01) (61, 5, 5.00000000000000000000e-01) (61, 5, 5.00000000000000000000e-01) (61, 5, 5.00000000000000000000e-01) (61, 5, 5.00000000000000000000e-01) (61, 5, 5.00000000000000000000e-01) (61, 5, 5.00000000000000000000e-01) (61, 5, 5.00000000000000000000e-01) (61, 5, 5.00000000000000000000e-01) (61, 5, 5.00000000000000000000e-01) (61, 5, 5.00000000000000000000e-01) (61, 5, 5.00000000000000000000e-01) (61, 5, 5.00000000000000000000e-01) (61, 5, 5.00000000000000000000e-01) (61, 5, 5.00000000000000000000e-01) (61, 5, 5.00000000000000000000e-01) (0, 5, 0.00000000000000000000e+00) (61, 5, 5.00000000000000000000e-01) (61, 5, 5.00000000000000000000e-01) (61, 5, 5.00000000000000000000e-01) (61, 5, 5.00000000000000000000e-01) (61, 5, 5.00000000000000000000e-01) (61, 5, 5.00000000000000000000e-01) (61, 5, 5.00000000000000000000e-01) (61, 5, 5.00000000000000000000e-01) (61, 5, 5.00000000000000000000e-01) (61, 5, 5.00000000000000000000e-01) (61, 5, 5.00000000000000000000e-01) (61, 5, 5.00000000000000000000e-01) (61, 5, 5.00000000000000000000e-01) (61, 5, 5.00000000000000000000e-01) (61, 5, 5.00000000000000000000e-01) (61, 5, 5.00000000000000000000e-01) (61, 5, 5.00000000000000000000e-01) (61, 5, 5.00000000000000000000e-01) (61, 5, 5.00000000000000000000e-01) (61, 5, 5.00000000000000000000e-01) (61, 5, 5.00000000000000000000e-01) (61, 5, 5.00000000000000000000e-01) (61, 5, 5.00000000000000000000e-01) (61, 5, 5.00000000000000000000e-01) (61, 5, 5.00000000000000000000e-01) (61, 5, 5.00000000000000000000e-01) (61, 5, 5.00000000000000000000e-01) (61, 5, 5.00000000000000000000e-01) (61, 5, 5.00000000000000000000e-01) (61, 5, 5.00000000000000000000e-01) (61, 5, 5.00000000000000000000e-01) (61, 5, 5.00000000000000000000e-01) (61, 5, 5.00000000000000000000e-01) (61, 5, 5.00000000000000000000e-01) (61, 5, 5.00000000000000000000e-01) (61, 5, 5.00000000000000000000e-01) (61, 5, 5.00000000000000000000e-01) (61, 5, 5.00000000000000000000e-01) (61, 5, 5.00000000000000000000e-01) (61, 5, 5.00000000000000000000e-01) (61, 5, 5.00000000000000000000e-01) (61, 5, 5.00000000000000000000e-01) (61, 5, 5.00000000000000000000e-01) (61, 5, 5.00000000000000000000e-01) (61, 5, 5.00000000000000000000e-01) (61, 5, 5.00000000000000000000e-01) (61, 5, 5.00000000000000000000e-01) (61, 5, 5.00000000000000000000e-01) (61, 5, 5.00000000000000000000e-01) (61, 5, 5.00000000000000000000e-01) (61, 5, 5.00000000000000000000e-01) (61, 5, 5.00000000000000000000e-01) (61, 5, 5.00000000000000000000e-01) (61, 5, 5.00000000000000000000e-01) (61, 5, 5.00000000000000000000e-01) (61, 5, 5.00000000000000000000e-01) (61, 5, 5.00000000000000000000e-01) (61, 5, 5.00000000000000000000e-01) (61, 5, 5.00000000000000000000e-01) (61, 5, 5.00000000000000000000e-01) (61, 5, 5.00000000000000000000e-01) (61, 5, 5.00000000000000000000e-01) (61, 5, 5.00000000000000000000e-01) (61, 5, 5.00000000000000000000e-01) (61, 5, 5.00000000000000000000e-01) (61, 5, 5.00000000000000000000e-01) (61, 5, 5.00000000000000000000e-01) (61, 5, 5.00000000000000000000e-01) (61, 5, 5.00000000000000000000e-01) (61, 5, 5.00000000000000000000e-01) (61, 5, 5.00000000000000000000e-01) (61, 5, 5.00000000000000000000e-01) (61, 5, 5.00000000000000000000e-01) (61, 5, 5.00000000000000000000e-01) (61, 5, 5.00000000000000000000e-01) (61, 5, 5.00000000000000000000e-01) (61, 5, 5.00000000000000000000e-01) (61, 5, 5.00000000000000000000e-01) (61, 5, 5.00000000000000000000e-01) (61, 5, 5.00000000000000000000e-01) (61, 5, 5.00000000000000000000e-01) (61, 5, 5.00000000000000000000e-01) (61, 5, 5.00000000000000000000e-01) (61, 5, 5.00000000000000000000e-01) (61, 5, 5.00000000000000000000e-01) (61, 5, 5.00000000000000000000e-01) (61, 5, 5.00000000000000000000e-01) (61, 5, 5.00000000000000000000e-01) (61, 5, 5.00000000000000000000e-01) (61, 5, 5.00000000000000000000e-01) (61, 5, 5.00000000000000000000e-01) (61, 5, 5.00000000000000000000e-01) (61, 5, 5.00000000000000000000e-01) (61, 5, 5.00000000000000000000e-01) (61, 5, 5.00000000000000000000e-01) (61, 5, 5.00000000000000000000e-01) (61, 5, 5.00000000000000000000e-01) (61, 5, 5.00000000000000000000e-01) (61, 5, 5.00000000000000000000e-01) (61, 5, 5.00000000000000000000e-01) (61, 5, 5.00000000000000000000e-01) (61, 5, 5.00000000000000000000e-01) (61, 5, 5.00000000000000000000e-01) (61, 5, 5.00000000000000000000e-01) (61, 5, 5.00000000000000000000e-01) (0, 5, 0.00000000000000000000e+00) (106, 5, 5.00000000000000000000e-01) (0, 5, 0.00000000000000000000e+00) 
connections (connected_to_neuron, weight)=(0, 2.86070728302001953125e+00) (1, -3.53926110267639160156e+00) (2, -1.22105371952056884766e+00) (3, 7.53077268600463867188e-01) (4, 9.35748004913330078125e+00) (5, 4.67815685272216796875e+00) (6, -1.48178329467773437500e+01) (7, 2.83780708312988281250e+01) (8, -1.04016819000244140625e+01) (9, -5.86767148971557617188e+00) (10, 5.69016933441162109375e-01) (11, -2.60619044303894042969e+00) (12, 4.04465675354003906250e+00) (13, 1.79057443141937255859e+00) (14, 1.76780045032501220703e+00) (15, -8.76703548431396484375e+00) (16, -1.32072734832763671875e+00) (17, 1.08158838748931884766e+00) (18, -3.23304504156112670898e-01) (19, -2.73989647626876831055e-01) (20, 1.10336935520172119141e+00) (21, 2.15703338384628295898e-01) (22, -4.19037908315658569336e-01) (23, 8.20833981037139892578e-01) (24, 4.99213665723800659180e-01) (25, 2.99199312925338745117e-01) (26, -1.16451494395732879639e-01) (27, 9.42300200462341308594e-01) (28, 4.34894829988479614258e-01) (29, 1.00355613231658935547e+00) (30, -2.88970565795898437500e+01) (0, 1.68449327349662780762e-01) (1, -4.97327880859375000000e+01) (2, -1.00947570800781250000e+00) (3, 5.19695043563842773438e-01) (4, -2.37566161155700683594e+00) (5, -4.84859704971313476562e+00) (6, -5.45118212699890136719e-01) (7, -1.42258271574974060059e-01) (8, -3.78537559509277343750e+00) (9, 2.95903950929641723633e-01) (10, 8.56491804122924804688e-01) (11, 3.24176902770996093750e+01) (12, -1.14233732223510742188e+01) (13, -1.36823873519897460938e+01) (14, 3.35250449180603027344e+00) (15, -1.33368263244628906250e+01) (16, -3.11545920372009277344e+00) (17, -2.05874156951904296875e+00) (18, 7.60653093457221984863e-02) (19, -3.50610315799713134766e-01) (20, 8.69593918323516845703e-01) (21, -1.23074777424335479736e-01) (22, 8.56387615203857421875e-02) (23, 8.50099861621856689453e-01) (24, 8.72435629367828369141e-01) (25, 1.06618285179138183594e+00) (26, 5.64040482044219970703e-01) (27, 4.38558727502822875977e-01) (28, 1.04913330078125000000e+00) (29, 9.95027959346771240234e-01) (30, -2.91553020477294921875e+01) (0, -3.04134297370910644531e+00) (1, 1.29861497879028320312e+01) (2, 6.34892606735229492188e+00) (3, -4.35210113525390625000e+01) (4, 9.04227972030639648438e-01) (5, 9.10997509956359863281e-01) (6, -4.14292287826538085938e+00) (7, 7.59278821945190429688e+00) (8, -3.69749665260314941406e+00) (9, 1.38990998268127441406e-01) (10, -1.85476553440093994141e+00) (11, -5.16254043579101562500e+00) (12, -4.37898492813110351562e+00) (13, 9.41337585449218750000e-01) (14, 4.18298292160034179688e+00) (15, -3.82167667150497436523e-01) (16, -3.92745399475097656250e+00) (17, -1.59710741043090820312e+00) (18, -1.19131863117218017578e+00) (19, 1.26762941479682922363e-01) (20, -6.84703409671783447266e-01) (21, -1.08067023754119873047e+00) (22, -2.05761814117431640625e+00) (23, -1.01036906242370605469e+00) (24, -9.29541051387786865234e-01) (25, -7.94499874114990234375e-01) (26, -1.27116250991821289062e+00) (27, -1.36162161827087402344e+00) (28, -9.40849959850311279297e-01) (29, -1.43142616748809814453e+00) (30, 8.12225437164306640625e+00) (0, 6.38606262207031250000e+00) (1, -4.91804790496826171875e+00) (2, 1.64508190155029296875e+01) (3, -5.54197978973388671875e+00) (4, -5.52872800827026367188e+00) (5, 6.55804300308227539062e+00) (6, -2.87158393859863281250e+00) (7, -2.32426929473876953125e+00) (8, -1.61339244842529296875e+01) (9, 6.34638786315917968750e+00) (10, -5.00880908966064453125e+00) (11, 5.86935710906982421875e+00) (12, -7.75930833816528320312e+00) (13, -3.23527121543884277344e+00) (14, 9.40293967723846435547e-01) (15, 2.58897566795349121094e+00) (16, -2.52828657627105712891e-01) (17, 1.19829833507537841797e+00) (18, -4.11939173936843872070e-02) (19, 8.25998485088348388672e-01) (20, 5.88449358940124511719e-01) (21, 3.18836390972137451172e-01) (22, -3.32282006740570068359e-01) (23, 1.81847631931304931641e-01) (24, -2.24332556128501892090e-01) (25, -1.91140502691268920898e-01) (26, 4.96735632419586181641e-01) (27, -1.23911783099174499512e-01) (28, 1.14904001355171203613e-01) (29, -1.30471974611282348633e-01) (30, 7.73437976837158203125e+00) (0, 8.93830680847167968750e+00) (1, -4.44930362701416015625e+00) (2, -1.84058582782745361328e+00) (3, -1.01947565078735351562e+01) (4, 1.12893342971801757812e+01) (5, -2.76790962219238281250e+01) (6, 2.85971164703369140625e+01) (7, -8.37041187286376953125e+00) (8, 6.63484954833984375000e+00) (9, -4.70348089933395385742e-01) (10, -8.47197723388671875000e+00) (11, 2.85408711433410644531e+00) (12, -3.09778547286987304688e+00) (13, -7.47512042522430419922e-01) (14, -2.81566929817199707031e+00) (15, -5.39738845825195312500e+00) (16, 2.83151769638061523438e+00) (17, -6.80572986602783203125e-01) (18, -3.50628286600112915039e-01) (19, -8.63237261772155761719e-01) (20, -1.15161621570587158203e+00) (21, 6.92382231354713439941e-02) (22, 3.17463427782058715820e-01) (23, 7.91537165641784667969e-02) (24, 1.32565116882324218750e+00) (25, 1.21869623661041259766e+00) (26, 1.04966509342193603516e+00) (27, 4.46827799081802368164e-01) (28, 1.50825834274291992188e+00) (29, 1.08256840705871582031e+00) (30, -2.16183872222900390625e+01) (0, -6.69981956481933593750e+00) (1, -2.73363542556762695312e+00) (2, 1.28122863769531250000e+01) (3, -1.01710486412048339844e+00) (4, -4.91776514053344726562e+00) (5, 6.13600635528564453125e+00) (6, -5.90086793899536132812e+00) (7, -9.23938941955566406250e+00) (8, 3.17908096313476562500e+00) (9, -1.07151973247528076172e+00) (10, -1.18575649261474609375e+01) (11, 4.76658678054809570312e+00) (12, -1.21495304107666015625e+01) (13, -1.10759277343750000000e+01) (14, 1.89403176307678222656e+00) (15, -3.33392888307571411133e-01) (16, -1.54888164997100830078e+00) (17, 1.90971896052360534668e-01) (18, -6.72209203243255615234e-01) (19, -3.21751922369003295898e-01) (20, -6.56881093978881835938e-01) (21, 2.87355512380599975586e-01) (22, 2.42991633713245391846e-02) (23, 3.07578802108764648438e-01) (24, 1.60649135708808898926e-01) (25, 7.68967196345329284668e-02) (26, -2.76476055383682250977e-01) (27, -6.17001838982105255127e-02) (28, -7.31913000345230102539e-02) (29, -1.24610915780067443848e-01) (30, 9.25190210342407226562e-01) (0, -5.46821057796478271484e-01) (1, -2.75676101446151733398e-01) (2, 2.97688007354736328125e-01) (3, -2.05621138215065002441e-01) (4, -2.34224033355712890625e+00) (5, -4.85282421112060546875e-01) (6, -7.07250261306762695312e+00) (7, 2.30004272460937500000e+01) (8, -2.12576866149902343750e+01) (9, -1.73882484436035156250e+01) (10, -6.69445371627807617188e+00) (11, 5.56023073196411132812e+00) (12, -1.66359770298004150391e+00) (13, -9.86645698547363281250e+00) (14, 5.01449441909790039062e+00) (15, 3.14650650024414062500e+01) (16, 1.52354307174682617188e+01) (17, 6.03634977340698242188e+00) (18, 8.48430633544921875000e+00) (19, 8.23038768768310546875e+00) (20, 5.30278015136718750000e+00) (21, 5.65373897552490234375e+00) (22, 3.26785182952880859375e+00) (23, 4.46283054351806640625e+00) (24, 3.69160652160644531250e+00) (25, 2.56422734260559082031e+00) (26, 2.53116011619567871094e+00) (27, 2.28735494613647460938e+00) (28, 3.08556103706359863281e+00) (29, 2.08414649963378906250e+00) (30, 9.10663223266601562500e+00) (0, -1.29363679885864257812e+01) (1, -1.19382596015930175781e+00) (2, 1.16432881355285644531e+00) (3, 9.09020709991455078125e+00) (4, 1.13055362701416015625e+01) (5, 6.89970910549163818359e-01) (6, -6.55476522445678710938e+00) (7, -4.47679805755615234375e+00) (8, 2.23874878883361816406e+00) (9, -5.70457220077514648438e-01) (10, 2.28961296081542968750e+01) (11, 1.08540191650390625000e+01) (12, 9.84441661834716796875e+00) (13, 1.01946363449096679688e+01) (14, 5.74377238750457763672e-01) (15, 1.29202747344970703125e+00) (16, 1.87868404388427734375e+00) (17, 1.22182977199554443359e+00) (18, -4.77458208799362182617e-01) (19, 1.24625146389007568359e+00) (20, 3.76104772090911865234e-01) (21, 1.20717024803161621094e+00) (22, 2.18069404363632202148e-01) (23, -2.11883306503295898438e-01) (24, -1.92910790443420410156e-01) (25, 7.91102111339569091797e-01) (26, 6.24677300453186035156e-01) (27, 3.64863276481628417969e-01) (28, 3.80974501371383666992e-01) (29, 7.73272871971130371094e-01) (30, 4.37442350387573242188e+00) (0, -5.73173952102661132812e+00) (1, -2.35923552513122558594e+00) (2, -5.29880094528198242188e+00) (3, -8.47564315795898437500e+00) (4, 2.30407314300537109375e+01) (5, -1.80884475708007812500e+01) (6, -1.62255725860595703125e+01) (7, 4.14454460144042968750e+00) (8, -7.13213968276977539062e+00) (9, 1.52685034275054931641e+00) (10, 3.05214238166809082031e+00) (11, -7.35546064376831054688e+00) (12, -4.47204113006591796875e+00) (13, -1.54674923419952392578e+00) (14, -2.66017258167266845703e-01) (15, 2.26220107078552246094e+00) (16, 2.20868110656738281250e-01) (17, 5.22475719451904296875e-01) (18, -2.00647965073585510254e-01) (19, -9.37358438968658447266e-01) (20, -7.67010927200317382812e-01) (21, 2.81508942134678363800e-03) (22, -6.73889636993408203125e-01) (23, -1.14488768577575683594e+00) (24, -3.90633344650268554688e-01) (25, -7.11897253990173339844e-01) (26, -5.98452746868133544922e-01) (27, -5.73211967945098876953e-01) (28, -1.11059010028839111328e+00) (29, -9.93439257144927978516e-01) (30, 3.72813949584960937500e+01) (0, 1.13326716423034667969e+00) (1, 1.26054894924163818359e+00) (2, -8.29694557189941406250e+00) (3, 1.45449027419090270996e-01) (4, 1.15054664611816406250e+01) (5, -2.24278473854064941406e+00) (6, -1.07790336608886718750e+01) (7, 2.99126434326171875000e+01) (8, 1.43282594680786132812e+01) (9, 1.85387706756591796875e+01) (10, 8.29475212097167968750e+00) (11, 1.23651142120361328125e+01) (12, -1.86314260959625244141e+00) (13, 5.84834194183349609375e+00) (14, 3.33708167076110839844e+00) (15, -1.00193557739257812500e+01) (16, -6.68903446197509765625e+00) (17, -4.44482517242431640625e+00) (18, -1.98950982093811035156e+00) (19, -3.69305253028869628906e+00) (20, -1.26700317859649658203e+00) (21, -1.21334946155548095703e+00) (22, -2.37184548377990722656e+00) (23, -1.86949360370635986328e+00) (24, -1.80251419544219970703e+00) (25, -9.02507483959197998047e-01) (26, -5.80286324024200439453e-01) (27, -8.17660450935363769531e-01) (28, -9.33240294456481933594e-01) (29, -1.23660874366760253906e+00) (30, 9.99213218688964843750e+00) (0, -1.55747342109680175781e+00) (1, -9.47825241088867187500e+00) (2, -3.09225344657897949219e+00) (3, -8.08177292346954345703e-01) (4, 1.95308475494384765625e+01) (5, -2.81004714965820312500e+01) (6, 8.15180110931396484375e+00) (7, 1.18800754547119140625e+01) (8, 8.07573032379150390625e+00) (9, 4.40488481521606445312e+00) (10, 3.92363524436950683594e+00) (11, 1.34600114822387695312e+01) (12, 4.49057626724243164062e+00) (13, 8.01923656463623046875e+00) (14, 8.35423755645751953125e+00) (15, -7.04142951965332031250e+00) (16, -6.23205327987670898438e+00) (17, -5.90516233444213867188e+00) (18, -3.25299406051635742188e+00) (19, -2.45141530036926269531e+00) (20, -2.48067188262939453125e+00) (21, -3.33701515197753906250e+00) (22, -1.38535177707672119141e+00) (23, -1.52572357654571533203e+00) (24, -2.22682094573974609375e+00) (25, -2.16080307960510253906e+00) (26, -1.51510572433471679688e+00) (27, -1.48544728755950927734e+00) (28, -1.18549060821533203125e+00) (29, -1.19502699375152587891e+00) (30, 6.61315679550170898438e+00) (0, 7.60349893569946289062e+00) (1, -9.96486783027648925781e-01) (2, 7.51026201248168945312e+00) (3, -3.56168150901794433594e+00) (4, -6.10077476501464843750e+00) (5, 4.95416212081909179688e+00) (6, -3.14553570747375488281e+00) (7, -5.96291875839233398438e+00) (8, -3.24889831542968750000e+01) (9, -1.52821302413940429688e+01) (10, 8.10235214233398437500e+00) (11, 2.28030948638916015625e+01) (12, 8.10643482208251953125e+00) (13, 5.37097501754760742188e+00) (14, -1.29276692867279052734e+00) (15, -3.93418931961059570312e+00) (16, 1.62475800514221191406e+00) (17, -5.13232946395874023438e+00) (18, -2.89202237129211425781e+00) (19, -4.26936483383178710938e+00) (20, -1.53650343418121337891e+00) (21, -2.38330602645874023438e+00) (22, -3.21732234954833984375e+00) (23, -1.68443858623504638672e+00) (24, -1.67710661888122558594e+00) (25, -2.24431300163269042969e+00) (26, -1.08362340927124023438e+00) (27, -1.62591075897216796875e+00) (28, -1.90213334560394287109e+00) (29, -1.28354775905609130859e+00) (30, -3.92777633666992187500e+00) (0, -1.68486163020133972168e-01) (1, -1.05037057399749755859e+00) (2, 3.49252057075500488281e+00) (3, -2.87180185317993164062e+00) (4, -1.76665744781494140625e+01) (5, -2.00020103454589843750e+01) (6, -1.61785335540771484375e+01) (7, -1.20547914505004882812e+01) (8, -2.80703902244567871094e+00) (9, -7.88069581985473632812e+00) (10, -3.55818533897399902344e+00) (11, 4.64609718322753906250e+00) (12, 1.12691521644592285156e+00) (13, -4.56320953369140625000e+00) (14, 6.29647159576416015625e+00) (15, -2.05708084106445312500e+01) (16, 5.81974411010742187500e+01) (17, 2.30965747833251953125e+01) (18, 1.33927774429321289062e+01) (19, 1.16728086471557617188e+01) (20, 9.76183128356933593750e+00) (21, 8.62589168548583984375e+00) (22, 7.87664651870727539062e+00) (23, 4.99008798599243164062e+00) (24, 5.43921518325805664062e+00) (25, 4.28207826614379882812e+00) (26, 3.98830270767211914062e+00) (27, 4.57204151153564453125e+00) (28, 4.21035671234130859375e+00) (29, 3.67360043525695800781e+00) (30, 5.88222074508666992188e+00) (0, -1.42700653076171875000e+01) (1, -2.43686408996582031250e+01) (2, -6.90674209594726562500e+00) (3, 6.42963838577270507812e+00) (4, -8.06660413742065429688e-01) (5, -1.27532758712768554688e+01) (6, 9.19259929656982421875e+00) (7, -6.12096309661865234375e+00) (8, -1.74061548709869384766e+00) (9, -1.53583755493164062500e+01) (10, 1.43183536529541015625e+01) (11, -7.61290597915649414062e+00) (12, 9.65258312225341796875e+00) (13, 9.23962116241455078125e+00) (14, 3.38967531919479370117e-01) (15, 5.13399124145507812500e+00) (16, 1.55950915813446044922e+00) (17, 7.48331010341644287109e-01) (18, 1.35053253173828125000e+00) (19, 1.78560042381286621094e+00) (20, 1.14361381530761718750e+00) (21, 1.66528654098510742188e+00) (22, 4.74489986896514892578e-01) (23, 7.90387988090515136719e-01) (24, 8.68927001953125000000e-01) (25, 1.17320227622985839844e+00) (26, 2.79488027095794677734e-01) (27, 7.54818856716156005859e-01) (28, 3.40728878974914550781e-01) (29, 8.16732406616210937500e-01) (30, -1.26002388000488281250e+01) (0, -7.36516714096069335938e+00) (1, 4.97412376403808593750e+01) (2, -1.70332126617431640625e+01) (3, 5.23948621749877929688e+00) (4, -1.00795710086822509766e+00) (5, 1.33057320117950439453e+00) (6, -1.38436102867126464844e+00) (7, -2.23872041702270507812e+00) (8, -3.00589728355407714844e+00) (9, -4.05426889657974243164e-01) (10, -2.40638542175292968750e+00) (11, -5.99203252792358398438e+00) (12, -5.75139343738555908203e-01) (13, -4.56415605545043945312e+00) (14, -2.66840696334838867188e-01) (15, -2.67123943194746971130e-03) (16, 5.35806417465209960938e-01) (17, 9.03453826904296875000e-01) (18, 2.40289807319641113281e+00) (19, 7.93538808822631835938e-01) (20, -9.81899917125701904297e-01) (21, 6.71389877796173095703e-01) (22, 1.70665752887725830078e+00) (23, 3.82879793643951416016e-01) (24, 9.42779183387756347656e-01) (25, 1.66168546676635742188e+00) (26, 9.59652602672576904297e-01) (27, 1.47116661071777343750e+00) (28, 2.37516593933105468750e+00) (29, 1.04755628108978271484e+00) (30, 1.76050984859466552734e+00) (0, 5.47640342712402343750e+01) (1, -6.40644693374633789062e+00) (2, -3.66293668746948242188e+00) (3, 4.93557262420654296875e+00) (4, 1.00234699249267578125e+00) (5, -5.31968355178833007812e+00) (6, -6.45783805847167968750e+00) (7, -8.55134010314941406250e+00) (8, -7.74371576309204101562e+00) (9, -9.92390823364257812500e+00) (10, -7.44707632064819335938e+00) (11, -2.09804725646972656250e+00) (12, -5.99709630012512207031e-01) (13, -4.75727844238281250000e+00) (14, -1.64263463020324707031e+00) (15, -8.90109539031982421875e+00) (16, 2.08091235160827636719e+00) (17, -1.66558265686035156250e+00) (18, 7.27308750152587890625e-01) (19, 7.85631477832794189453e-01) (20, 9.65510904788970947266e-01) (21, 8.60211312770843505859e-01) (22, 1.01039171218872070312e+00) (23, 1.86472761631011962891e+00) (24, 1.24242044985294342041e-01) (25, 1.24681949615478515625e+00) (26, 6.05970084667205810547e-01) (27, 9.14099454879760742188e-01) (28, 5.88754296302795410156e-01) (29, 5.34580826759338378906e-01) (30, -1.42119703292846679688e+01) (0, 3.49555816650390625000e+01) (1, 1.65352153778076171875e+01) (2, -6.66568803787231445312e+00) (3, 8.76774024963378906250e+00) (4, 1.06937015056610107422e+00) (5, -4.94803857803344726562e+00) (6, -1.90865367650985717773e-01) (7, 4.96232223510742187500e+00) (8, 4.20863151550292968750e+00) (9, 2.40007066726684570312e+00) (10, 5.04736185073852539062e+00) (11, 6.47534561157226562500e+00) (12, -1.67750108242034912109e+00) (13, 3.65225076675415039062e-01) (14, 1.34890127182006835938e+00) (15, 7.74610662460327148438e+00) (16, -8.45480978488922119141e-01) (17, -1.45346426963806152344e+00) (18, -6.47442266345024108887e-02) (19, -9.26165103912353515625e-01) (20, -8.98281872272491455078e-01) (21, -4.63515520095825195312e-01) (22, -1.00036942958831787109e+00) (23, -9.13394927978515625000e-01) (24, -1.18176653981208801270e-01) (25, -1.07627856731414794922e+00) (26, -9.41233336925506591797e-01) (27, -5.41139423847198486328e-01) (28, -1.24437940120697021484e+00) (29, -7.63980448246002197266e-01) (30, 2.50770835876464843750e+01) (0, 8.38874530792236328125e+00) (1, 9.93686199188232421875e+00) (2, -5.22768878936767578125e+00) (3, 1.00542411804199218750e+01) (4, -3.43882417678833007812e+00) (5, 6.16004514694213867188e+00) (6, 1.10644435882568359375e+00) (7, 5.31927108764648437500e-01) (8, 2.70142054557800292969e+00) (9, -5.17026376724243164062e+00) (10, 1.02321710586547851562e+01) (11, -2.18608999252319335938e+00) (12, 1.59436197280883789062e+01) (13, 3.07635927200317382812e+00) (14, 1.41459536552429199219e+00) (15, 6.07998847961425781250e-01) (16, -4.65272963047027587891e-02) (17, -3.42533200979232788086e-01) (18, 1.10957813262939453125e+00) (19, -1.80040434002876281738e-01) (20, 1.19962938129901885986e-01) (21, -4.34525519609451293945e-01) (22, -3.56111936271190643311e-02) (23, -3.67331922054290771484e-01) (24, 2.48452097177505493164e-01) (25, 1.49569958448410034180e-01) (26, -1.58127039670944213867e-01) (27, 3.55108916759490966797e-01) (28, 1.99919983744621276855e-01) (29, -2.17046916484832763672e-01) (30, 9.09782505035400390625e+00) (0, -7.06913757324218750000e+00) (1, 2.02790584564208984375e+01) (2, -6.65201616287231445312e+00) (3, 3.19421482086181640625e+00) (4, 6.61391830444335937500e+00) (5, -3.39644861221313476562e+00) (6, -2.94905352592468261719e+00) (7, 9.87597405910491943359e-01) (8, -3.71584439277648925781e+00) (9, -7.50590705871582031250e+00) (10, 1.01596260070800781250e+01) (11, 9.15483093261718750000e+00) (12, 6.24505996704101562500e+00) (13, 1.74511432647705078125e+01) (14, -4.09093976020812988281e-01) (15, 8.44605064392089843750e+00) (16, 3.82312202453613281250e+00) (17, 7.50198423862457275391e-01) (18, 3.01629662513732910156e-01) (19, 2.28131103515625000000e+00) (20, -1.37878768146038055420e-02) (21, 9.09407258033752441406e-01) (22, 7.58601278066635131836e-02) (23, -4.58389729261398315430e-01) (24, 4.10464853048324584961e-01) (25, -1.11687791347503662109e+00) (26, 1.29899621009826660156e-01) (27, 4.33616936206817626953e-01) (28, 7.87648782134056091309e-02) (29, 1.48031219840049743652e-01) (30, 5.52607107162475585938e+00) (0, 1.54147076606750488281e+00) (1, -3.49143385887145996094e+00) (2, -9.91894960403442382812e-01) (3, 6.49861049652099609375e+00) (4, -3.50422918796539306641e-01) (5, -3.21561217308044433594e+00) (6, 1.66830463409423828125e+01) (7, 6.23531532287597656250e+00) (8, 6.49490022659301757812e+00) (9, 5.44960856437683105469e-01) (10, 3.94684624671936035156e+00) (11, 6.13399839401245117188e+00) (12, 1.34659061431884765625e+01) (13, -2.25164246559143066406e+00) (14, -7.62603998184204101562e-01) (15, -7.96660947799682617188e+00) (16, -2.79693603515625000000e+00) (17, -4.41582620143890380859e-01) (18, -1.06203353404998779297e+00) (19, -7.28186190128326416016e-01) (20, -3.99944543838500976562e-01) (21, -1.62990891933441162109e+00) (22, -1.12763452529907226562e+00) (23, -6.34352028369903564453e-01) (24, -2.47967481613159179688e-01) (25, 1.33359879255294799805e-01) (26, -5.52272200584411621094e-01) (27, -4.36463177204132080078e-01) (28, -2.55253672599792480469e-01) (29, -1.10526308417320251465e-01) (30, 4.16681480407714843750e+00) (0, 2.11842346191406250000e+00) (1, 4.55590724945068359375e+00) (2, 8.81387233734130859375e+00) (3, 3.42892980575561523438e+00) (4, 7.71541953086853027344e-01) (5, -1.77361381053924560547e+00) (6, 1.53487432003021240234e+00) (7, 3.89636188745498657227e-01) (8, 1.38753259181976318359e+00) (9, 3.63477230072021484375e-01) (10, 7.14541149139404296875e+00) (11, 1.22439491748809814453e+00) (12, -1.88850443810224533081e-02) (13, -4.62906455993652343750e+01) (14, -2.25883412361145019531e+00) (15, -7.40878963470458984375e+00) (16, -3.30920600891113281250e+00) (17, -1.58431971073150634766e+00) (18, -6.67824923992156982422e-01) (19, -1.18527746200561523438e+00) (20, 9.54507768154144287109e-01) (21, -8.74614715576171875000e-01) (22, -5.48717617988586425781e-01) (23, -1.57530084252357482910e-01) (24, 3.86561572551727294922e-01) (25, -1.80178508162498474121e-01) (26, -2.32865452766418457031e-01) (27, -1.14337134361267089844e+00) (28, -1.10494756698608398438e+00) (29, -3.79445165395736694336e-01) (30, -6.36039113998413085938e+00) (0, 3.03297710418701171875e+00) (1, -7.42761659622192382812e+00) (2, 1.09612960815429687500e+01) (3, 3.68792700767517089844e+00) (4, 4.53739547729492187500e+00) (5, 1.41465606689453125000e+01) (6, 2.05986404418945312500e+00) (7, -2.73236103057861328125e+01) (8, 6.10851478576660156250e+00) (9, 9.74139976501464843750e+00) (10, -1.79657387733459472656e+00) (11, -1.00405120849609375000e+00) (12, 3.02664422988891601562e+00) (13, 7.05079412460327148438e+00) (14, -1.76605319976806640625e+00) (15, 4.39938497543334960938e+00) (16, 3.65886569023132324219e-01) (17, -1.39082586765289306641e+00) (18, -1.19592867791652679443e-01) (19, -5.59442043304443359375e-01) (20, -1.33570894598960876465e-01) (21, -6.35694563388824462891e-01) (22, 6.21509850025177001953e-01) (23, -2.65183627605438232422e-01) (24, -6.67371094226837158203e-01) (25, -8.16734194755554199219e-01) (26, -3.26529353857040405273e-01) (27, -3.87426674365997314453e-01) (28, -2.74056583642959594727e-01) (29, -3.50876569747924804688e-01) (30, 5.24207496643066406250e+00) (0, 1.85710227489471435547e+00) (1, -5.92855072021484375000e+00) (2, -2.19263629913330078125e+01) (3, -1.10256443023681640625e+01) (4, -7.19894266128540039062e+00) (5, 9.08077239990234375000e+00) (6, 1.64718496799468994141e+00) (7, 6.42640018463134765625e+00) (8, 1.76110115051269531250e+01) (9, 8.62885951995849609375e+00) (10, 9.75801277160644531250e+00) (11, 6.39156246185302734375e+00) (12, 1.08263740539550781250e+01) (13, 2.88264393806457519531e+00) (14, 5.77991437911987304688e+00) (15, -1.75558300018310546875e+01) (16, -1.48430194854736328125e+01) (17, -1.51422536373138427734e+00) (18, -3.32330608367919921875e+00) (19, -4.09448099136352539062e+00) (20, -2.36840510368347167969e+00) (21, -2.01215434074401855469e+00) (22, -2.77582979202270507812e+00) (23, -1.06719076633453369141e+00) (24, -1.45740365982055664062e+00) (25, -1.09629356861114501953e+00) (26, -1.15601265430450439453e+00) (27, -1.22136187553405761719e+00) (28, -1.07365465164184570312e+00) (29, -8.74621272087097167969e-01) (30, -7.17393779754638671875e+00) (0, -8.30687046051025390625e+00) (1, -7.36633777618408203125e+00) (2, -6.27540424466133117676e-03) (3, -7.15949487686157226562e+00) (4, -1.27846832275390625000e+01) (5, -8.80075740814208984375e+00) (6, -3.75196903944015502930e-01) (7, -3.66294980049133300781e+00) (8, -8.36061954498291015625e+00) (9, -2.01223874092102050781e+00) (10, -1.50187075138092041016e+00) (11, 4.52657759189605712891e-01) (12, -1.26084494590759277344e+00) (13, 3.39026403427124023438e+00) (14, 2.95477914810180664062e+00) (15, -2.06942901611328125000e+01) (16, -5.02242755889892578125e+00) (17, -1.36632430553436279297e+00) (18, -1.20230174064636230469e+00) (19, -1.11109828948974609375e+00) (20, -1.31757557392120361328e+00) (21, -7.08004534244537353516e-01) (22, -7.93892860412597656250e-01) (23, -3.40589910745620727539e-01) (24, -2.25093260407447814941e-01) (25, -1.60210818052291870117e-01) (26, -5.54681718349456787109e-01) (27, 1.23304156586527824402e-02) (28, -2.88806349039077758789e-01) (29, 1.04224003851413726807e-01) (30, -1.81414508819580078125e+00) (0, 1.16125926971435546875e+01) (1, 2.52661967277526855469e+00) (2, -1.08973932266235351562e+00) (3, 1.61437892913818359375e+01) (4, 2.07824039459228515625e+01) (5, 2.97423195838928222656e+00) (6, 1.06428837776184082031e+00) (7, -2.65045690536499023438e+00) (8, -1.34696125984191894531e+00) (9, 6.15370154380798339844e-01) (10, 1.52359366416931152344e+00) (11, 6.28961706161499023438e+00) (12, -7.14218497276306152344e-01) (13, 4.69426065683364868164e-01) (14, -1.29640827178955078125e+01) (15, 4.25921936035156250000e+01) (16, 2.24554491043090820312e+00) (17, -3.00172495841979980469e+00) (18, -2.90896713733673095703e-01) (19, 8.54962229728698730469e-01) (20, -2.94543004035949707031e+00) (21, -1.26729154586791992188e+00) (22, -1.64252972602844238281e+00) (23, -1.53368008136749267578e+00) (24, -1.08043766021728515625e+00) (25, -2.10225129127502441406e+00) (26, -6.42150580883026123047e-01) (27, -1.46458709239959716797e+00) (28, -6.96421205997467041016e-01) (29, -1.19903290271759033203e+00) (30, -4.03808879852294921875e+00) (0, 1.11816978454589843750e+00) (1, 9.24638080596923828125e+00) (2, -1.19705257415771484375e+01) (3, -4.72861003875732421875e+00) (4, 2.44043579101562500000e+01) (5, 2.05058002471923828125e+01) (6, -7.80450296401977539062e+00) (7, -9.19130897521972656250e+00) (8, 2.09500169754028320312e+00) (9, 5.53575229644775390625e+00) (10, 4.13370227813720703125e+00) (11, 1.13556756973266601562e+01) (12, 4.85582160949707031250e+00) (13, -1.30017232894897460938e+00) (14, -1.34535276889801025391e+00) (15, -1.32534414529800415039e-01) (16, 7.91200339794158935547e-01) (17, -8.32842707633972167969e-01) (18, -1.29354989528656005859e+00) (19, 2.57508516311645507812e-01) (20, -1.96592971682548522949e-01) (21, -3.38189363479614257812e-01) (22, -6.76131486892700195312e-01) (23, -1.53399392962455749512e-01) (24, 2.30965334922075271606e-02) (25, 3.72722178697586059570e-01) (26, 3.91921192407608032227e-01) (27, -1.61410316824913024902e-01) (28, 4.07367408275604248047e-01) (29, 9.68910753726959228516e-01) (30, -1.63813362121582031250e+01) (0, 1.84847927093505859375e+00) (1, 1.00279617309570312500e+01) (2, -2.29968833923339843750e+00) (3, -4.04751968383789062500e+00) (4, 3.38506984710693359375e+00) (5, -2.03160495758056640625e+01) (6, -8.18458747863769531250e+00) (7, 8.67491531372070312500e+00) (8, 6.78905344009399414062e+00) (9, -9.53244876861572265625e+00) (10, -1.24863061904907226562e+01) (11, -3.68412446975708007812e+00) (12, 3.75531768798828125000e+00) (13, -6.16785955429077148438e+00) (14, -3.18490195274353027344e+00) (15, 1.90667591094970703125e+01) (16, 8.01609516143798828125e+00) (17, 2.52273607254028320312e+00) (18, 3.48242878913879394531e+00) (19, 3.49539828300476074219e+00) (20, 2.69096589088439941406e+00) (21, 1.97024011611938476562e+00) (22, 2.34259271621704101562e+00) (23, 7.81054735183715820312e-01) (24, 1.34241271018981933594e+00) (25, 8.93247008323669433594e-01) (26, 6.44736588001251220703e-01) (27, 1.27826488018035888672e+00) (28, 1.10881233215332031250e+00) (29, 9.64095711708068847656e-01) (30, -1.73728981018066406250e+01) (0, -1.77055263519287109375e+01) (1, -2.04699325561523437500e+01) (2, -2.25791492462158203125e+01) (3, -2.48922511935234069824e-01) (4, -1.78620946407318115234e+00) (5, -2.27642267942428588867e-01) (6, 4.15497243404388427734e-01) (7, 8.65817546844482421875e-01) (8, -1.68609583377838134766e+00) (9, 1.74397861957550048828e+00) (10, -4.22970980405807495117e-01) (11, -2.49347901344299316406e+00) (12, -1.05518385767936706543e-01) (13, -4.21635389328002929688e+00) (14, -1.13754692077636718750e+01) (15, 1.72156982421875000000e+01) (16, -2.51510601043701171875e+01) (17, -2.47381424903869628906e+00) (18, -6.95102071762084960938e+00) (19, 3.43382191658020019531e+00) (20, 2.47932553291320800781e+00) (21, 7.94674932956695556641e-01) (22, -6.92862093448638916016e-01) (23, 1.51445484161376953125e+00) (24, 1.17572033405303955078e+00) (25, 2.65147709846496582031e+00) (26, 2.12936711311340332031e+00) (27, 2.03405165672302246094e+00) (28, 1.35156798362731933594e+00) (29, 1.59099125862121582031e+00) (30, 1.09955883026123046875e+01) (0, -3.74798989295959472656e+00) (1, 1.26714916229248046875e+01) (2, -4.31499710083007812500e+01) (3, -1.69726759195327758789e-01) (4, 3.82802438735961914062e+00) (5, -5.81295154988765716553e-02) (6, 2.92207717895507812500e+00) (7, 1.70747220516204833984e+00) (8, 1.80670702457427978516e+00) (9, 1.89147901535034179688e+00) (10, 1.42409396171569824219e+00) (11, 1.39604747295379638672e+00) (12, 1.81217896938323974609e+00) (13, 2.18225550651550292969e+00) (14, -3.32831716537475585938e+00) (15, 1.21405992507934570312e+01) (16, -3.17293429374694824219e+00) (17, -2.14395895600318908691e-01) (18, -1.91615378856658935547e+00) (19, 1.96274900436401367188e+00) (20, -2.86095052957534790039e-01) (21, 8.73216369654983282089e-04) (22, -1.03702449798583984375e+00) (23, -3.77314656972885131836e-01) (24, -5.49894571304321289062e-01) (25, -9.89561438560485839844e-01) (26, 3.78299713134765625000e-01) (27, -2.52779394388198852539e-01) (28, -7.05378890037536621094e-01) (29, -1.75263121724128723145e-01) (30, 1.30273113250732421875e+01) (0, -5.07604837417602539062e+00) (1, -5.09553241729736328125e+00) (2, -6.60632133483886718750e+00) (3, -3.24723100662231445312e+00) (4, 1.58016979694366455078e+00) (5, -7.18397974967956542969e-01) (6, 4.26262021064758300781e-01) (7, 3.66773772239685058594e+00) (8, 8.52702558040618896484e-01) (9, 1.53420734405517578125e+00) (10, -1.65949249267578125000e+00) (11, -1.24065840244293212891e+00) (12, 5.85331573486328125000e+01) (13, -1.30348405838012695312e+01) (14, -1.36994724273681640625e+01) (15, 1.90322652459144592285e-01) (16, -1.03548526763916015625e+00) (17, 3.68429958820343017578e-01) (18, 2.24408936500549316406e+00) (19, -1.32771596312522888184e-01) (20, -2.19118624925613403320e-01) (21, 5.44871449470520019531e-01) (22, -8.24215829372406005859e-01) (23, 7.42264315485954284668e-02) (24, 2.16205644607543945312e+00) (25, -3.91889452934265136719e-01) (26, 1.27636170387268066406e+00) (27, 8.87816607952117919922e-01) (28, 7.41919994354248046875e-01) (29, 1.29729485511779785156e+00) (30, 8.39260673522949218750e+00) (0, 2.26971125602722167969e+00) (1, -1.11459350585937500000e+01) (2, 7.04006052017211914062e+00) (3, -2.55330276489257812500e+00) (4, -2.46362328529357910156e+00) (5, -2.39708065986633300781e-01) (6, -1.61323815584182739258e-01) (7, 8.68975830078125000000e+00) (8, 1.48653955459594726562e+01) (9, 3.58379340171813964844e+00) (10, 9.00097727775573730469e-01) (11, 7.81497776508331298828e-01) (12, -2.03012377023696899414e-01) (13, 9.75811183452606201172e-01) (14, -3.76096439361572265625e+00) (15, -3.33855209350585937500e+01) (16, 3.73166961669921875000e+01) (17, -1.64580440521240234375e+01) (18, -4.96405363082885742188e+00) (19, -1.94385361671447753906e+00) (20, -7.20235466957092285156e-01) (21, -1.59288668632507324219e+00) (22, -1.20481324195861816406e+00) (23, -1.87812244892120361328e+00) (24, -1.81180346012115478516e+00) (25, -1.38961982727050781250e+00) (26, -1.79893720149993896484e+00) (27, -2.03037047386169433594e+00) (28, -7.70451426506042480469e-01) (29, -1.28274798393249511719e+00) (30, 2.10083675384521484375e+00) (0, -1.71895992755889892578e+00) (1, 2.90992593765258789062e+00) (2, 2.73315358161926269531e+00) (3, 5.32150864601135253906e-01) (4, 1.72185346484184265137e-01) (5, -4.20892983675003051758e-02) (6, 1.45435547828674316406e+00) (7, -2.11491405963897705078e-01) (8, 5.36403989791870117188e+00) (9, -1.73166024684906005859e+00) (10, 4.89948689937591552734e-01) (11, -3.85492706298828125000e+01) (12, 3.20912666320800781250e+01) (13, -9.10218334197998046875e+00) (14, -7.85576200485229492188e+00) (15, -1.31143608093261718750e+01) (16, -7.70924091339111328125e-01) (17, 1.07451879978179931641e+00) (18, -3.72089481353759765625e+00) (19, -6.20002448558807373047e-01) (20, -6.89106523990631103516e-01) (21, -1.41770005226135253906e+00) (22, -8.04971516132354736328e-01) (23, -2.54554677009582519531e+00) (24, -2.04594880342483520508e-02) (25, -7.10592091083526611328e-01) (26, -2.29448151588439941406e+00) (27, -9.24769520759582519531e-01) (28, -1.98740959167480468750e+00) (29, -4.34665590524673461914e-01) (30, -6.23324871063232421875e+00) (0, -8.22711372375488281250e+00) (1, 1.03005628585815429688e+01) (2, 1.48639225959777832031e+00) (3, -1.80017967224121093750e+01) (4, -1.97754249572753906250e+01) (5, -6.61776638031005859375e+00) (6, 3.51134419441223144531e+00) (7, 1.13818445205688476562e+01) (8, 7.86668968200683593750e+00) (9, -1.36157093048095703125e+01) (10, 1.60696864128112792969e+00) (11, -7.58848762512207031250e+00) (12, -1.65018520355224609375e+01) (13, -3.17975187301635742188e+00) (14, -7.27476418018341064453e-01) (15, 4.77075004577636718750e+00) (16, 1.16089689731597900391e+00) (17, 1.71284711360931396484e+00) (18, 8.46360087394714355469e-01) (19, 2.07218003273010253906e+00) (20, 6.56744539737701416016e-01) (21, 1.75205302238464355469e+00) (22, 8.70603084564208984375e-01) (23, 5.52381992340087890625e-01) (24, 6.01343870162963867188e-01) (25, 8.03326308727264404297e-01) (26, 8.05131137371063232422e-01) (27, 9.35124516487121582031e-01) (28, 6.86420500278472900391e-01) (29, 5.13752043247222900391e-01) (30, -4.55742073059082031250e+00) (0, -2.88070487976074218750e+01) (1, -2.61650711297988891602e-01) (2, 9.33718395233154296875e+00) (3, 2.12341380119323730469e+00) (4, -8.16113281250000000000e+00) (5, 2.56018543243408203125e+00) (6, 6.03073692321777343750e+00) (7, 4.16261911392211914062e+00) (8, -2.60567688941955566406e+00) (9, 1.03121423721313476562e+01) (10, 1.74777656793594360352e-01) (11, 1.00119953155517578125e+01) (12, 1.52368736267089843750e+01) (13, -9.84142971038818359375e+00) (14, -5.82878232002258300781e-01) (15, -2.18731517791748046875e+01) (16, -5.86753797531127929688e+00) (17, -2.46893954277038574219e+00) (18, -2.24089765548706054688e+00) (19, -2.90175580978393554688e+00) (20, -2.46841073036193847656e+00) (21, -2.50559353828430175781e+00) (22, -3.30065608024597167969e+00) (23, -1.69785451889038085938e+00) (24, -7.03678786754608154297e-01) (25, -2.06005406379699707031e+00) (26, -9.16461586952209472656e-01) (27, -1.78518497943878173828e+00) (28, -1.41238534450531005859e+00) (29, -1.14058434963226318359e+00) (30, 5.92213094234466552734e-01) (0, 3.14760303497314453125e+00) (1, -3.28191494941711425781e+00) (2, -2.01482033729553222656e+00) (3, -1.89646935462951660156e+00) (4, 8.79520225524902343750e+00) (5, 3.85294146835803985596e-02) (6, -1.25288314819335937500e+01) (7, -9.19307231903076171875e+00) (8, 5.31004905700683593750e+00) (9, 1.52882347106933593750e+01) (10, 2.68912076950073242188e+00) (11, 4.81289005279541015625e+00) (12, 6.37472915649414062500e+00) (13, 1.29891414642333984375e+01) (14, 6.17509007453918457031e-01) (15, 3.49502253532409667969e+00) (16, 1.57784938812255859375e+00) (17, -1.01869249343872070312e+00) (18, 2.87876259535551071167e-02) (19, 2.48240500688552856445e-01) (20, 1.65974736213684082031e-01) (21, -4.75611060857772827148e-01) (22, 2.87918329238891601562e-01) (23, -6.54810965061187744141e-02) (24, -5.40114760398864746094e-01) (25, -3.05789560079574584961e-01) (26, -7.97745734453201293945e-02) (27, -2.62796878814697265625e-01) (28, -4.03982043266296386719e-01) (29, -2.82978802919387817383e-01) (30, 1.07165699005126953125e+01) (0, 1.99799704551696777344e+00) (1, -1.47048580646514892578e+00) (2, 1.84696369171142578125e+01) (3, 2.77484245300292968750e+01) (4, -1.78791675567626953125e+01) (5, 1.95562267303466796875e+00) (6, 2.01920390129089355469e+00) (7, -6.17181539535522460938e+00) (8, -2.25129604339599609375e+00) (9, -4.75257730484008789062e+00) (10, -1.11766386032104492188e+00) (11, 6.85041725635528564453e-01) (12, -1.15122184157371520996e-01) (13, 1.76781654357910156250e+01) (14, -1.33549118041992187500e+00) (15, 1.02586736679077148438e+01) (16, 2.76899623870849609375e+00) (17, 1.53582406044006347656e+00) (18, 1.76845276355743408203e+00) (19, 1.08498024940490722656e+00) (20, 4.51162755489349365234e-01) (21, 4.70596730709075927734e-01) (22, -8.52383136749267578125e-01) (23, -1.80764794349670410156e-01) (24, -3.11438497155904769897e-02) (25, -6.15333437919616699219e-01) (26, -1.04811869561672210693e-01) (27, -8.56381282210350036621e-02) (28, -4.90591168403625488281e-01) (29, -4.21370655298233032227e-01) (30, 5.11862468719482421875e+00) (0, -7.33388948440551757812e+00) (1, 1.47713768482208251953e+00) (2, 2.99304151535034179688e+00) (3, -2.47687888145446777344e+00) (4, 1.74350500106811523438e+00) (5, -1.97646045684814453125e+00) (6, -4.95068967342376708984e-01) (7, 1.89614093303680419922e+00) (8, 1.08581140637397766113e-01) (9, -1.72255573272705078125e+01) (10, -3.74054107666015625000e+01) (11, -2.80414271354675292969e+00) (12, 9.80915260314941406250e+00) (13, 1.29706106185913085938e+01) (14, 2.08629417419433593750e+00) (15, -6.61529064178466796875e+00) (16, -9.82168006896972656250e+00) (17, -3.73689842224121093750e+00) (18, -5.05938482284545898438e+00) (19, -3.44295120239257812500e+00) (20, -3.01392865180969238281e+00) (21, -3.25108337402343750000e+00) (22, -1.92057001590728759766e+00) (23, -1.48421168327331542969e+00) (24, -1.97756338119506835938e+00) (25, -1.89259290695190429688e+00) (26, -1.25631630420684814453e+00) (27, -1.11023974418640136719e+00) (28, -1.76688921451568603516e+00) (29, -1.30305027961730957031e+00) (30, -1.62661552429199218750e+01) (0, -8.84944498538970947266e-01) (1, -2.61574053764343261719e+00) (2, -1.41473674774169921875e+00) (3, 6.01173210144042968750e+00) (4, -3.61633014678955078125e+00) (5, 1.75030815601348876953e+00) (6, 1.42130851745605468750e+01) (7, 1.54313020706176757812e+01) (8, 5.19745731353759765625e+00) (9, 5.07674646377563476562e+00) (10, -1.40395364761352539062e+01) (11, -8.69319629669189453125e+00) (12, -9.87926864624023437500e+00) (13, 1.83191566467285156250e+01) (14, 5.06669473648071289062e+00) (15, 5.29979515075683593750e+00) (16, 1.25890552997589111328e+00) (17, 1.69591665267944335938e+00) (18, 6.24031662940979003906e-01) (19, 9.22662138938903808594e-01) (20, 5.07666170597076416016e-01) (21, 7.70326077938079833984e-01) (22, 2.32344567775726318359e-01) (23, 4.14962440729141235352e-01) (24, 7.56254568696022033691e-02) (25, 2.16983854770660400391e-01) (26, 1.24518072605133056641e+00) (27, 7.59913980960845947266e-01) (28, 3.71981024742126464844e-01) (29, 3.42726796865463256836e-01) (30, 9.09641361236572265625e+00) (0, 2.16917181015014648438e+00) (1, 7.82649278640747070312e+00) (2, 7.51539289951324462891e-01) (3, -1.77435934543609619141e+00) (4, -2.05426025390625000000e+01) (5, -7.58612871170043945312e+00) (6, -4.45547437667846679688e+00) (7, -2.24009680747985839844e+00) (8, -7.26397752761840820312e-01) (9, 6.05755805969238281250e+00) (10, 7.83309984207153320312e+00) (11, 9.59554958343505859375e+00) (12, 4.49411916732788085938e+00) (13, 1.67187328338623046875e+01) (14, -1.22173604965209960938e+01) (15, 1.09857454299926757812e+01) (16, 4.16023635864257812500e+00) (17, -1.43515110015869140625e+00) (18, 7.36922919750213623047e-01) (19, 8.64033818244934082031e-01) (20, -2.32046350836753845215e-01) (21, 5.20452201366424560547e-01) (22, -3.08582574129104614258e-01) (23, -6.67158484458923339844e-01) (24, -1.16956269741058349609e+00) (25, -1.12369382381439208984e+00) (26, -9.96126979589462280273e-02) (27, -3.44176679849624633789e-01) (28, -7.25660085678100585938e-01) (29, -5.19399821758270263672e-01) (30, 1.23018217086791992188e+00) (0, -1.87418830394744873047e+00) (1, -7.56619644165039062500e+00) (2, -3.45850715637207031250e+01) (3, -8.13531935214996337891e-01) (4, 1.47342574596405029297e+00) (5, -3.68766069412231445312e-01) (6, -1.98786091804504394531e+00) (7, -2.82532835006713867188e+00) (8, -5.19851589202880859375e+00) (9, 3.65185713768005371094e+00) (10, -2.94975852966308593750e+00) (11, -2.52794766426086425781e+00) (12, -2.91791319847106933594e+00) (13, -1.53267259597778320312e+01) (14, 8.05123269557952880859e-01) (15, -1.44551563262939453125e+01) (16, -3.70897364616394042969e+00) (17, -2.21397733688354492188e+00) (18, -3.75692605972290039062e+00) (19, -3.58736729621887207031e+00) (20, -2.12362384796142578125e+00) (21, -1.78907513618469238281e-01) (22, -4.78132218122482299805e-01) (23, -8.14809978008270263672e-01) (24, 6.21180050075054168701e-02) (25, -2.76317179203033447266e-01) (26, -7.04576492309570312500e-01) (27, -4.98177200555801391602e-01) (28, -9.59916487336158752441e-02) (29, 3.84889185428619384766e-01) (30, -4.98300313949584960938e+00) (0, 3.19151091575622558594e+00) (1, -5.05628764629364013672e-01) (2, -1.07821741104125976562e+01) (3, -3.09830904006958007812e+00) (4, 6.77299261093139648438e+00) (5, 2.95772171020507812500e+00) (6, -7.91461527347564697266e-01) (7, -8.83236122131347656250e+00) (8, 1.46337051391601562500e+01) (9, -6.94430971145629882812e+00) (10, 1.74389228820800781250e+01) (11, 7.62610340118408203125e+00) (12, -6.39043152332305908203e-01) (13, -3.91808700561523437500e+00) (14, 4.91737747192382812500e+00) (15, -1.04795017242431640625e+01) (16, -5.91410446166992187500e+00) (17, -1.14195549488067626953e+00) (18, -2.13926577568054199219e+00) (19, -1.51160669326782226562e+00) (20, -2.44723081588745117188e+00) (21, -1.03375768661499023438e+00) (22, -8.91421079635620117188e-01) (23, -1.03439617156982421875e+00) (24, -9.65730428695678710938e-01) (25, -5.99994659423828125000e-01) (26, -8.70745539665222167969e-01) (27, -6.22708976268768310547e-01) (28, -2.44452521204948425293e-01) (29, -6.34612381458282470703e-01) (30, -6.06353342533111572266e-01) (0, -5.74719846248626708984e-01) (1, -5.78028857707977294922e-01) (2, -4.45960134267807006836e-01) (3, -2.02124360948801040649e-02) (4, -1.63353133201599121094e+00) (5, 3.81756138801574707031e+00) (6, 1.48510530591011047363e-01) (7, 3.76668524742126464844e+00) (8, -2.45280265808105468750e+01) (9, 2.38319740295410156250e+01) (10, 3.94364318847656250000e+01) (11, -6.50096607208251953125e+00) (12, -3.49590039253234863281e+00) (13, 2.79882640838623046875e+01) (14, -1.75640714168548583984e+00) (15, -1.20936794281005859375e+01) (16, 3.73144209384918212891e-01) (17, 2.34532809257507324219e+00) (18, -1.36946153640747070312e+00) (19, 1.13336825370788574219e+00) (20, 4.95672225952148437500e-01) (21, 2.75181472301483154297e-01) (22, -2.11583065986633300781e+00) (23, -2.21688079833984375000e+00) (24, -1.99913418292999267578e+00) (25, -1.38384222984313964844e+00) (26, -1.31763589382171630859e+00) (27, -9.69590306282043457031e-01) (28, -1.44650340080261230469e+00) (29, -1.44292914867401123047e+00) (30, -7.20074701309204101562e+00) (0, -9.03385257720947265625e+00) (1, 6.93724441528320312500e+00) (2, -5.82861137390136718750e+00) (3, 1.03874149322509765625e+01) (4, 6.72001981735229492188e+00) (5, 6.11710119247436523438e+00) (6, 1.74872913360595703125e+01) (7, 3.80322504043579101562e+00) (8, -2.39414167404174804688e+00) (9, -3.05732669830322265625e+01) (10, 6.24294567108154296875e+00) (11, 6.30955600738525390625e+00) (12, 1.45962686538696289062e+01) (13, 2.25237369537353515625e+00) (14, 5.15216350555419921875e-01) (15, 4.80444288253784179688e+00) (16, -7.26147830486297607422e-01) (17, 4.04876410961151123047e-01) (18, 5.56210875511169433594e-01) (19, -3.75517308712005615234e-01) (20, -1.96664273738861083984e-01) (21, -5.93412995338439941406e-01) (22, 2.29244325309991836548e-02) (23, -4.82020765542984008789e-01) (24, -3.92057508230209350586e-01) (25, -1.87538452446460723877e-02) (26, -1.35133287403732538223e-03) (27, -2.31880009174346923828e-01) (28, -2.19074487686157226562e-01) (29, -4.78063255548477172852e-01) (30, -4.98770523071289062500e+00) (0, 3.00972118377685546875e+01) (1, 1.02180741727352142334e-01) (2, -1.59514570236206054688e+00) (3, -7.97791576385498046875e+00) (4, -9.80168655514717102051e-02) (5, 2.89796686172485351562e+00) (6, -3.00785255432128906250e+00) (7, 3.91811698675155639648e-01) (8, 5.63022422790527343750e+00) (9, -4.37325811386108398438e+00) (10, 5.47636747360229492188e-01) (11, -4.01373767852783203125e+00) (12, 1.50523691177368164062e+01) (13, 8.54655933380126953125e+00) (14, -3.82407903671264648438e+00) (15, 7.38856792449951171875e+00) (16, 4.29573678970336914062e+00) (17, 1.41472029685974121094e+00) (18, 9.58120405673980712891e-01) (19, 3.35458338260650634766e-01) (20, 8.30901324748992919922e-01) (21, 4.36983793973922729492e-01) (22, 9.28479909896850585938e-01) (23, 1.65775865316390991211e-01) (24, 4.37453955411911010742e-01) (25, 3.42065900564193725586e-01) (26, -6.31986185908317565918e-02) (27, 6.48195207118988037109e-01) (28, -1.43684267997741699219e-01) (29, -5.47397471964359283447e-02) (30, 1.58481225967407226562e+01) (0, 7.51733779907226562500e+00) (1, 4.01161813735961914062e+00) (2, 7.94762253761291503906e-01) (3, 8.12947082519531250000e+00) (4, 6.27967357635498046875e+00) (5, -2.77659893035888671875e+00) (6, 1.04229650497436523438e+01) (7, 1.69073963165283203125e+00) (8, -1.49940414428710937500e+01) (9, 1.38299636840820312500e+01) (10, -1.63951759338378906250e+01) (11, -1.32879579067230224609e+00) (12, -6.97541999816894531250e+00) (13, -9.62955296039581298828e-01) (14, -1.27028846740722656250e+00) (15, 3.54550909996032714844e+00) (16, -5.03004729747772216797e-01) (17, 3.22232156991958618164e-01) (18, 1.09639322757720947266e+00) (19, 4.79081958532333374023e-01) (20, -2.52947390079498291016e-01) (21, 8.05133163928985595703e-01) (22, -3.35167258977890014648e-01) (23, 6.53005659580230712891e-01) (24, -5.99563717842102050781e-01) (25, -7.21882462501525878906e-01) (26, 6.13564312458038330078e-01) (27, -1.52907520532608032227e-01) (28, 3.12487721443176269531e-01) (29, -2.77591466903686523438e-01) (30, 8.47835350036621093750e+00) (0, 6.34935081005096435547e-01) (1, 8.85373592376708984375e-01) (2, -7.67246246337890625000e+00) (3, -9.27055740356445312500e+00) (4, -5.79256486892700195312e+00) (5, -3.10983729362487792969e+00) (6, -2.18215703964233398438e+00) (7, -2.73277640342712402344e+00) (8, 7.01440334320068359375e-01) (9, -5.12833881378173828125e+00) (10, 3.96065635681152343750e+01) (11, -1.03210649490356445312e+01) (12, -2.67744369506835937500e+01) (13, -4.63010120391845703125e+00) (14, 2.27748527526855468750e+01) (15, 4.84320735931396484375e+00) (16, 3.10016632080078125000e+00) (17, 1.21781790256500244141e+00) (18, 1.39418113231658935547e+00) (19, 8.87443780899047851562e-01) (20, 2.04575753211975097656e+00) (21, 7.44561970233917236328e-01) (22, 1.77281033992767333984e+00) (23, 1.19965565204620361328e+00) (24, 1.71300899982452392578e+00) (25, 1.60370421409606933594e+00) (26, 1.43505382537841796875e+00) (27, 1.68355238437652587891e+00) (28, 1.74242532253265380859e+00) (29, 1.32348132133483886719e+00) (30, 5.68111705780029296875e+00) (0, 7.93971920013427734375e+00) (1, 6.44828748703002929688e+00) (2, 1.55692567825317382812e+01) (3, 1.91213250160217285156e+00) (4, -1.43293476104736328125e+00) (5, 1.34875202178955078125e+00) (6, 3.63985419273376464844e+00) (7, 4.04114627838134765625e+00) (8, 2.82029938697814941406e+00) (9, -3.13867988586425781250e+01) (10, 1.61199932098388671875e+01) (11, 2.96731877326965332031e+00) (12, 7.03853034973144531250e+00) (13, -6.67343950271606445312e+00) (14, -9.33845996856689453125e-01) (15, -6.21591091156005859375e+00) (16, -3.82912778854370117188e+00) (17, -7.58981764316558837891e-01) (18, -1.61144936084747314453e+00) (19, -2.30599093437194824219e+00) (20, -1.48813009262084960938e+00) (21, -1.72064125537872314453e+00) (22, -7.08611190319061279297e-01) (23, -1.49442374706268310547e+00) (24, -8.33946406841278076172e-01) (25, -8.76883506774902343750e-01) (26, -2.51115947961807250977e-01) (27, -6.26110434532165527344e-01) (28, -7.52783715724945068359e-01) (29, -6.89698100090026855469e-01) (30, 1.42563477158546447754e-01) (0, 4.53996753692626953125e+00) (1, 2.02317640185356140137e-01) (2, -1.68692398071289062500e+01) (3, 1.14581203460693359375e+01) (4, -9.06796646118164062500e+00) (5, 1.03464281558990478516e+00) (6, 4.82324171066284179688e+00) (7, -5.85773825645446777344e-01) (8, 3.75122022628784179688e+00) (9, 4.65754270553588867188e+00) (10, -1.40933656692504882812e+01) (11, -3.93294119834899902344e+00) (12, -1.41684932708740234375e+01) (13, -2.18639731407165527344e+00) (14, -1.34367734193801879883e-01) (15, 3.97419035434722900391e-01) (16, -1.14709031581878662109e+00) (17, -7.43683457374572753906e-01) (18, -1.76281437277793884277e-01) (19, 4.43895421922206878662e-02) (20, -3.81382882595062255859e-01) (21, 2.01157048344612121582e-01) (22, -8.82218003273010253906e-01) (23, -8.73722434043884277344e-02) (24, 4.31251823902130126953e-01) (25, 3.89750093221664428711e-01) (26, -1.53614789247512817383e-01) (27, -2.74420052766799926758e-01) (28, 2.96004176139831542969e-01) (29, 6.70064836740493774414e-02) (30, -5.60594558715820312500e+00) (0, 1.11029558181762695312e+01) (1, 2.79863405227661132812e+00) (2, -3.27154707908630371094e+00) (3, 7.53784835338592529297e-01) (4, -8.79922676086425781250e+00) (5, -3.91559672355651855469e+00) (6, -4.35125446319580078125e+00) (7, 8.59830856323242187500e+00) (8, 2.84073677062988281250e+01) (9, 1.02319679260253906250e+01) (10, 6.19810485839843750000e+00) (11, -6.11979866027832031250e+00) (12, -1.65904831886291503906e+00) (13, 3.96703934669494628906e+00) (14, 3.94540214538574218750e+00) (15, -7.53116750717163085938e+00) (16, -6.47690057754516601562e-01) (17, 1.05134868621826171875e+00) (18, 1.46498227119445800781e+00) (19, 9.98930558562278747559e-02) (20, 1.14537775516510009766e+00) (21, -2.45508268475532531738e-01) (22, -4.19376455247402191162e-02) (23, -1.75327882170677185059e-01) (24, 7.10105121135711669922e-01) (25, 9.10509005188941955566e-02) (26, -1.01236350834369659424e-01) (27, 7.30428934097290039062e-01) (28, 3.64046782255172729492e-01) (29, 3.79096806049346923828e-01) (30, 1.16444406509399414062e+01) (0, -1.13616764545440673828e+00) (1, 3.23180556297302246094e+00) (2, -2.91723561286926269531e+00) (3, 8.58415722846984863281e-01) (4, -6.43808245658874511719e-01) (5, 2.10150408744812011719e+00) (6, -1.08564145863056182861e-01) (7, -3.66289877891540527344e+00) (8, -2.38750195503234863281e+00) (9, -1.59874401092529296875e+01) (10, -8.47906303405761718750e+00) (11, -2.60285282135009765625e+01) (12, -3.47198796272277832031e+00) (13, 2.72099475860595703125e+01) (14, 1.78706496953964233398e-01) (15, -1.93204135894775390625e+01) (16, -4.33898067474365234375e+00) (17, -9.89681529998779296875e+00) (18, -3.75989055633544921875e+00) (19, -1.23006284236907958984e+00) (20, -3.32171964645385742188e+00) (21, 4.83995109796524047852e-01) (22, -3.85269969701766967773e-01) (23, 1.36185884475708007812e+00) (24, -2.76885628700256347656e-01) (25, 1.49696543812751770020e-02) (26, 9.88165497779846191406e-01) (27, 1.00214636325836181641e+00) (28, 1.13489091396331787109e+00) (29, 1.06038582324981689453e+00) (30, 8.30811214447021484375e+00) (31, 3.04768919944763183594e+00) (32, 9.31343793869018554688e-01) (33, 3.47489666938781738281e+00) (34, -4.31455105543136596680e-01) (35, 3.44756078720092773438e+00) (36, -1.86260724067687988281e+00) (37, -7.44048416614532470703e-01) (38, 3.28406739234924316406e+00) (39, -3.36795949935913085938e+00) (40, 2.58468437194824218750e+00) (41, 1.41433281823992729187e-02) (42, 2.64113283157348632812e+00) (43, 4.76113080978393554688e+00) (44, 3.27316474914550781250e+00) (45, 5.13684654235839843750e+00) (46, 3.45161104202270507812e+00) (47, -2.24296832084655761719e+00) (48, -3.13832020759582519531e+00) (49, 6.17571783065795898438e+00) (50, -5.90312290191650390625e+00) (51, -2.06460647583007812500e+01) (52, 2.71910595893859863281e+00) (53, -3.84242391586303710938e+00) (54, -2.73929268121719360352e-01) (55, -6.15924406051635742188e+00) (56, 2.18518066406250000000e+00) (57, -9.50232893228530883789e-02) (58, 4.84998130798339843750e+00) (59, 2.25558733940124511719e+00) (60, 1.34715967178344726562e+01) (61, -6.45892286300659179688e+00) (62, -1.16700906753540039062e+01) (63, -1.30642282962799072266e+00) (64, -2.29127597808837890625e+00) (65, 3.92595028877258300781e+00) (66, 4.80814743041992187500e+00) (67, 1.50265920162200927734e+00) (68, 7.64563417434692382812e+00) (69, 2.23531365394592285156e+00) (70, -3.89901185035705566406e+00) (71, -2.03702545166015625000e+00) (72, 5.78287839889526367188e+00) (73, 6.03916764259338378906e-01) (74, 4.19010448455810546875e+00) (75, 3.68948101997375488281e+00) (76, 3.65933799743652343750e+00) (77, -3.08574229478836059570e-01) (78, -2.36855196952819824219e+00) (79, 1.61210727691650390625e+00) (80, 1.21163272857666015625e+01) (81, -1.95593032836914062500e+01) (31, 1.49324095249176025391e+00) (32, 4.50838565826416015625e+00) (33, -6.06599077582359313965e-02) (34, -1.06413222849369049072e-01) (35, -3.14738774299621582031e+00) (36, -3.09749913215637207031e+00) (37, 2.67745184898376464844e+00) (38, -6.37787675857543945312e+00) (39, -4.41204929351806640625e+00) (40, -4.79178094863891601562e+00) (41, 7.81976878643035888672e-02) (42, -7.31925547122955322266e-01) (43, 2.98073196411132812500e+00) (44, 3.24419903755187988281e+00) (45, 3.16680967807769775391e-01) (46, 8.36876392364501953125e+00) (47, 4.25524997711181640625e+00) (48, 3.52415347099304199219e+00) (49, -3.50665974617004394531e+00) (50, 3.34403395652770996094e+00) (51, 2.24917769432067871094e+00) (52, -1.04945147037506103516e+00) (53, -2.19064950942993164062e+00) (54, 6.67720556259155273438e-01) (55, 5.56950807571411132812e+00) (56, -9.46888923645019531250e-01) (57, 3.72208547592163085938e+00) (58, -3.03203272819519042969e+00) (59, -1.80975258350372314453e+00) (60, 3.31956624984741210938e+00) (61, -3.28013944625854492188e+00) (62, -3.96799892187118530273e-02) (63, -1.36690747737884521484e+00) (64, -9.85661888122558593750e+00) (65, -3.64735984802246093750e+00) (66, 8.16831290721893310547e-01) (67, -2.13362169265747070312e+00) (68, 2.75094652175903320312e+00) (69, -3.05520272254943847656e+00) (70, 4.19566011428833007812e+00) (71, -2.35911059379577636719e+00) (72, -2.64979863166809082031e+00) (73, 9.24462556838989257812e-01) (74, 6.09485197067260742188e+00) (75, -4.87269133329391479492e-01) (76, 2.74454426765441894531e+00) (77, -5.00399708747863769531e-01) (78, 2.60059762001037597656e+00) (79, 2.67734980583190917969e+00) (80, 1.83211520314216613770e-01) (81, -9.44400978088378906250e+00) (31, 4.16139650344848632812e+00) (32, 5.96780776977539062500e+00) (33, 5.91541481018066406250e+00) (34, 2.65030574798583984375e+00) (35, 7.39175021648406982422e-01) (36, 4.32850010693073272705e-02) (37, -5.92680931091308593750e+00) (38, -7.44419991970062255859e-02) (39, 2.93708395957946777344e+00) (40, -1.10754048824310302734e+00) (41, -3.45223522186279296875e+00) (42, 3.86583757400512695312e+00) (43, 6.46514773368835449219e-01) (44, -1.58479547500610351562e+00) (45, -6.44317483901977539062e+00) (46, 8.68352317810058593750e+00) (47, 4.49982315301895141602e-01) (48, -1.33744239807128906250e+00) (49, -1.52060651779174804688e+00) (50, 2.87316560745239257812e+00) (51, 4.64329814910888671875e+00) (52, 6.90560936927795410156e-01) (53, -1.99529647827148437500e+00) (54, 8.83192157745361328125e+00) (55, -2.59632277488708496094e+00) (56, -2.66466951370239257812e+00) (57, -3.48493719100952148438e+00) (58, 3.04216837882995605469e+00) (59, -5.68846583366394042969e-01) (60, -3.18327975273132324219e+00) (61, 1.76400053501129150391e+00) (62, 2.34781479835510253906e+00) (63, 4.55166912078857421875e+00) (64, -1.96462047100067138672e+00) (65, -1.32963538169860839844e+00) (66, -7.60328531265258789062e+00) (67, 9.54115104675292968750e+00) (68, -2.98174810409545898438e+00) (69, 1.50396049022674560547e+00) (70, 4.66831207275390625000e+00) (71, -6.31124317646026611328e-01) (72, 4.50111532211303710938e+00) (73, -3.73627924919128417969e+00) (74, -1.94865727424621582031e+00) (75, -2.85296821594238281250e+00) (76, -1.97216510772705078125e+00) (77, 4.69036722183227539062e+00) (78, 1.04672409594058990479e-01) (79, -5.02358102798461914062e+00) (80, 2.11046409606933593750e+00) (81, 1.84099540710449218750e+01) (31, 7.13297367095947265625e-01) (32, -1.32466420531272888184e-01) (33, 7.80915927886962890625e+00) (34, 3.10949993133544921875e+00) (35, 1.12905597686767578125e+00) (36, -9.57792222499847412109e-01) (37, -9.17105197906494140625e-01) (38, -2.54219269752502441406e+00) (39, 2.72987413406372070312e+00) (40, 1.69225728511810302734e+00) (41, 1.38159263134002685547e+00) (42, -6.05820953845977783203e-01) (43, -1.07450318336486816406e+00) (44, -7.60305356979370117188e+00) (45, -4.14176988601684570312e+00) (46, 1.03651595115661621094e+00) (47, 1.73023223876953125000e+00) (48, -2.34116029739379882812e+00) (49, -3.82167601585388183594e+00) (50, 1.94462466239929199219e+00) (51, 5.17704868316650390625e+00) (52, 2.62539601325988769531e+00) (53, 8.07760524749755859375e+00) (54, -1.39130473136901855469e+00) (55, -2.49558949470520019531e+00) (56, -3.22006821632385253906e+00) (57, -7.11542904376983642578e-01) (58, 1.50714337825775146484e+00) (59, -4.56268882751464843750e+00) (60, 4.97655773162841796875e+00) (61, 2.71051317453384399414e-01) (62, 1.39141321182250976562e+00) (63, -3.54429316520690917969e+00) (64, -1.40540170669555664062e+00) (65, -2.19098854064941406250e+00) (66, -8.68528842926025390625e+00) (67, 1.30294132232666015625e+00) (68, -2.19186854362487792969e+00) (69, 1.75395870208740234375e+00) (70, 8.83017182350158691406e-01) (71, -1.32191324234008789062e+00) (72, 9.49107781052589416504e-02) (73, -3.75088334083557128906e-01) (74, 1.42719161510467529297e+00) (75, -1.39221894741058349609e+00) (76, -3.25258874893188476562e+00) (77, -2.76660203933715820312e+00) (78, 1.39975929260253906250e+00) (79, -1.72438156604766845703e+00) (80, -2.31707525253295898438e+00) (81, 1.93431222438812255859e+00) (31, -1.11657917499542236328e+00) (32, 3.17202663421630859375e+00) (33, -1.32277679443359375000e+00) (34, -4.09267616271972656250e+00) (35, -3.76040863990783691406e+00) (36, -1.92537355422973632812e+00) (37, -5.86809635162353515625e+00) (38, 3.59322214126586914062e+00) (39, 3.69194221496582031250e+00) (40, -1.65579891204833984375e+00) (41, 9.05405330657958984375e+00) (42, -1.05045929551124572754e-01) (43, 1.80906271934509277344e+00) (44, 1.20568919181823730469e+00) (45, -2.22020840644836425781e+00) (46, 4.78540134429931640625e+00) (47, -1.49508893489837646484e+00) (48, 1.63155984878540039062e+00) (49, 1.59094274044036865234e+00) (50, -4.23991394042968750000e+00) (51, 3.09771609306335449219e+00) (52, 3.87079477310180664062e+00) (53, 3.38037848472595214844e+00) (54, 1.80495643615722656250e+00) (55, 3.82034444808959960938e+00) (56, -2.23968839645385742188e+00) (57, -5.35113477706909179688e+00) (58, -1.42959249019622802734e+00) (59, -3.04761099815368652344e+00) (60, -7.83485937118530273438e+00) (61, 4.68914937973022460938e+00) (62, -1.46821367740631103516e+00) (63, -3.51299214363098144531e+00) (64, -3.56077170372009277344e+00) (65, 4.11148834228515625000e+00) (66, 1.57080912590026855469e+00) (67, -2.01020264625549316406e+00) (68, -4.42293262481689453125e+00) (69, -4.21437311172485351562e+00) (70, 2.39760971069335937500e+00) (71, 8.70695114135742187500e+00) (72, 9.44226980209350585938e-01) (73, 2.67397856712341308594e+00) (74, -4.99305772781372070312e+00) (75, 2.02227497100830078125e+00) (76, 3.09001636505126953125e+00) (77, 2.07367405295372009277e-01) (78, 4.29327547550201416016e-01) (79, -3.58997607231140136719e+00) (80, -5.27964532375335693359e-01) (81, 5.18931531906127929688e+00) (31, 1.81325507164001464844e+00) (32, 9.21729946136474609375e+00) (33, 2.74994087219238281250e+00) (34, -5.25409877300262451172e-01) (35, 1.78527593612670898438e+00) (36, 8.51638698577880859375e+00) (37, 8.04962575435638427734e-01) (38, 5.96100997924804687500e+00) (39, 6.14443957805633544922e-01) (40, 2.05474829673767089844e+00) (41, 2.18362116813659667969e+00) (42, -8.11512374877929687500e+00) (43, 6.24839401245117187500e+00) (44, -2.75749778747558593750e+00) (45, 4.56859111785888671875e+00) (46, 4.69462203979492187500e+00) (47, -4.44092607498168945312e+00) (48, -2.25039052963256835938e+00) (49, -1.89488780498504638672e+00) (50, -3.94095706939697265625e+00) (51, -4.25734949111938476562e+00) (52, 2.23405122756958007812e+00) (53, -2.03780984878540039062e+00) (54, -2.82636427879333496094e+00) (55, 2.56438183784484863281e+00) (56, 4.87123107910156250000e+00) (57, 8.80842447280883789062e-01) (58, -1.85719704627990722656e+00) (59, -5.04778528213500976562e+00) (60, -7.53694534301757812500e-01) (61, 1.70538067817687988281e+00) (62, -2.41783905029296875000e+00) (63, -8.47459062933921813965e-02) (64, 2.37095332145690917969e+00) (65, 4.40437459945678710938e+00) (66, 4.92036294937133789062e+00) (67, -3.21186828613281250000e+00) (68, 2.90703201293945312500e+00) (69, -2.28220701217651367188e+00) (70, 3.71522635221481323242e-01) (71, 2.41158652305603027344e+00) (72, -9.26642036437988281250e+00) (73, 2.31391763687133789062e+00) (74, -6.00233888626098632812e+00) (75, -1.22579157352447509766e+00) (76, 7.27996155619621276855e-02) (77, -2.87412238121032714844e+00) (78, 4.77892017364501953125e+00) (79, 3.24597072601318359375e+00) (80, -1.29939460754394531250e+00) (81, -9.62192058563232421875e+00) (31, 5.82769773900508880615e-02) (32, 5.28426837921142578125e+00) (33, -1.46429467201232910156e+00) (34, 1.07202088832855224609e+00) (35, 4.03747987747192382812e+00) (36, -1.73922109603881835938e+00) (37, 6.01656389236450195312e+00) (38, 5.63348722457885742188e+00) (39, -9.50462818145751953125e+00) (40, -8.48788082599639892578e-01) (41, -2.21997642517089843750e+00) (42, -6.25364351272583007812e+00) (43, 3.96331623196601867676e-02) (44, 3.66793370246887207031e+00) (45, 9.45323753356933593750e+00) (46, 1.92168641090393066406e+00) (47, -8.58305263519287109375e+00) (48, 5.28184235095977783203e-01) (49, 3.77833557128906250000e+00) (50, 1.98822915554046630859e+00) (51, 3.44567596912384033203e-01) (52, -1.57083070278167724609e+00) (53, 3.66138267517089843750e+00) (54, 1.07873702049255371094e+00) (55, 1.19409054517745971680e-01) (56, 6.98792457580566406250e+00) (57, 2.65272080898284912109e-01) (58, -1.27820444107055664062e+00) (59, 1.73210620880126953125e+00) (60, 5.03112411499023437500e+00) (61, -1.72922658920288085938e+00) (62, -3.89547348022460937500e+00) (63, 2.79654574394226074219e+00) (64, 4.46306657791137695312e+00) (65, -1.37849116325378417969e+00) (66, 8.27927291393280029297e-02) (67, -1.91526448726654052734e+00) (68, 2.36952829360961914062e+00) (69, 1.57033908367156982422e+00) (70, 1.80625748634338378906e+00) (71, 8.37640523910522460938e-01) (72, -2.13146877288818359375e+00) (73, 3.54574394226074218750e+00) (74, -6.12892675399780273438e+00) (75, 1.22215473651885986328e+00) (76, 2.61317896842956542969e+00) (77, -4.42390799522399902344e-01) (78, 2.26642799377441406250e+00) (79, -2.07408428192138671875e+00) (80, 2.13021531701087951660e-01) (81, -1.78064785003662109375e+01) (31, 3.65884757041931152344e+00) (32, 3.40182328224182128906e+00) (33, -3.47735810279846191406e+00) (34, -2.38018417358398437500e+00) (35, 6.88629817962646484375e+00) (36, 1.44947016239166259766e+00) (37, -2.66786694526672363281e+00) (38, 2.08814930915832519531e+00) (39, -2.57628011703491210938e+00) (40, -9.50432121753692626953e-01) (41, -1.22327876091003417969e+00) (42, 1.21099793910980224609e+00) (43, 2.33974361419677734375e+00) (44, 4.48261213302612304688e+00) (45, 6.42496156692504882812e+00) (46, -6.92040443420410156250e-01) (47, 1.82297065854072570801e-01) (48, 2.74716806411743164062e+00) (49, 2.18460130691528320312e+00) (50, 1.60922810435295104980e-01) (51, -5.06451427936553955078e-01) (52, 4.28419560194015502930e-01) (53, -9.03490424156188964844e-01) (54, 1.11804139614105224609e+00) (55, -1.44284439086914062500e+00) (56, 3.68787884712219238281e+00) (57, -1.67226862907409667969e+00) (58, 1.16792154312133789062e+00) (59, -1.79337167739868164062e+00) (60, 1.62077009677886962891e+00) (61, 9.48855578899383544922e-01) (62, -1.68128013610839843750e+00) (63, -9.04371440410614013672e-01) (64, -2.55784511566162109375e+00) (65, 1.04095554351806640625e+00) (66, -1.29744732379913330078e+00) (67, -3.92771959304809570312e+00) (68, -1.98896253108978271484e+00) (69, -6.59551560878753662109e-01) (70, -1.52392148971557617188e+00) (71, 1.18573057651519775391e+00) (72, -4.67193889617919921875e+00) (73, -3.15550947189331054688e+00) (74, -7.26648509502410888672e-01) (75, -3.24382162094116210938e+00) (76, 5.87909078598022460938e+00) (77, -4.12196844816207885742e-01) (78, -2.99019670486450195312e+00) (79, 6.28501594066619873047e-01) (80, -6.41676425933837890625e-01) (81, -8.01905632019042968750e+00) (31, -7.42901897430419921875e+00) (32, -6.14597463607788085938e+00) (33, 5.80062770843505859375e+00) (34, -3.61320662498474121094e+00) (35, -8.58463287353515625000e-01) (36, -1.03832483291625976562e+00) (37, -6.54955196380615234375e+00) (38, -3.97403478622436523438e+00) (39, 2.59360790252685546875e+00) (40, 3.30709457397460937500e+00) (41, 4.01137685775756835938e+00) (42, -6.08763885498046875000e+00) (43, -1.38971495628356933594e+00) (44, -3.22699284553527832031e+00) (45, -8.16752240061759948730e-02) (46, -9.36897373199462890625e+00) (47, 2.99591207504272460938e+00) (48, 5.36969327926635742188e+00) (49, 3.63070821762084960938e+00) (50, 3.77085113525390625000e+00) (51, -1.31219446659088134766e-01) (52, 4.10111188888549804688e+00) (53, 6.68870973587036132812e+00) (54, 3.85652685165405273438e+00) (55, -4.43420791625976562500e+00) (56, -4.99025678634643554688e+00) (57, 1.93112528324127197266e+00) (58, -1.04924476146697998047e+00) (59, -6.04260253906250000000e+00) (60, 1.43491661548614501953e+00) (61, 3.36105799674987792969e+00) (62, 5.28155469894409179688e+00) (63, -3.28950715065002441406e+00) (64, 4.05921220779418945312e+00) (65, 4.68424177169799804688e+00) (66, -2.12966465950012207031e+00) (67, -6.37107849121093750000e-01) (68, 7.86467120051383972168e-02) (69, 2.99191594123840332031e+00) (70, -8.53466606140136718750e+00) (71, -8.41792047023773193359e-01) (72, 1.19196563959121704102e-01) (73, -4.16456222534179687500e-01) (74, 5.15147924423217773438e+00) (75, 2.97265839576721191406e+00) (76, 5.15602946281433105469e-01) (77, 2.86902099847793579102e-01) (78, -4.03035736083984375000e+00) (79, 6.21687459945678710938e+00) (80, -1.63500857353210449219e+00) (81, 7.47755384445190429688e+00) (31, 9.37052345275878906250e+00) (32, 9.82229232788085937500e+00) (33, -8.20320892333984375000e+00) (34, 4.68720579147338867188e+00) (35, 5.26218557357788085938e+00) (36, 1.77395439147949218750e+00) (37, 2.95490860939025878906e+00) (38, -3.33323335647583007812e+00) (39, -5.08043766021728515625e+00) (40, -3.25818419456481933594e+00) (41, -2.99344491958618164062e+00) (42, -5.36783599853515625000e+00) (43, -9.08761084079742431641e-01) (44, 1.12706995010375976562e+00) (45, -4.26811665296554565430e-01) (46, 2.27275991439819335938e+00) (47, 5.94299077987670898438e+00) (48, -2.53083372116088867188e+00) (49, -9.45606231689453125000e+00) (50, 1.34787428379058837891e+00) (51, -6.66209268569946289062e+00) (52, -3.08205699920654296875e+00) (53, -1.06156110763549804688e+00) (54, 2.60228610038757324219e+00) (55, -5.54653048515319824219e-01) (56, 3.58647894859313964844e+00) (57, 2.52590799331665039062e+00) (58, 1.60137152671813964844e+00) (59, -9.11978149414062500000e+00) (60, 8.45581626892089843750e+00) (61, -1.87863659858703613281e+00) (62, -4.19021749496459960938e+00) (63, -2.82361817359924316406e+00) (64, -2.78294491767883300781e+00) (65, -1.19253888726234436035e-01) (66, 1.62700855731964111328e+00) (67, 5.30021250247955322266e-01) (68, 1.32534384727478027344e+00) (69, -3.45829439163208007812e+00) (70, -4.56681346893310546875e+00) (71, -3.00037908554077148438e+00) (72, -7.55984640121459960938e+00) (73, -4.75222253799438476562e+00) (74, 5.04484701156616210938e+00) (75, -1.45440220832824707031e+00) (76, 1.24495851993560791016e+00) (77, -7.81157076358795166016e-01) (78, 9.68133091926574707031e-01) (79, 4.81744289398193359375e+00) (80, 1.15453469753265380859e+00) (81, -1.65736446380615234375e+01) (31, 2.40038728713989257812e+00) (32, 1.01458902359008789062e+01) (33, -9.46060848236083984375e+00) (34, 1.76265406608581542969e+00) (35, 4.83874273300170898438e+00) (36, 3.20461153984069824219e-01) (37, -9.96973276138305664062e-01) (38, -5.25778174400329589844e-01) (39, -3.12213659286499023438e+00) (40, 7.43112683296203613281e-01) (41, -3.57659769058227539062e+00) (42, -1.11008453369140625000e+00) (43, 2.52300906181335449219e+00) (44, -4.31996726989746093750e+00) (45, 4.80576896667480468750e+00) (46, 4.40971803665161132812e+00) (47, -5.74853457510471343994e-02) (48, 3.30313062667846679688e+00) (49, -1.81375062465667724609e+00) (50, 4.55473631620407104492e-01) (51, 3.09868836402893066406e+00) (52, -7.85209476947784423828e-01) (53, -3.83005666732788085938e+00) (54, 6.46359562873840332031e-01) (55, 3.88032412528991699219e+00) (56, 3.31111502647399902344e+00) (57, 9.09957349300384521484e-01) (58, 7.23657429218292236328e-01) (59, -9.73466560244560241699e-02) (60, -1.66487646102905273438e+00) (61, -1.41494572162628173828e+00) (62, -1.01892995834350585938e+00) (63, -1.41734087467193603516e+00) (64, -5.23893260955810546875e+00) (65, -2.00558638572692871094e+00) (66, -5.42543745040893554688e+00) (67, 1.92410671710968017578e+00) (68, 2.61532235145568847656e+00) (69, -4.41702938079833984375e+00) (70, 4.63157129287719726562e+00) (71, 1.24313783645629882812e+00) (72, -3.52913975715637207031e+00) (73, -4.02516698837280273438e+00) (74, -1.11175656318664550781e+00) (75, 2.98409008979797363281e+00) (76, -6.68875980377197265625e+00) (77, -5.20650339126586914062e+00) (78, 1.83549594879150390625e+00) (79, -1.72029435634613037109e+00) (80, -8.39417994022369384766e-01) (81, -7.49696016311645507812e+00) (31, 1.74619078636169433594e+00) (32, 6.62550401687622070312e+00) (33, -3.94430041313171386719e+00) (34, 1.48952394723892211914e-01) (35, 3.47883653640747070312e+00) (36, 8.87673974037170410156e-01) (37, 1.97258996963500976562e+00) (38, 6.85917329788208007812e+00) (39, -4.21635437011718750000e+00) (40, 2.44539833068847656250e+00) (41, -2.39087677001953125000e+00) (42, -1.26222506165504455566e-01) (43, 2.48472476005554199219e+00) (44, 8.31450366973876953125e+00) (45, 1.65106940269470214844e+00) (46, 1.78009951114654541016e+00) (47, 5.91890811920166015625e-01) (48, 2.44966578483581542969e+00) (49, -1.46205291152000427246e-01) (50, 1.63851916790008544922e+00) (51, -3.09568071365356445312e+00) (52, 2.30334401130676269531e+00) (53, -6.02585315704345703125e+00) (54, 1.43669223785400390625e+00) (55, 5.18348646163940429688e+00) (56, 3.35379099845886230469e+00) (57, 1.56245350837707519531e+00) (58, 1.74714997410774230957e-01) (59, 3.30932855606079101562e+00) (60, -1.61922216415405273438e-01) (61, -9.53048884868621826172e-01) (62, -2.80319762229919433594e+00) (63, -1.22751932144165039062e+01) (64, -3.59660387039184570312e+00) (65, 1.22719436883926391602e-01) (66, 1.00536518096923828125e+01) (67, -2.01777482032775878906e+00) (68, 1.98667037487030029297e+00) (69, -2.32912635803222656250e+00) (70, 1.73411285877227783203e+00) (71, -8.28141331672668457031e-01) (72, -5.35207462310791015625e+00) (73, -1.04741191864013671875e+00) (74, 9.11078166961669921875e+00) (75, -5.04327583312988281250e+00) (76, 1.89763879776000976562e+00) (77, -5.86316213011741638184e-02) (78, 2.29160571098327636719e+00) (79, 4.32318240404129028320e-01) (80, 1.17154884338378906250e+00) (81, -1.23203964233398437500e+01) (31, -7.58149325847625732422e-01) (32, -3.47038650512695312500e+00) (33, 4.19684743881225585938e+00) (34, -2.61578130722045898438e+00) (35, -1.03395807743072509766e+00) (36, -5.34076616168022155762e-02) (37, 1.27160682678222656250e+01) (38, 3.31470155715942382812e+00) (39, -6.70667767524719238281e-01) (40, -5.95597934722900390625e+00) (41, -2.87699246406555175781e+00) (42, 4.98816013336181640625e+00) (43, 1.97154462337493896484e+00) (44, 4.85058546066284179688e+00) (45, 5.17290782928466796875e+00) (46, -2.96799898147583007812e+00) (47, 6.17937743663787841797e-01) (48, 2.55164361000061035156e+00) (49, 1.23977470397949218750e+00) (50, -5.97862911224365234375e+00) (51, -4.92699670791625976562e+00) (52, -2.88724273443222045898e-01) (53, -6.72383356094360351562e+00) (54, 3.29248279333114624023e-01) (55, 4.73656702041625976562e+00) (56, 4.56235647201538085938e+00) (57, 7.88321733474731445312e+00) (58, 8.88570308685302734375e-01) (59, 2.09639763832092285156e+00) (60, 7.26348924636840820312e+00) (61, -7.19411182403564453125e+00) (62, -6.58086490631103515625e+00) (63, 2.44718813896179199219e+00) (64, -3.27104043960571289062e+00) (65, -2.90320467948913574219e+00) (66, -5.78869199752807617188e+00) (67, -2.05287981033325195312e+00) (68, -3.56152081489562988281e+00) (69, -6.49923372268676757812e+00) (70, 1.82384622097015380859e+00) (71, -4.21856611967086791992e-01) (72, -7.24638700485229492188e+00) (73, 5.15006399154663085938e+00) (74, 7.34850764274597167969e-01) (75, -2.56856322288513183594e-01) (76, 2.16142559051513671875e+00) (77, 1.10576272010803222656e+00) (78, -1.07949841022491455078e+00) (79, -5.82817554473876953125e+00) (80, 2.91925024986267089844e+00) (81, -1.87325363159179687500e+01) (31, -4.03754615783691406250e+00) (32, -1.41797637939453125000e+01) (33, 8.11630606651306152344e-01) (34, -3.55623030662536621094e+00) (35, -2.66414713859558105469e+00) (36, -3.18287968635559082031e-01) (37, -4.41954708099365234375e+00) (38, -2.09916877746582031250e+00) (39, 4.93771839141845703125e+00) (40, -2.68327713012695312500e+00) (41, 3.37231725454330444336e-01) (42, -1.10015320777893066406e+00) (43, -8.51596450805664062500e+00) (44, -2.37724259495735168457e-01) (45, -6.49769115447998046875e+00) (46, -7.54724788665771484375e+00) (47, 4.37012720108032226562e+00) (48, 3.62002301216125488281e+00) (49, 1.67345809936523437500e+00) (50, 5.16860485076904296875e-01) (51, 1.54318392276763916016e+00) (52, 2.26214334368705749512e-01) (53, -2.43447348475456237793e-01) (54, -6.40744495391845703125e+00) (55, 1.26553077697753906250e+01) (56, -1.58022493124008178711e-01) (57, 1.01108461618423461914e-01) (58, -6.31459569931030273438e+00) (59, 1.02672586441040039062e+01) (60, -6.43521356582641601562e+00) (61, 3.87787008285522460938e+00) (62, 3.72047328948974609375e+00) (63, 4.66970491409301757812e+00) (64, -6.30499839782714843750e-01) (65, 7.16011381149291992188e+00) (66, 7.11958837509155273438e+00) (67, -6.80582165718078613281e-01) (68, 4.61682140827178955078e-01) (69, 8.38607978820800781250e+00) (70, -4.25731897354125976562e+00) (71, -8.31083238124847412109e-01) (72, -9.01656031608581542969e-01) (73, -3.85621047019958496094e+00) (74, 3.68167948722839355469e+00) (75, 5.07056534290313720703e-01) (76, -1.21027076244354248047e+00) (77, -3.86853957176208496094e+00) (78, 3.10766005516052246094e+00) (79, -3.56159329414367675781e+00) (80, -8.10869216918945312500e+00) (81, 1.45772228240966796875e+01) (31, -2.72526335716247558594e+00) (32, -2.51534867286682128906e+00) (33, 3.85303705930709838867e-01) (34, -2.84037852287292480469e+00) (35, 9.78590726852416992188e-01) (36, -5.72523534297943115234e-01) (37, -8.30988526344299316406e-01) (38, -8.99374961853027343750e-01) (39, 4.31145524978637695312e+00) (40, -1.44153809547424316406e+00) (41, 2.51329040527343750000e+00) (42, 4.13502335548400878906e-01) (43, -8.74101758003234863281e-01) (44, 5.90250253677368164062e-01) (45, -3.60366725921630859375e+00) (46, -2.28203162550926208496e-01) (47, 2.20515346527099609375e+00) (48, -4.41766381263732910156e-01) (49, -2.49250388145446777344e+00) (50, -3.24382281303405761719e+00) (51, 3.05482912063598632812e+00) (52, -1.18075633049011230469e+00) (53, -7.46956110000610351562e-01) (54, 5.15409946441650390625e-01) (55, -2.04944896697998046875e+00) (56, -2.46464014053344726562e+00) (57, -1.65292572975158691406e+00) (58, 6.02658748626708984375e-01) (59, 2.88443613052368164062e+00) (60, -1.79580783843994140625e+01) (61, 2.76179361343383789062e+00) (62, 1.82973899841308593750e+01) (63, 2.12526369094848632812e+00) (64, -6.43969583511352539062e+00) (65, -2.22060179710388183594e+00) (66, 1.35427522659301757812e+00) (67, 1.80349266529083251953e+00) (68, 1.16919493675231933594e+00) (69, -2.45560073852539062500e+00) (70, 7.34985351562500000000e-01) (71, 4.89566922187805175781e-01) (72, 2.19890928268432617188e+00) (73, -3.31492543220520019531e-01) (74, 1.37776219844818115234e+00) (75, -7.00624585151672363281e-02) (76, -1.08842811584472656250e+01) (77, 3.61679482460021972656e+00) (78, -4.74457919597625732422e-01) (79, 2.45270109176635742188e+00) (80, -4.06571006774902343750e+00) (81, 1.98759002685546875000e+01) (31, 1.13313123583793640137e-02) (32, 5.93381595611572265625e+00) (33, -3.38958764076232910156e+00) (34, -1.68071195483207702637e-01) (35, 5.73038768768310546875e+00) (36, 7.85949409008026123047e-01) (37, -2.56355261802673339844e+00) (38, 3.19310575723648071289e-01) (39, 1.19138002395629882812e+00) (40, -1.89178407192230224609e+00) (41, 2.36540102958679199219e+00) (42, 2.94326210021972656250e+00) (43, -3.46516631543636322021e-02) (44, 2.20448589324951171875e+00) (45, 2.93067646026611328125e+00) (46, 6.32198905944824218750e+00) (47, 2.50700616836547851562e+00) (48, -3.40839296579360961914e-01) (49, -1.00189542770385742188e+00) (50, 1.21321702003479003906e+00) (51, 2.50295686721801757812e+00) (52, 3.46868228912353515625e+00) (53, -7.60639667510986328125e-01) (54, -4.59175586700439453125e-01) (55, 2.24337601661682128906e+00) (56, -6.95976078510284423828e-01) (57, -4.26626014709472656250e+00) (58, 8.03748965263366699219e-01) (59, -3.53938317298889160156e+00) (60, 1.62277722358703613281e+00) (61, -3.78881216049194335938e-01) (62, -9.82159018516540527344e-01) (63, -1.52315676212310791016e+00) (64, 1.18162000179290771484e+00) (65, -4.79315966367721557617e-01) (66, 6.76694726943969726562e+00) (67, -1.42041310667991638184e-01) (68, -1.69019591808319091797e+00) (69, 2.06216549873352050781e+00) (70, 3.03582048416137695312e+00) (71, 6.08278632164001464844e-01) (72, 4.97338199615478515625e+00) (73, 2.20814800262451171875e+00) (74, -3.46583437919616699219e+00) (75, 1.12614858150482177734e+00) (76, -1.05024266242980957031e+00) (77, 6.53962314128875732422e-01) (78, 1.65545594692230224609e+00) (79, -2.91867589950561523438e+00) (80, -7.31407761573791503906e-01) (81, -5.32248830795288085938e+00) (31, 2.70536446571350097656e+00) (32, 1.51301250457763671875e+01) (33, 3.05660009384155273438e+00) (34, -1.99150872230529785156e+00) (35, 1.07389366626739501953e+00) (36, -9.27035808563232421875e-01) (37, 3.79822301864624023438e+00) (38, -1.70169055461883544922e+00) (39, 1.62559494376182556152e-01) (40, -3.16878271102905273438e+00) (41, -4.26643371582031250000e+00) (42, -7.80047893524169921875e-01) (43, 5.13522338867187500000e+00) (44, 3.38422513008117675781e+00) (45, 3.32959246635437011719e+00) (46, 3.92177128791809082031e+00) (47, 1.63280117511749267578e+00) (48, 1.73857808113098144531e+00) (49, -8.81902098655700683594e-01) (50, -4.60328626632690429688e+00) (51, -5.64373683929443359375e+00) (52, 1.05692446231842041016e+00) (53, 4.10984456539154052734e-01) (54, 1.34242665767669677734e+00) (55, 7.02078878879547119141e-01) (56, 1.15025258064270019531e+00) (57, 2.33693027496337890625e+00) (58, 2.46464109420776367188e+00) (59, -6.96243906021118164062e+00) (60, -7.54460990428924560547e-01) (61, -6.59079980850219726562e+00) (62, -7.04348754882812500000e+00) (63, 4.30778169631958007812e+00) (64, -7.01602792739868164062e+00) (65, -3.08648085594177246094e+00) (66, -8.87499392032623291016e-01) (67, -5.23470878601074218750e+00) (68, 9.97176766395568847656e-01) (69, -5.27046918869018554688e+00) (70, 7.10430860519409179688e+00) (71, -8.13128232955932617188e-01) (72, -3.04579973220825195312e+00) (73, -3.63008022308349609375e+00) (74, -3.94565248489379882812e+00) (75, 3.04092258214950561523e-01) (76, 4.35752248764038085938e+00) (77, -3.22612428665161132812e+00) (78, 4.81821155548095703125e+00) (79, -1.59542882442474365234e+00) (80, 8.32118988037109375000e+00) (81, -3.47944998741149902344e+00) (31, 5.01218557357788085938e+00) (32, 4.96370792388916015625e+00) (33, 2.43449354171752929688e+00) (34, -2.44983506202697753906e+00) (35, 1.48125934600830078125e+01) (36, 4.06206417083740234375e+00) (37, 4.39210700988769531250e+00) (38, -3.30010485649108886719e+00) (39, -2.38966202735900878906e+00) (40, 4.13519716262817382812e+00) (41, -1.51211488246917724609e+00) (42, -3.92928576469421386719e+00) (43, 7.19802045822143554688e+00) (44, 7.48009681701660156250e-01) (45, -1.44369944930076599121e-01) (46, 5.67862176895141601562e+00) (47, -5.09609794616699218750e+00) (48, 1.87288141250610351562e+00) (49, -7.58176594972610473633e-02) (50, -6.08699512481689453125e+00) (51, -2.88817548751831054688e+00) (52, -4.07259464263916015625e+00) (53, 4.47941303253173828125e+00) (54, -1.31842029094696044922e+00) (55, -1.95335352420806884766e+00) (56, 6.43654489517211914062e+00) (57, 2.76292395591735839844e+00) (58, 7.05214023590087890625e+00) (59, -2.78012156486511230469e+00) (60, 1.47420334815979003906e+00) (61, -2.27154588699340820312e+00) (62, -3.74045634269714355469e+00) (63, 2.33574104309082031250e+00) (64, -1.19532346725463867188e+01) (65, 3.64811038970947265625e+00) (66, -5.97657108306884765625e+00) (67, -8.36033725738525390625e+00) (68, -2.28893733024597167969e+00) (69, -6.01183319091796875000e+00) (70, 1.13953542709350585938e+00) (71, 1.32494795322418212891e+00) (72, -7.31355762481689453125e+00) (73, -1.36167860031127929688e+01) (74, 3.82977461814880371094e+00) (75, -2.64406633377075195312e+00) (76, 9.82406711578369140625e+00) (77, 7.02169597148895263672e-01) (78, -1.24767363071441650391e+00) (79, 3.50917911529541015625e+00) (80, 1.46825265884399414062e+00) (81, -1.24863786697387695312e+01) (31, 2.56642436981201171875e+00) (32, 8.19898700714111328125e+00) (33, -9.85760879516601562500e+00) (34, -8.29794943332672119141e-01) (35, 3.80674219131469726562e+00) (36, 2.76193904876708984375e+00) (37, -6.35415732860565185547e-01) (38, 8.17793655395507812500e+00) (39, 8.32470595836639404297e-01) (40, -5.09436893463134765625e+00) (41, -5.37320947647094726562e+00) (42, -3.45756959915161132812e+00) (43, 2.66001629829406738281e+00) (44, 3.27030086517333984375e+00) (45, 3.95629954338073730469e+00) (46, 8.95820045471191406250e+00) (47, -3.88719868659973144531e+00) (48, -2.48075461387634277344e+00) (49, -9.39999461174011230469e-01) (50, -1.65691018104553222656e+00) (51, -3.60634088516235351562e-01) (52, 3.43245077133178710938e+00) (53, -3.98952341079711914062e+00) (54, 3.24306464195251464844e+00) (55, 2.38022899627685546875e+00) (56, 3.08540201187133789062e+00) (57, 2.41924468427896499634e-02) (58, 8.26513409614562988281e-01) (59, 1.35715532302856445312e+00) (60, 3.03999185562133789062e+00) (61, -6.07395696640014648438e+00) (62, -9.42636203765869140625e+00) (63, 2.12980794906616210938e+00) (64, 4.04296129941940307617e-01) (65, 3.45429682731628417969e+00) (66, -6.40047216415405273438e+00) (67, -6.17984485626220703125e+00) (68, 1.21244713664054870605e-02) (69, 1.13604807853698730469e+00) (70, 7.96119976043701171875e+00) (71, 1.41082632541656494141e+00) (72, -7.54088592529296875000e+00) (73, -9.84260749816894531250e+00) (74, 6.59014463424682617188e+00) (75, 6.15842282772064208984e-01) (76, 9.53536212444305419922e-01) (77, -5.65326738357543945312e+00) (78, 1.12002182006835937500e+01) (79, 1.63149893283843994141e+00) (80, 2.33999252319335937500e+00) (81, -6.02374267578125000000e+00) (31, 2.02027511596679687500e+00) (32, 3.82555770874023437500e+00) (33, 1.72946286201477050781e+00) (34, -1.05860865116119384766e+00) (35, -4.13992691040039062500e+00) (36, -7.39278745651245117188e+00) (37, 3.14850091934204101562e+00) (38, -1.26513791084289550781e+00) (39, 7.39873647689819335938e-01) (40, 6.53882980346679687500e+00) (41, 5.67439198493957519531e-01) (42, 3.25465369224548339844e+00) (43, -1.63772642612457275391e+00) (44, -2.50994116067886352539e-01) (45, 3.42198681831359863281e+00) (46, 6.49819850921630859375e+00) (47, 1.04026794433593750000e+00) (48, 6.64019393920898437500e+00) (49, 2.63384175300598144531e+00) (50, 2.07014250755310058594e+00) (51, -2.86449599266052246094e+00) (52, -3.69005990028381347656e+00) (53, 4.84331274032592773438e+00) (54, -2.69224047660827636719e+00) (55, -2.35091638565063476562e+00) (56, 3.65994024276733398438e+00) (57, 1.87944161891937255859e+00) (58, -1.57738804817199707031e+00) (59, 4.85123443603515625000e+00) (60, 5.80066823959350585938e+00) (61, -1.20976261794567108154e-01) (62, 4.84654855728149414062e+00) (63, -2.70164108276367187500e+00) (64, -4.88895463943481445312e+00) (65, 1.37175834178924560547e+00) (66, -1.80302405357360839844e+00) (67, 3.84758162498474121094e+00) (68, 5.12852631509304046631e-02) (69, 2.41514635086059570312e+00) (70, 4.00052499771118164062e+00) (71, 2.09375643730163574219e+00) (72, 9.29776132106781005859e-01) (73, 3.65119576454162597656e+00) (74, -1.70556151866912841797e+00) (75, -8.55369269847869873047e-01) (76, -4.64974927902221679688e+00) (77, 1.82138645648956298828e+00) (78, 5.30091464519500732422e-01) (79, 1.33647215366363525391e+00) (80, -3.42759713530540466309e-02) (81, -3.01706099510192871094e+00) (31, 3.21003460884094238281e+00) (32, -2.76495552062988281250e+00) (33, 2.31087827682495117188e+00) (34, -1.39247090555727481842e-03) (35, -2.66249012947082519531e+00) (36, 3.69180738925933837891e-01) (37, -2.26935887336730957031e+00) (38, -4.73651313781738281250e+00) (39, -2.23976945877075195312e+00) (40, 3.96538618952035903931e-03) (41, -6.02726030349731445312e+00) (42, 9.32493880391120910645e-02) (43, -6.55409157276153564453e-01) (44, -1.82511913776397705078e+00) (45, 4.97853517532348632812e+00) (46, -1.61412215232849121094e+00) (47, -1.97537839412689208984e+00) (48, 1.26981484889984130859e+00) (49, 5.07378518581390380859e-01) (50, -2.18280792236328125000e+00) (51, 2.44754120707511901855e-01) (52, -6.10632419586181640625e-01) (53, 6.11307239532470703125e+00) (54, -2.34748035669326782227e-01) (55, -1.94152724742889404297e+00) (56, 2.30719876289367675781e+00) (57, 2.20884513854980468750e+00) (58, -9.85515713691711425781e-02) (59, -1.73347640037536621094e+00) (60, 4.33274793624877929688e+00) (61, 6.22721493244171142578e-01) (62, 5.15960407257080078125e+00) (63, 4.44072723388671875000e+00) (64, 4.74085378646850585938e+00) (65, -1.13208854198455810547e+00) (66, -1.48551988601684570312e+00) (67, 4.42992067337036132812e+00) (68, -1.30044686794281005859e+00) (69, 4.31639719009399414062e+00) (70, 1.95283150672912597656e+00) (71, -2.72477555274963378906e+00) (72, -1.07706594467163085938e+00) (73, 1.38158166408538818359e+00) (74, 2.20163273811340332031e+00) (75, -5.03590869903564453125e+00) (76, -3.07131266593933105469e+00) (77, 9.85186815261840820312e-01) (78, 1.05497193336486816406e+00) (79, 4.08125305175781250000e+00) (80, -1.06245446205139160156e+00) (81, -1.67870771884918212891e+00) (31, 3.82166653871536254883e-01) (32, 5.64440011978149414062e+00) (33, -4.16104412078857421875e+00) (34, 9.51712906360626220703e-01) (35, 1.72142517566680908203e+00) (36, 3.58284378051757812500e+00) (37, -1.46484065055847167969e+00) 